{"learner":{"attributes":{"scikit_learn":"{\"_estimator_type\": \"classifier\"}"},"feature_names":["reg_season_pred","Win_pct_last_10_games_1","Win_pct_last_10_games_2","Win_Percentage_1","Win_Percentage_2","Opp_Turnovers_Per_Game_1","Opp_Turnovers_Per_Game_2","Pace_1","Pace_2","Offensive_Rebound_Rate_1","Offensive_Rebound_Rate_2","FTr_1","FTr_2","T1_Seed_1","T1_Seed_2","T1_Seed_3","T1_Seed_4","T1_Seed_5","T1_Seed_6","T1_Seed_7","T1_Seed_8","T1_Seed_9","T1_Seed_10","T1_Seed_11","T1_Seed_12","T1_Seed_13","T1_Seed_14","T1_Seed_15","T1_Seed_16","T2_Seed_1","T2_Seed_2","T2_Seed_3","T2_Seed_4","T2_Seed_5","T2_Seed_6","T2_Seed_7","T2_Seed_8","T2_Seed_9","T2_Seed_10","T2_Seed_11","T2_Seed_12","T2_Seed_13","T2_Seed_14","T2_Seed_15","T2_Seed_16"],"feature_types":["float","float","float","float","float","float","float","float","float","float","float","float","float","int","int","int","int","int","int","int","int","int","int","int","int","int","int","int","int","int","int","int","int","int","int","int","int","int","int","int","int","int","int","int","int"],"gradient_booster":{"model":{"gbtree_model_param":{"num_parallel_tree":"1","num_trees":"600"},"iteration_indptr":[0,1,2,3,4,5,6,7,8,9,10,11,12,13,14,15,16,17,18,19,20,21,22,23,24,25,26,27,28,29,30,31,32,33,34,35,36,37,38,39,40,41,42,43,44,45,46,47,48,49,50,51,52,53,54,55,56,57,58,59,60,61,62,63,64,65,66,67,68,69,70,71,72,73,74,75,76,77,78,79,80,81,82,83,84,85,86,87,88,89,90,91,92,93,94,95,96,97,98,99,100,101,102,103,104,105,106,107,108,109,110,111,112,113,114,115,116,117,118,119,120,121,122,123,124,125,126,127,128,129,130,131,132,133,134,135,136,137,138,139,140,141,142,143,144,145,146,147,148,149,150,151,152,153,154,155,156,157,158,159,160,161,162,163,164,165,166,167,168,169,170,171,172,173,174,175,176,177,178,179,180,181,182,183,184,185,186,187,188,189,190,191,192,193,194,195,196,197,198,199,200,201,202,203,204,205,206,207,208,209,210,211,212,213,214,215,216,217,218,219,220,221,222,223,224,225,226,227,228,229,230,231,232,233,234,235,236,237,238,239,240,241,242,243,244,245,246,247,248,249,250,251,252,253,254,255,256,257,258,259,260,261,262,263,264,265,266,267,268,269,270,271,272,273,274,275,276,277,278,279,280,281,282,283,284,285,286,287,288,289,290,291,292,293,294,295,296,297,298,299,300,301,302,303,304,305,306,307,308,309,310,311,312,313,314,315,316,317,318,319,320,321,322,323,324,325,326,327,328,329,330,331,332,333,334,335,336,337,338,339,340,341,342,343,344,345,346,347,348,349,350,351,352,353,354,355,356,357,358,359,360,361,362,363,364,365,366,367,368,369,370,371,372,373,374,375,376,377,378,379,380,381,382,383,384,385,386,387,388,389,390,391,392,393,394,395,396,397,398,399,400,401,402,403,404,405,406,407,408,409,410,411,412,413,414,415,416,417,418,419,420,421,422,423,424,425,426,427,428,429,430,431,432,433,434,435,436,437,438,439,440,441,442,443,444,445,446,447,448,449,450,451,452,453,454,455,456,457,458,459,460,461,462,463,464,465,466,467,468,469,470,471,472,473,474,475,476,477,478,479,480,481,482,483,484,485,486,487,488,489,490,491,492,493,494,495,496,497,498,499,500,501,502,503,504,505,506,507,508,509,510,511,512,513,514,515,516,517,518,519,520,521,522,523,524,525,526,527,528,529,530,531,532,533,534,535,536,537,538,539,540,541,542,543,544,545,546,547,548,549,550,551,552,553,554,555,556,557,558,559,560,561,562,563,564,565,566,567,568,569,570,571,572,573,574,575,576,577,578,579,580,581,582,583,584,585,586,587,588,589,590,591,592,593,594,595,596,597,598,599,600],"tree_info":[0,0,0,0,0,0,0,0,0,0,0,0,0,0,0,0,0,0,0,0,0,0,0,0,0,0,0,0,0,0,0,0,0,0,0,0,0,0,0,0,0,0,0,0,0,0,0,0,0,0,0,0,0,0,0,0,0,0,0,0,0,0,0,0,0,0,0,0,0,0,0,0,0,0,0,0,0,0,0,0,0,0,0,0,0,0,0,0,0,0,0,0,0,0,0,0,0,0,0,0,0,0,0,0,0,0,0,0,0,0,0,0,0,0,0,0,0,0,0,0,0,0,0,0,0,0,0,0,0,0,0,0,0,0,0,0,0,0,0,0,0,0,0,0,0,0,0,0,0,0,0,0,0,0,0,0,0,0,0,0,0,0,0,0,0,0,0,0,0,0,0,0,0,0,0,0,0,0,0,0,0,0,0,0,0,0,0,0,0,0,0,0,0,0,0,0,0,0,0,0,0,0,0,0,0,0,0,0,0,0,0,0,0,0,0,0,0,0,0,0,0,0,0,0,0,0,0,0,0,0,0,0,0,0,0,0,0,0,0,0,0,0,0,0,0,0,0,0,0,0,0,0,0,0,0,0,0,0,0,0,0,0,0,0,0,0,0,0,0,0,0,0,0,0,0,0,0,0,0,0,0,0,0,0,0,0,0,0,0,0,0,0,0,0,0,0,0,0,0,0,0,0,0,0,0,0,0,0,0,0,0,0,0,0,0,0,0,0,0,0,0,0,0,0,0,0,0,0,0,0,0,0,0,0,0,0,0,0,0,0,0,0,0,0,0,0,0,0,0,0,0,0,0,0,0,0,0,0,0,0,0,0,0,0,0,0,0,0,0,0,0,0,0,0,0,0,0,0,0,0,0,0,0,0,0,0,0,0,0,0,0,0,0,0,0,0,0,0,0,0,0,0,0,0,0,0,0,0,0,0,0,0,0,0,0,0,0,0,0,0,0,0,0,0,0,0,0,0,0,0,0,0,0,0,0,0,0,0,0,0,0,0,0,0,0,0,0,0,0,0,0,0,0,0,0,0,0,0,0,0,0,0,0,0,0,0,0,0,0,0,0,0,0,0,0,0,0,0,0,0,0,0,0,0,0,0,0,0,0,0,0,0,0,0,0,0,0,0,0,0,0,0,0,0,0,0,0,0,0,0,0,0,0,0,0,0,0,0,0,0,0,0,0,0,0,0,0,0,0,0,0,0,0,0,0,0,0,0,0,0,0,0,0,0,0,0,0,0,0,0,0,0,0,0,0,0,0,0,0,0,0,0,0,0,0,0,0,0,0,0,0,0,0,0,0,0,0,0,0,0,0,0,0,0,0,0,0,0,0,0,0,0,0,0,0,0,0,0,0,0],"trees":[{"base_weights":[4.6855733E-2,-1.2587413E-1,1.28E0,-2.488189E-1,8.095238E-1,1.4374999E-2,9E-3,-3.5664334E-3,6.865672E-3,5E-3,1E-2],"categories":[],"categories_nodes":[],"categories_segments":[],"categories_sizes":[],"default_left":[0,0,0,0,0,0,0,0,0,0,0],"id":0,"left_children":[1,3,5,7,9,-1,-1,-1,-1,-1,-1],"loss_changes":[4.334704E1,2.0758083E1,2.0249939E-1,1.6255987E1,7.380953E-1,0E0,0E0,0E0,0E0,0E0,0E0],"parents":[2147483647,0,0,1,1,2,2,3,3,4,4],"right_children":[2,4,6,8,10,-1,-1,-1,-1,-1,-1],"split_conditions":[1E0,1E0,3.61E-1,1E0,1.228125E1,1.4374999E-2,9E-3,-3.5664334E-3,6.865672E-3,5E-3,1E-2],"split_indices":[13,14,11,16,6,0,0,0,0,0,0],"split_type":[0,0,0,0,0,0,0,0,0,0,0],"sum_hessian":[2.0175E2,1.7775E2,2.4E1,1.5775E2,2E1,1.5E1,9E0,1.42E2,1.575E1,9E0,1.1E1],"tree_param":{"num_deleted":"0","num_feature":"45","num_nodes":"11","size_leaf_vector":"1"}},{"base_weights":[-1.4894261E-2,-1.4823607E-1,9.11408E-1,-2.2478567E-1,1.02339005E-2,1.1072884E-2,6.0114893E-3,-6.708407E-3,-4.0291282E-4],"categories":[],"categories_nodes":[],"categories_segments":[],"categories_sizes":[],"default_left":[0,0,0,0,0,0,0,0,0],"id":1,"left_children":[1,3,5,7,-1,-1,-1,-1,-1],"loss_changes":[2.551716E1,1.641855E1,9.1441154E-1,1.3983558E1,0E0,0E0,0E0,0E0,0E0],"parents":[2147483647,0,0,1,1,2,2,3,3],"right_children":[2,4,6,8,-1,-1,-1,-1,-1],"split_conditions":[1E0,1E0,8E-1,2.8584393E1,1.02339005E-2,1.1072884E-2,6.0114893E-3,-6.708407E-3,-4.0291282E-4],"split_indices":[13,40,2,9,0,0,0,0,0],"split_type":[0,0,0,0,0,0,0,0,0],"sum_hessian":[2.0449805E2,1.7949902E2,2.499903E1,1.6924907E2,1.02499485E1,1.3749462E1,1.1249568E1,4.87498E1,1.20499275E2],"tree_param":{"num_deleted":"0","num_feature":"45","num_nodes":"9","size_leaf_vector":"1"}},{"base_weights":[3.0251486E-2,-1.0331678E-1,1.0387816E0,-2.0598362E-1,7.9376894E-1,6.78417E-3,1.2187834E-2,-3.1079596E-3,7.47596E-3,1.0633383E-2,4.3360866E-3],"categories":[],"categories_nodes":[],"categories_segments":[],"categories_sizes":[],"default_left":[0,0,0,0,0,0,0,0,0,0,0],"id":2,"left_children":[1,3,5,7,9,-1,-1,-1,-1,-1,-1],"loss_changes":[2.9371868E1,1.7915752E1,8.270664E-1,1.7597921E1,1.4806643E0,0E0,0E0,0E0,0E0,0E0,0E0],"parents":[2147483647,0,0,1,1,2,2,3,3,4,4],"right_children":[2,4,6,8,10,-1,-1,-1,-1,-1,-1],"split_conditions":[1E0,1E0,8.2608694E-1,1E0,6.82E1,6.78417E-3,1.2187834E-2,-3.1079596E-3,7.47596E-3,1.0633383E-2,4.3360866E-3],"split_indices":[13,14,3,15,7,0,0,0,0,0,0],"split_type":[0,0,0,0,0,0,0,0,0,0,0],"sum_hessian":[2.1624492E2,1.9174768E2,2.4497227E1,1.7274796E2,1.899973E1,9.748869E0,1.4748358E1,1.5624808E2,1.6499874E1,9.749851E0,9.249878E0],"tree_param":{"num_deleted":"0","num_feature":"45","num_nodes":"11","size_leaf_vector":"1"}},{"base_weights":[-3.4764428E-2,1.4312933E-1,-1.3172798E-2,2.5701085E-1,-8.448142E-3,1.887941E-3,1.3166941E-2],"categories":[],"categories_nodes":[],"categories_segments":[],"categories_sizes":[],"default_left":[0,0,0,0,0,0,0],"id":3,"left_children":[1,3,-1,5,-1,-1,-1],"loss_changes":[4.9637962E1,2.1733274E1,0E0,1.2202392E1,0E0,0E0,0E0],"parents":[2147483647,0,0,1,1,3,3],"right_children":[2,4,-1,6,-1,-1,-1],"split_conditions":[1E0,1E0,-1.3172798E-2,1E0,-8.448142E-3,1.887941E-3,1.3166941E-2],"split_indices":[29,30,0,42,0,0,0],"split_type":[0,0,0,0,0,0,0],"sum_hessian":[2.1573943E2,1.902402E2,2.5499233E1,1.7124089E2,1.8999306E1,1.6199094E2,9.249951E0],"tree_param":{"num_deleted":"0","num_feature":"45","num_nodes":"7","size_leaf_vector":"1"}},{"base_weights":[2.7739707E-2,1.7969263E-1,-1.0595053E0,2.5762132E-1,-5.5824844E-3,-5.9015187E-3,-1.2905735E-2,3.5072444E-3,-5.264914E-3],"categories":[],"categories_nodes":[],"categories_segments":[],"categories_sizes":[],"default_left":[0,0,0,0,0,0,0,0,0],"id":4,"left_children":[1,3,5,7,-1,-1,-1,-1,-1],"loss_changes":[3.6369125E1,1.12419815E1,2.1663208E0,1.2977724E1,0E0,0E0,0E0,0E0,0E0],"parents":[2147483647,0,0,1,1,2,2,3,3],"right_children":[2,4,6,8,-1,-1,-1,-1,-1],"split_conditions":[1E0,1E0,6.72E1,1E0,-5.5824844E-3,-5.9015187E-3,-1.2905735E-2,3.5072444E-3,-5.264914E-3],"split_indices":[29,31,7,32,0,0,0,0,0],"split_type":[0,0,0,0,0,0,0,0,0],"sum_hessian":[2.1798631E2,1.9198877E2,2.5997545E1,1.7423947E2,1.7749296E1,9.749023E0,1.6248522E1,1.5624065E2,1.7998827E1],"tree_param":{"num_deleted":"0","num_feature":"45","num_nodes":"9","size_leaf_vector":"1"}},{"base_weights":[-4.2506114E-2,-2.8284627E-1,5.04754E-1,2.0815147E-1,-4.2649004E-1,3.0988258E-1,8.7580085E-1,-6.3974725E-4,6.3912314E-3,-3.3599648E-3,-9.710908E-3,5.057533E-3,-2.5457272E-3,1.12072E-2,5.9437538E-3],"categories":[],"categories_nodes":[],"categories_segments":[],"categories_sizes":[],"default_left":[0,0,0,0,0,0,0,0,0,0,0,0,0,0,0],"id":5,"left_children":[1,3,5,7,9,11,13,-1,-1,-1,-1,-1,-1,-1,-1],"loss_changes":[2.7893E1,1.0473504E1,4.409828E0,4.0281653E0,5.3039227E0,4.992919E0,8.327408E-1,0E0,0E0,0E0,0E0,0E0,0E0,0E0,0E0],"parents":[2147483647,0,0,1,1,2,2,3,3,4,4,5,5,6,6],"right_children":[2,4,6,8,10,12,14,-1,-1,-1,-1,-1,-1,-1,-1],"split_conditions":[7.878788E-1,2.7570621E1,8.787879E-1,7.241379E-1,1E0,3.68E-1,3.0697191E1,-6.3974725E-4,6.3912314E-3,-3.3599648E-3,-9.710908E-3,5.057533E-3,-2.5457272E-3,1.12072E-2,5.9437538E-3],"split_indices":[3,10,3,3,30,11,10,0,0,0,0,0,0,0,0],"split_type":[0,0,0,0,0,0,0,0,0,0,0,0,0,0,0],"sum_hessian":[2.099825E2,1.4624101E2,6.374149E1,3.2998318E1,1.1324269E2,4.2995625E1,2.0745867E1,2.0748657E1,1.224966E1,9.849349E1,1.4749205E1,3.1996552E1,1.0999073E1,9.497808E0,1.1248057E1],"tree_param":{"num_deleted":"0","num_feature":"45","num_nodes":"15","size_leaf_vector":"1"}},{"base_weights":[1.22610405E-2,6.9867596E-2,-1.0716036E-2,5.045125E-1,-6.4732276E-2,1.6299029E-3,9.915799E-3,-1.8790285E-3,6.7983526E-3],"categories":[],"categories_nodes":[],"categories_segments":[],"categories_sizes":[],"default_left":[0,0,0,0,0,0,0,0,0],"id":6,"left_children":[1,3,-1,5,7,-1,-1,-1,-1],"loss_changes":[1.3606797E1,1.2126901E1,0E0,7.988468E0,1.468494E1,0E0,0E0,0E0,0E0],"parents":[2147483647,0,0,1,1,3,3,4,4],"right_children":[2,4,-1,6,8,-1,-1,-1,-1],"split_conditions":[1E0,2.8070175E1,-1.0716036E-2,3.25E-1,4.13E-1,1.6299029E-3,9.915799E-3,-1.8790285E-3,6.7983526E-3],"split_indices":[27,10,0,12,12,0,0,0,0],"split_type":[0,0,0,0,0,0,0,0,0],"sum_hessian":[2.1572682E2,2.0572807E2,9.998747E0,4.7995277E1,1.577328E2,2.8997456E1,1.899782E1,1.3598503E2,2.1747776E1],"tree_param":{"num_deleted":"0","num_feature":"45","num_nodes":"9","size_leaf_vector":"1"}},{"base_weights":[5.752769E-2,2.1381627E-1,-1.0726031E0,7.806397E-2,1.1975287E0,-1.2427618E-2,-7.573716E-3,-3.143849E-4,6.826831E-3,7.1296045E-3,1.6079174E-2],"categories":[],"categories_nodes":[],"categories_segments":[],"categories_sizes":[],"default_left":[0,0,0,0,0,0,0,0,0,0,0],"id":7,"left_children":[1,3,5,7,9,-1,-1,-1,-1,-1,-1],"loss_changes":[3.7051422E1,2.4475471E1,4.2625046E-1,1.0796006E1,3.276432E0,0E0,0E0,0E0,0E0,0E0,0E0],"parents":[2147483647,0,0,1,1,2,2,3,3,4,4],"right_children":[2,4,6,8,10,-1,-1,-1,-1,-1,-1],"split_conditions":[1E0,1E0,1.3129032E1,7.07E1,3.55E-1,-1.2427618E-2,-7.573716E-3,-3.143849E-4,6.826831E-3,7.1296045E-3,1.6079174E-2],"split_indices":[29,13,6,8,12,0,0,0,0,0,0],"split_type":[0,0,0,0,0,0,0,0,0,0,0],"sum_hessian":[2.0747426E2,1.8298027E2,2.449399E1,1.6173956E2,2.12407E1,1.3996463E1,1.0497526E1,1.3774127E2,2.3998293E1,1.0995268E1,1.0245433E1],"tree_param":{"num_deleted":"0","num_feature":"45","num_nodes":"11","size_leaf_vector":"1"}},{"base_weights":[-3.4006905E-2,-5.384691E-1,1.2133274E0,-1.3913091E0,-1.1521701E-1,7.688497E-1,1.4654407E-2,-1.5036189E-2,-8.145777E-3,-2.1110836E-3,4.1723014E-3,2.8779455E-3,1.2259391E-2],"categories":[],"categories_nodes":[],"categories_segments":[],"categories_sizes":[],"default_left":[0,0,0,0,0,0,0,0,0,0,0,0,0],"id":8,"left_children":[1,3,5,7,9,11,-1,-1,-1,-1,-1,-1,-1],"loss_changes":[1.3214102E2,5.3797775E1,5.650917E0,1.9807663E0,5.2444663E0,4.923087E0,0E0,0E0,0E0,0E0,0E0,0E0,0E0],"parents":[2147483647,0,0,1,1,2,2,3,3,4,4,5,5],"right_children":[2,4,6,8,10,12,-1,-1,-1,-1,-1,-1,-1],"split_conditions":[6.911312E-1,2.620849E-1,8.222396E-1,2.057562E-1,7.07E1,6.86E1,1.4654407E-2,-1.5036189E-2,-8.145777E-3,-2.1110836E-3,4.1723014E-3,2.8779455E-3,1.2259391E-2],"split_indices":[0,0,0,0,8,8,0,0,0,0,0,0,0],"split_type":[0,0,0,0,0,0,0,0,0,0,0,0,0],"sum_hessian":[2.0796503E2,1.484823E2,5.948272E1,4.848975E1,9.999255E1,2.2993908E1,3.6488815E1,3.924101E1,9.248741E0,8.5244E1,1.4748551E1,1.19972515E1,1.0996655E1],"tree_param":{"num_deleted":"0","num_feature":"45","num_nodes":"13","size_leaf_vector":"1"}},{"base_weights":[-4.565296E-3,-3.4961104E-1,3.836042E-1,-5.169783E-1,-1.6713824E-2,4.9776664E-1,-5.2071935E-3,-6.3362867E-3,-8.390839E-4,-5.170944E-3,2.7206482E-3,-2.3055992E-3,5.9178327E-3],"categories":[],"categories_nodes":[],"categories_segments":[],"categories_sizes":[],"default_left":[0,0,0,0,0,0,0,0,0,0,0,0,0],"id":9,"left_children":[1,3,5,7,9,11,-1,-1,-1,-1,-1,-1,-1],"loss_changes":[2.79512E1,6.146611E0,1.0398765E1,3.6589546E0,5.630751E0,6.14279E0,0E0,0E0,0E0,0E0,0E0,0E0,0E0],"parents":[2147483647,0,0,1,1,2,2,3,3,4,4,5,5],"right_children":[2,4,6,8,10,12,-1,-1,-1,-1,-1,-1,-1],"split_conditions":[7.5757575E-1,3.2041588E1,1E0,7.07E1,1.16E1,2.7121464E1,-5.2071935E-3,-6.3362867E-3,-8.390839E-4,-5.170944E-3,2.7206482E-3,-2.3055992E-3,5.9178327E-3],"split_indices":[3,9,32,8,6,9,0,0,0,0,0,0,0],"split_type":[0,0,0,0,0,0,0,0,0,0,0,0,0],"sum_hessian":[2.0668904E2,1.0947527E2,9.721376E1,7.248152E1,3.6993748E1,8.671622E1,1.0497546E1,5.6736145E1,1.574538E1,1.3247883E1,2.3745863E1,9.748026E0,7.696819E1],"tree_param":{"num_deleted":"0","num_feature":"45","num_nodes":"13","size_leaf_vector":"1"}},{"base_weights":[-2.5795892E-2,-1.7725627E-1,9.7191983E-1,-2.702744E-1,6.74649E-3,1.2528122E-2,6.7833494E-3,-3.750348E-3,6.2146913E-3],"categories":[],"categories_nodes":[],"categories_segments":[],"categories_sizes":[],"default_left":[0,0,0,0,0,0,0,0,0],"id":10,"left_children":[1,3,5,7,-1,-1,-1,-1,-1],"loss_changes":[3.1782187E1,1.4640545E1,1.4364395E0,1.5666705E1,0E0,0E0,0E0,0E0,0E0],"parents":[2147483647,0,0,1,1,2,2,3,3],"right_children":[2,4,6,8,-1,-1,-1,-1,-1],"split_conditions":[1E0,1E0,3.49E-1,1E0,6.74649E-3,1.2528122E-2,6.7833494E-3,-3.750348E-3,6.2146913E-3],"split_indices":[13,16,11,14,0,0,0,0,0],"split_type":[0,0,0,0,0,0,0,0,0],"sum_hessian":[2.0817867E2,1.8145485E2,2.6723806E1,1.64208E2,1.724686E1,1.1987379E1,1.4736426E1,1.4746367E2,1.6744326E1],"tree_param":{"num_deleted":"0","num_feature":"45","num_nodes":"9","size_leaf_vector":"1"}},{"base_weights":[-3.3417528E-3,1.2786892E-1,-9.6620303E-1,2.3408966E-1,-7.0302236E-1,-1.3088154E-2,-3.6054817E-3,1.1176867E-3,9.150586E-3,-1.107578E-2,-1.8341914E-3],"categories":[],"categories_nodes":[],"categories_segments":[],"categories_sizes":[],"default_left":[0,0,0,0,0,0,0,0,0,0,0],"id":11,"left_children":[1,3,5,7,9,-1,-1,-1,-1,-1,-1],"loss_changes":[2.6581026E1,1.650874E1,4.7639103E0,1.3637198E1,4.2617836E0,0E0,0E0,0E0,0E0,0E0,0E0],"parents":[2147483647,0,0,1,1,2,2,3,3,4,4],"right_children":[2,4,6,8,10,-1,-1,-1,-1,-1,-1],"split_conditions":[1E0,1E0,7.307692E-1,8.5294116E-1,7.037037E-1,-1.3088154E-2,-3.6054817E-3,1.1176867E-3,9.150586E-3,-1.107578E-2,-1.8341914E-3],"split_indices":[29,30,3,3,3,0,0,0,0,0,0],"split_type":[0,0,0,0,0,0,0,0,0,0,0],"sum_hessian":[2.0841873E2,1.8418652E2,2.42322E1,1.6394601E2,2.024051E1,1.4735498E1,9.496702E0,1.39968E2,2.3978016E1,1.0743889E1,9.496622E0],"tree_param":{"num_deleted":"0","num_feature":"45","num_nodes":"11","size_leaf_vector":"1"}},{"base_weights":[1.5363175E-2,-6.3643146E-1,1.1198367E0,-1.2695177E0,-1.8098703E-1,5.2125084E-1,1.5049143E-2,-1.4194052E-2,-7.703444E-3,2.9163546E-4,-5.9447214E-3,6.9444226E-3,1.817752E-3],"categories":[],"categories_nodes":[],"categories_segments":[],"categories_sizes":[],"default_left":[0,0,0,0,0,0,0,0,0,0,0,0,0],"id":12,"left_children":[1,3,5,7,9,11,-1,-1,-1,-1,-1,-1,-1],"loss_changes":[1.5217636E2,3.810501E1,1.7297623E1,3.0561676E0,6.8377213E0,1.769269E0,0E0,0E0,0E0,0E0,0E0,0E0,0E0],"parents":[2147483647,0,0,1,1,2,2,3,3,4,4,5,5],"right_children":[2,4,6,8,10,12,-1,-1,-1,-1,-1,-1,-1],"split_conditions":[5.9326166E-1,2.8251934E-1,7.5585103E-1,2.0990507E-1,6.94E1,6.97E1,1.5049143E-2,-1.4194052E-2,-7.703444E-3,2.9163546E-4,-5.9447214E-3,6.9444226E-3,1.817752E-3],"split_indices":[0,0,0,0,7,7,0,0,0,0,0,0,0],"split_type":[0,0,0,0,0,0,0,0,0,0,0,0,0],"sum_hessian":[2.0939838E2,1.3195195E2,7.744643E1,5.4461216E1,7.749073E1,3.1239563E1,4.6206863E1,4.0466698E1,1.3994522E1,5.1994434E1,2.5496294E1,1.9993687E1,1.1245878E1],"tree_param":{"num_deleted":"0","num_feature":"45","num_nodes":"13","size_leaf_vector":"1"}},{"base_weights":[-1.12921E-2,-7.502482E-1,8.49827E-1,-1.3402994E0,-2.0548353E-1,3.8814273E-1,1.2943492E0,-9.579965E-3,-1.4822801E-2,-6.878161E-3,1.5696645E-3,8.7888166E-4,8.169753E-3,1.1146809E-2,1.644942E-2],"categories":[],"categories_nodes":[],"categories_segments":[],"categories_sizes":[],"default_left":[0,0,0,0,0,0,0,0,0,0,0,0,0,0,0],"id":13,"left_children":[1,3,5,7,9,11,13,-1,-1,-1,-1,-1,-1,-1,-1],"loss_changes":[1.3147197E2,3.5463474E1,1.9081367E1,1.4672546E0,1.0420955E1,6.1391053E0,1.2017441E0,0E0,0E0,0E0,0E0,0E0,0E0,0E0,0E0],"parents":[2147483647,0,0,1,1,2,2,3,3,4,4,5,5,6,6],"right_children":[2,4,6,8,10,12,14,-1,-1,-1,-1,-1,-1,-1,-1],"split_conditions":[5.2626586E-1,2.8251934E-1,7.450282E-1,3.17E-1,3.31E-1,3.63E-1,9.3311256E-1,-9.579965E-3,-1.4822801E-2,-6.878161E-3,1.5696645E-3,8.7888166E-4,8.169753E-3,1.1146809E-2,1.644942E-2],"split_indices":[0,0,0,11,12,12,0,0,0,0,0,0,0,0,0],"split_type":[0,0,0,0,0,0,0,0,0,0,0,0,0,0,0],"sum_hessian":[2.0460802E2,1.1018403E2,9.442399E1,5.2192463E1,5.799157E1,4.7236725E1,4.718726E1,1.6232248E1,3.5960217E1,2.4495861E1,3.349571E1,2.8492296E1,1.8744429E1,3.396211E1,1.3225151E1],"tree_param":{"num_deleted":"0","num_feature":"45","num_nodes":"15","size_leaf_vector":"1"}},{"base_weights":[-1.0103387E-2,-1.0180062E0,6.861115E-1,-1.3205469E0,-3.5355863E-1,3.636347E-1,1.4186194E0,-1.6598156E-2,-1.2100422E-2,2.4332538E-4,-5.4629403E-3,5.1656715E-3,-3.6834814E-3,1.635632E-2,9.459108E-3],"categories":[],"categories_nodes":[],"categories_segments":[],"categories_sizes":[],"default_left":[0,0,0,0,0,0,0,0,0,0,0,0,0,0,0],"id":14,"left_children":[1,3,5,7,9,11,13,-1,-1,-1,-1,-1,-1,-1,-1],"loss_changes":[1.4757231E2,1.680384E1,2.8867603E1,1.9109344E-1,2.0705054E0,1.0009301E1,2.3180008E0,0E0,0E0,0E0,0E0,0E0,0E0,0E0,0E0],"parents":[2147483647,0,0,1,1,2,2,3,3,4,4,5,5,6,6],"right_children":[2,4,6,8,10,12,14,-1,-1,-1,-1,-1,-1,-1,-1],"split_conditions":[4.4036463E-1,3.0966437E-1,8.222396E-1,5.667113E-2,2.8672745E1,7.07E1,1.3096774E1,-1.6598156E-2,-1.2100422E-2,2.4332538E-4,-5.4629403E-3,5.1656715E-3,-3.6834814E-3,1.635632E-2,9.459108E-3],"split_indices":[0,0,0,0,9,7,6,0,0,0,0,0,0,0,0],"split_type":[0,0,0,0,0,0,0,0,0,0,0,0,0,0,0],"sum_hessian":[2.0830638E2,8.491445E1,1.2339193E2,5.766885E1,2.7245605E1,8.671377E1,3.667816E1,1.0723989E1,4.6944862E1,9.497623E0,1.7747982E1,7.197119E1,1.47425785E1,2.3451735E1,1.3226425E1],"tree_param":{"num_deleted":"0","num_feature":"45","num_nodes":"15","size_leaf_vector":"1"}},{"base_weights":[-1.0453774E-2,-1.4697856E-1,1.0329485E0,-2.5297308E-1,7.552792E-3,1.2081342E-2,7.5707696E-3,-3.2652062E-3,3.4507427E-3],"categories":[],"categories_nodes":[],"categories_segments":[],"categories_sizes":[],"default_left":[0,0,0,0,0,0,0,0,0],"id":15,"left_children":[1,3,5,7,-1,-1,-1,-1,-1],"loss_changes":[2.9463158E1,1.7676138E1,2.4199677E-1,7.3420773E0,0E0,0E0,0E0,0E0,0E0],"parents":[2147483647,0,0,1,1,2,2,3,3],"right_children":[2,4,6,8,-1,-1,-1,-1,-1],"split_conditions":[1E0,1E0,8E-1,1E0,7.552792E-3,1.2081342E-2,7.5707696E-3,-3.2652062E-3,3.4507427E-3],"split_indices":[13,14,2,15,0,0,0,0,0],"split_type":[0,0,0,0,0,0,0,0,0],"sum_hessian":[2.047654E2,1.8183252E2,2.2932882E1,1.6336098E2,1.8471533E1,1.1959163E1,1.0973719E1,1.4587534E2,1.7485647E1],"tree_param":{"num_deleted":"0","num_feature":"45","num_nodes":"9","size_leaf_vector":"1"}},{"base_weights":[-6.0458753E-2,-6.5871173E-1,9.9140835E-1,-1.4468855E0,-2.0876203E-1,5.373843E-1,1.233059E0,-1.61402E-2,-1.1842165E-2,1.7051199E-3,-3.749622E-3,8.790258E-3,2.76163E-3,1.0538886E-2,1.6624687E-2],"categories":[],"categories_nodes":[],"categories_segments":[],"categories_sizes":[],"default_left":[0,0,0,0,0,0,0,0,0,0,0,0,0,0,0],"id":16,"left_children":[1,3,5,7,9,11,13,-1,-1,-1,-1,-1,-1,-1,-1],"loss_changes":[1.34671E2,4.805572E1,7.8525467E0,2.5672913E-1,5.6093082E0,2.3213806E0,2.0855637E0,0E0,0E0,0E0,0E0,0E0,0E0,0E0,0E0],"parents":[2147483647,0,0,1,1,2,2,3,3,4,4,5,5,6,6],"right_children":[2,4,6,8,10,12,14,-1,-1,-1,-1,-1,-1,-1,-1],"split_conditions":[5.9326166E-1,2.4445759E-1,7.450282E-1,1.14246115E-1,6.551724E-1,3.3E-1,9.408999E-1,-1.61402E-2,-1.1842165E-2,1.7051199E-3,-3.749622E-3,8.790258E-3,2.76163E-3,1.0538886E-2,1.6624687E-2],"split_indices":[0,0,0,0,3,11,0,0,0,0,0,0,0,0,0],"split_type":[0,0,0,0,0,0,0,0,0,0,0,0,0,0,0],"sum_hessian":[2.1196944E2,1.3535793E2,7.661151E1,4.8385582E1,8.697234E1,2.7731728E1,4.887978E1,2.642612E1,2.195946E1,2.6491642E1,6.04807E1,1.0991412E1,1.6740316E1,3.6926525E1,1.1953257E1],"tree_param":{"num_deleted":"0","num_feature":"45","num_nodes":"15","size_leaf_vector":"1"}},{"base_weights":[-2.8702399E-2,-9.856185E-1,7.023248E-1,-1.5418038E-2,-5.185044E-1,1.2322046E-1,1.3489636E0,1.3600072E-3,-7.691806E-3,-5.4057127E-5,6.2840623E-3,1.200121E-2,1.6832074E-2],"categories":[],"categories_nodes":[],"categories_segments":[],"categories_sizes":[],"default_left":[0,0,0,0,0,0,0,0,0,0,0,0,0],"id":17,"left_children":[1,3,5,-1,7,9,11,-1,-1,-1,-1,-1,-1],"loss_changes":[1.4997997E2,2.3321045E1,4.535799E1,0E0,8.630969E0,4.242322E0,8.323517E-1,0E0,0E0,0E0,0E0,0E0,0E0],"parents":[2147483647,0,0,1,1,2,2,4,4,5,5,6,6],"right_children":[2,4,6,-1,8,10,12,-1,-1,-1,-1,-1,-1],"split_conditions":[4.4295382E-1,2.0990507E-1,6.911312E-1,-1.5418038E-2,1.1441176E1,7.04E1,9.3311256E-1,1.3600072E-3,-7.691806E-3,-5.4057127E-5,6.2840623E-3,1.200121E-2,1.6832074E-2],"split_indices":[0,0,0,0,6,8,0,0,0,0,0,0,0],"split_type":[0,0,0,0,0,0,0,0,0,0,0,0,0],"sum_hessian":[2.1241098E2,9.184173E1,1.2056926E2,4.0873543E1,5.096818E1,6.423419E1,5.6335068E1,1.4241553E1,3.6726627E1,5.1987E1,1.2247194E1,4.215397E1,1.4181098E1],"tree_param":{"num_deleted":"0","num_feature":"45","num_nodes":"13","size_leaf_vector":"1"}},{"base_weights":[3.839788E-2,2.1487714E-1,-1.1009532E0,8.5670955E-2,1.1126691E0,-8.1036445E-3,-1.266161E-2,1.9279022E-3,-8.011722E-3,7.4287956E-3,1.423162E-2],"categories":[],"categories_nodes":[],"categories_segments":[],"categories_sizes":[],"default_left":[0,0,0,0,0,0,0,0,0,0,0],"id":18,"left_children":[1,3,5,7,9,-1,-1,-1,-1,-1,-1],"loss_changes":[4.107133E1,2.0400103E1,2.8940964E-1,1.4930364E1,1.4854069E0,0E0,0E0,0E0,0E0,0E0,0E0],"parents":[2147483647,0,0,1,1,2,2,3,3,4,4],"right_children":[2,4,6,8,10,-1,-1,-1,-1,-1,-1],"split_conditions":[1E0,1E0,8.6206895E-1,1E0,3.55E-1,-8.1036445E-3,-1.266161E-2,1.9279022E-3,-8.011722E-3,7.4287956E-3,1.423162E-2],"split_indices":[29,13,4,30,12,0,0,0,0,0,0],"split_type":[0,0,0,0,0,0,0,0,0,0,0],"sum_hessian":[2.0208543E2,1.756843E2,2.6401133E1,1.5453914E2,2.1145155E1,1.1709707E1,1.4691425E1,1.3858273E2,1.5956405E1,1.1199455E1,9.945699E0],"tree_param":{"num_deleted":"0","num_feature":"45","num_nodes":"11","size_leaf_vector":"1"}},{"base_weights":[1.4862349E-2,-6.033066E-1,1.0133091E0,-1.2263316E0,-1.7603348E-1,5.030978E-1,1.3301221E0,-8.000879E-3,-1.4033933E-2,-2.9394607E-4,-8.252395E-3,1.272605E-3,9.803383E-3,8.666507E-3,1.4335086E-2],"categories":[],"categories_nodes":[],"categories_segments":[],"categories_sizes":[],"default_left":[0,0,0,0,0,0,0,0,0,0,0,0,0,0,0],"id":19,"left_children":[1,3,5,7,9,11,13,-1,-1,-1,-1,-1,-1,-1,-1],"loss_changes":[1.331764E2,3.5263298E1,1.2666626E1,2.9565277E0,7.6132927E0,5.8324804E0,1.1673508E0,0E0,0E0,0E0,0E0,0E0,0E0,0E0,0E0],"parents":[2147483647,0,0,1,1,2,2,3,3,4,4,5,5,6,6],"right_children":[2,4,6,8,10,12,14,-1,-1,-1,-1,-1,-1,-1,-1],"split_conditions":[5.9326166E-1,2.8251934E-1,7.506692E-1,6.68E1,7.04E1,3.63E-1,6.57E1,-8.000879E-3,-1.4033933E-2,-2.9394607E-4,-8.252395E-3,1.272605E-3,9.803383E-3,8.666507E-3,1.4335086E-2],"split_indices":[0,0,0,7,7,12,7,0,0,0,0,0,0,0,0],"split_type":[0,0,0,0,0,0,0,0,0,0,0,0,0,0,0],"sum_hessian":[2.1378159E2,1.3227922E2,8.150236E1,5.3051884E1,7.922734E1,3.221298E1,4.928938E1,1.7189657E1,3.586223E1,6.548194E1,1.37454E1,1.8729641E1,1.3483338E1,1.0700916E1,3.8588463E1],"tree_param":{"num_deleted":"0","num_feature":"45","num_nodes":"15","size_leaf_vector":"1"}},{"base_weights":[-3.0786015E-2,1.17933124E-1,-1.0614512E0,2.105694E-1,-6.0001594E-1,-4.8114667E-3,-1.357638E-2,3.0786495E-3,-7.037872E-3,-2.6231552E-3,-8.383185E-3],"categories":[],"categories_nodes":[],"categories_segments":[],"categories_sizes":[],"default_left":[0,0,0,0,0,0,0,0,0,0,0],"id":20,"left_children":[1,3,5,7,9,-1,-1,-1,-1,-1,-1],"loss_changes":[3.2076885E1,1.2301846E1,3.8819237E0,1.470752E1,1.484663E0,0E0,0E0,0E0,0E0,0E0,0E0],"parents":[2147483647,0,0,1,1,2,2,3,3,4,4],"right_children":[2,4,6,8,10,-1,-1,-1,-1,-1,-1],"split_conditions":[1E0,1E0,6.67E1,1E0,8E-1,-4.8114667E-3,-1.357638E-2,3.0786495E-3,-7.037872E-3,-2.6231552E-3,-8.383185E-3],"split_indices":[29,30,7,32,2,0,0,0,0,0,0],"split_type":[0,0,0,0,0,0,0,0,0,0,0],"sum_hessian":[2.0745364E2,1.8206787E2,2.5385782E1,1.618865E2,2.0181355E1,9.465316E0,1.5920467E1,1.469166E2,1.4969917E1,9.218507E0,1.0962848E1],"tree_param":{"num_deleted":"0","num_feature":"45","num_nodes":"11","size_leaf_vector":"1"}},{"base_weights":[3.319052E-2,1.8229899E-1,-1.1004615E0,4.2422187E-2,8.3521724E-1,-1.44330645E-2,-5.297695E-3,5.410501E-3,-1.3914733E-3,1.0107857E-2,5.5235587E-3],"categories":[],"categories_nodes":[],"categories_segments":[],"categories_sizes":[],"default_left":[0,0,0,0,0,0,0,0,0,0,0],"id":21,"left_children":[1,3,5,7,9,-1,-1,-1,-1,-1,-1],"loss_changes":[3.543178E1,1.686515E1,4.003437E0,1.3968614E1,1.0604744E0,0E0,0E0,0E0,0E0,0E0,0E0],"parents":[2147483647,0,0,1,1,2,2,3,3,4,4],"right_children":[2,4,6,8,10,-1,-1,-1,-1,-1,-1],"split_conditions":[1E0,8.484849E-1,7.241379E-1,2.7702703E1,8E-1,-1.44330645E-2,-5.297695E-3,5.410501E-3,-1.3914733E-3,1.0107857E-2,5.5235587E-3],"split_indices":[29,3,3,10,2,0,0,0,0,0,0],"split_type":[0,0,0,0,0,0,0,0,0,0,0],"sum_hessian":[2.0742265E2,1.8405342E2,2.3369228E1,1.5245703E2,3.1596394E1,1.3643694E1,9.725534E0,4.0167854E1,1.1228918E2,1.790781E1,1.3688583E1],"tree_param":{"num_deleted":"0","num_feature":"45","num_nodes":"11","size_leaf_vector":"1"}},{"base_weights":[-5.3934827E-3,-1.3744285E0,4.5880428E-1,-1.5042873E-2,-8.695578E-3,2.4696056E-2,1.1585957E0,1.7992951E-3,-7.417403E-3,1.0033717E-2,1.574351E-2],"categories":[],"categories_nodes":[],"categories_segments":[],"categories_sizes":[],"default_left":[0,0,0,0,0,0,0,0,0,0,0],"id":22,"left_children":[1,3,5,-1,-1,7,9,-1,-1,-1,-1],"loss_changes":[1.3605528E2,2.2460098E0,4.8543274E1,0E0,0E0,1.1995183E1,2.369316E0,0E0,0E0,0E0,0E0],"parents":[2147483647,0,0,1,1,2,2,5,5,6,6],"right_children":[2,4,6,-1,-1,8,10,-1,-1,-1,-1],"split_conditions":[2.620849E-1,2.0990507E-1,6.787103E-1,-1.5042873E-2,-8.695578E-3,7.03E1,9.408999E-1,1.7992951E-3,-7.417403E-3,1.0033717E-2,1.574351E-2],"split_indices":[0,0,0,0,0,7,0,0,0,0,0],"split_type":[0,0,0,0,0,0,0,0,0,0,0],"sum_hessian":[2.1209842E2,5.3209488E1,1.5888893E2,4.0748844E1,1.2460642E1,9.8697975E1,6.019096E1,8.271099E1,1.5986982E1,4.631313E1,1.3877829E1],"tree_param":{"num_deleted":"0","num_feature":"45","num_nodes":"11","size_leaf_vector":"1"}},{"base_weights":[-2.085438E-2,1.3746552E-1,-1.0595629E0,2.210128E-1,-5.850302E-1,-6.6385935E-3,-1.3442838E-2,2.8484724E-3,-3.672396E-3,-1.013326E-2,-8.877897E-4],"categories":[],"categories_nodes":[],"categories_segments":[],"categories_sizes":[],"default_left":[0,0,0,0,0,0,0,0,0,0,0],"id":23,"left_children":[1,3,5,7,9,-1,-1,-1,-1,-1,-1],"loss_changes":[3.5497364E1,1.1442719E1,2.3238525E0,6.4403057E0,4.0973263E0,0E0,0E0,0E0,0E0,0E0,0E0],"parents":[2147483647,0,0,1,1,2,2,3,3,4,4],"right_children":[2,4,6,8,10,-1,-1,-1,-1,-1,-1],"split_conditions":[1E0,1E0,6.77E1,1E0,3.48E-1,-6.6385935E-3,-1.3442838E-2,2.8484724E-3,-3.672396E-3,-1.013326E-2,-8.877897E-4],"split_indices":[29,31,7,32,12,0,0,0,0,0,0],"split_type":[0,0,0,0,0,0,0,0,0,0,0],"sum_hessian":[2.1397165E2,1.864245E2,2.7547155E1,1.6772354E2,1.8700958E1,1.2921099E1,1.4626057E1,1.5176994E2,1.5953602E1,9.478477E0,9.222481E0],"tree_param":{"num_deleted":"0","num_feature":"45","num_nodes":"11","size_leaf_vector":"1"}},{"base_weights":[7.069238E-2,-1.5173878E-1,5.283731E-1,-7.716209E-3,-9.992875E-1,-6.2124673E-3,7.335302E-1,8.156144E-3,-8.398602E-4,-1.212949E-2,-6.97479E-3,1.0631293E-2,3.1322038E-3],"categories":[],"categories_nodes":[],"categories_segments":[],"categories_sizes":[],"default_left":[0,0,0,0,0,0,0,0,0,0,0,0,0],"id":24,"left_children":[1,3,5,7,9,-1,11,-1,-1,-1,-1,-1,-1],"loss_changes":[2.0924488E1,1.690638E1,1.630208E1,7.569183E0,4.5132065E-1,0E0,7.628784E0,0E0,0E0,0E0,0E0,0E0,0E0],"parents":[2147483647,0,0,1,1,2,2,3,3,4,4,6,6],"right_children":[2,4,6,8,10,-1,12,-1,-1,-1,-1,-1,-1],"split_conditions":[7.878788E-1,8.7096775E-1,2.7812113E1,9.806452E0,6.65E1,-6.2124673E-3,7.3333335E-1,8.156144E-3,-8.398602E-4,-1.212949E-2,-6.97479E-3,1.0631293E-2,3.1322038E-3],"split_indices":[3,4,9,5,8,0,4,0,0,0,0,0,0],"split_type":[0,0,0,0,0,0,0,0,0,0,0,0,0],"sum_hessian":[2.0375256E2,1.3756496E2,6.618761E1,1.18446625E2,1.9118336E1,9.715819E0,5.6471786E1,9.220268E0,1.0922636E2,9.426224E0,9.692113E0,3.0794176E1,2.5677612E1],"tree_param":{"num_deleted":"0","num_feature":"45","num_nodes":"13","size_leaf_vector":"1"}},{"base_weights":[5.2683163E-2,1.9877942E-1,-1.0489972E0,8.489679E-2,7.7016044E-1,-1.2085285E-2,-7.1293875E-3,-3.2328356E-3,2.0557577E-3,8.890161E-3,4.533537E-3],"categories":[],"categories_nodes":[],"categories_segments":[],"categories_sizes":[],"default_left":[0,0,0,0,0,0,0,0,0,0,0],"id":25,"left_children":[1,3,5,7,9,-1,-1,-1,-1,-1,-1],"loss_changes":[3.4081097E1,1.2080137E1,4.6797752E-1,7.788102E0,7.603073E-1,0E0,0E0,0E0,0E0,0E0,0E0],"parents":[2147483647,0,0,1,1,2,2,3,3,4,4],"right_children":[2,4,6,8,10,-1,-1,-1,-1,-1,-1],"split_conditions":[1E0,7.07E1,7.02E1,2.7688787E1,7.29E1,-1.2085285E-2,-7.1293875E-3,-3.2328356E-3,2.0557577E-3,8.890161E-3,4.533537E-3],"split_indices":[29,8,8,9,8,0,0,0,0,0,0],"split_type":[0,0,0,0,0,0,0,0,0,0,0],"sum_hessian":[2.0945227E2,1.856521E2,2.3800169E1,1.5575665E2,2.9895458E1,1.4378372E1,9.421796E0,3.515859E1,1.2059805E2,2.0426073E1,9.469385E0],"tree_param":{"num_deleted":"0","num_feature":"45","num_nodes":"11","size_leaf_vector":"1"}},{"base_weights":[-5.9983134E-3,-1.6243035E-1,4.5763114E-1,2.8199217E-1,-3.053741E-1,2.0822473E-2,8.331847E-1,7.740223E-4,8.304802E-3,-3.8241723E-3,4.3746154E-3,-3.132148E-3,4.1595274E-3,1.0238511E-2,3.8979629E-3],"categories":[],"categories_nodes":[],"categories_segments":[],"categories_sizes":[],"default_left":[0,0,0,0,0,0,0,0,0,0,0,0,0,0,0],"id":26,"left_children":[1,3,5,7,9,11,13,-1,-1,-1,-1,-1,-1,-1,-1],"loss_changes":[1.5299399E1,1.0104486E1,8.713557E0,4.30075E0,7.023655E0,3.5131874E0,2.0180779E0,0E0,0E0,0E0,0E0,0E0,0E0,0E0,0E0],"parents":[2147483647,0,0,1,1,2,2,3,3,4,4,5,5,6,6],"right_children":[2,4,6,8,10,12,14,-1,-1,-1,-1,-1,-1,-1,-1],"split_conditions":[8.125E-1,2.7570621E1,6.78E1,3.39E-1,4.27E-1,8.787879E-1,3.265116E1,7.740223E-4,8.304802E-3,-3.8241723E-3,4.3746154E-3,-3.132148E-3,4.1595274E-3,1.0238511E-2,3.8979629E-3],"split_indices":[3,10,8,12,12,3,10,0,0,0,0,0,0,0,0],"split_type":[0,0,0,0,0,0,0,0,0,0,0,0,0,0,0],"sum_hessian":[2.089242E2,1.5670157E2,5.2222622E1,3.7898777E1,1.18802795E2,2.463035E1,2.759227E1,2.8433863E1,9.464913E0,1.0807862E2,1.0724176E1,1.3459338E1,1.1171013E1,1.8379532E1,9.212738E0],"tree_param":{"num_deleted":"0","num_feature":"45","num_nodes":"15","size_leaf_vector":"1"}},{"base_weights":[3.5558645E-2,2.6779696E-1,-4.6545047E-1,1.3285904E-1,9.903303E-1,-7.043348E-1,-5.7372518E-2,4.7620817E-4,9.543553E-3,6.3975165E-3,1.274637E-2,-3.7474558E-3,-1.0871057E-2,-5.2316748E-3,6.531099E-3],"categories":[],"categories_nodes":[],"categories_segments":[],"categories_sizes":[],"default_left":[0,0,0,0,0,0,0,0,0,0,0,0,0,0,0],"id":27,"left_children":[1,3,5,7,9,11,13,-1,-1,-1,-1,-1,-1,-1,-1],"loss_changes":[2.3475395E1,1.32996025E1,6.191535E0,8.163738E0,1.3298798E0,4.6685104E0,8.513747E0,0E0,0E0,0E0,0E0,0E0,0E0,0E0,0E0],"parents":[2147483647,0,0,1,1,2,2,3,3,4,4,5,5,6,6],"right_children":[2,4,6,8,10,12,14,-1,-1,-1,-1,-1,-1,-1,-1],"split_conditions":[7.878788E-1,1E0,7.5757575E-1,3.7249783E1,3.55E-1,8.518519E-1,8.6206895E-1,4.7620817E-4,9.543553E-3,6.3975165E-3,1.274637E-2,-3.7474558E-3,-1.0871057E-2,-5.2316748E-3,6.531099E-3],"split_indices":[4,13,3,9,12,4,4,0,0,0,0,0,0,0,0],"split_type":[0,0,0,0,0,0,0,0,0,0,0,0,0,0,0],"sum_hessian":[1.9968797E2,1.367597E2,6.292826E1,1.1623578E2,2.052393E1,3.9234715E1,2.3693546E1,1.0626746E2,9.968313E0,1.06462555E1,9.877674E0,2.2145296E1,1.7089418E1,1.4470365E1,9.223181E0],"tree_param":{"num_deleted":"0","num_feature":"45","num_nodes":"15","size_leaf_vector":"1"}},{"base_weights":[-2.5756411E-2,-1.2039161E0,4.0555218E-1,-5.6959637E-3,-1.313904E0,5.2486066E-2,1.2269626E0,-7.98422E-3,-1.4326185E-2,2.0989764E-3,-2.2735626E-3,1.0068187E-2,1.6756715E-2],"categories":[],"categories_nodes":[],"categories_segments":[],"categories_sizes":[],"default_left":[0,0,0,0,0,0,0,0,0,0,0,0,0],"id":28,"left_children":[1,3,5,-1,7,9,11,-1,-1,-1,-1,-1,-1],"loss_changes":[1.0776116E2,3.2160873E0,4.496881E1,0E0,1.77285E0,4.877646E0,2.9195404E0,0E0,0E0,0E0,0E0,0E0,0E0],"parents":[2147483647,0,0,1,1,2,2,4,4,5,5,6,6],"right_children":[2,4,6,-1,8,10,12,-1,-1,-1,-1,-1,-1],"split_conditions":[2.8441367E-1,6E-1,7.450282E-1,-5.6959637E-3,3.03E-1,6.94E1,9.408999E-1,-7.98422E-3,-1.4326185E-2,2.0989764E-3,-2.2735626E-3,1.0068187E-2,1.6756715E-2],"split_indices":[0,1,0,0,11,7,0,0,0,0,0,0,0],"split_type":[0,0,0,0,0,0,0,0,0,0,0,0,0],"sum_hessian":[2.1010464E2,5.5824234E1,1.5428041E2,9.162309E0,4.6661922E1,1.0864536E2,4.5635048E1,1.0180725E1,3.6481197E1,6.9692955E1,3.895241E1,3.2791046E1,1.2844002E1],"tree_param":{"num_deleted":"0","num_feature":"45","num_nodes":"13","size_leaf_vector":"1"}},{"base_weights":[-2.7884115E-2,-4.8603758E-1,1.1127179E0,-1.2749835E0,-1.1378731E-1,4.141478E-3,1.2400454E0,-1.4779603E-2,-8.288693E-3,-2.7277097E-4,-7.193904E-3,1.0753389E-2,1.5440164E-2],"categories":[],"categories_nodes":[],"categories_segments":[],"categories_sizes":[],"default_left":[0,0,0,0,0,0,0,0,0,0,0,0,0],"id":29,"left_children":[1,3,5,7,9,-1,11,-1,-1,-1,-1,-1,-1],"loss_changes":[1.0898927E2,4.354163E1,4.8032837E0,3.0841522E0,5.332879E0,0E0,8.45871E-1,0E0,0E0,0E0,0E0,0E0,0E0],"parents":[2147483647,0,0,1,1,2,2,3,3,4,4,6,6],"right_children":[2,4,6,8,10,-1,12,-1,-1,-1,-1,-1,-1],"split_conditions":[6.911312E-1,2.620849E-1,7.450282E-1,1.6367818E-1,7.11E1,4.141478E-3,9.408999E-1,-1.4779603E-2,-8.288693E-3,-2.7277097E-4,-7.193904E-3,1.0753389E-2,1.5440164E-2],"split_indices":[0,0,0,0,7,0,0,0,0,0,0,0,0],"split_type":[0,0,0,0,0,0,0,0,0,0,0,0,0],"sum_hessian":[2.0652872E2,1.4775345E2,5.8775272E1,4.6588623E1,1.0116483E2,9.716921E0,4.905835E1,3.0430248E1,1.6158373E1,8.943422E1,1.1730609E1,3.4760853E1,1.4297498E1],"tree_param":{"num_deleted":"0","num_feature":"45","num_nodes":"13","size_leaf_vector":"1"}},{"base_weights":[-3.9126106E-2,1.1000262E-1,-9.53387E-1,1.8645354E-1,-6.400935E-3,-6.808904E-1,-1.3710968E-2,2.413572E-3,-6.2452764E-3,-9.539509E-3,-3.5693445E-3],"categories":[],"categories_nodes":[],"categories_segments":[],"categories_sizes":[],"default_left":[0,0,0,0,0,0,0,0,0,0,0],"id":30,"left_children":[1,3,5,7,-1,9,-1,-1,-1,-1,-1],"loss_changes":[2.861635E1,1.0480926E1,2.4162579E0,7.486305E0,0E0,1.410759E0,0E0,0E0,0E0,0E0,0E0],"parents":[2147483647,0,0,1,1,2,2,3,3,5,5],"right_children":[2,4,6,8,-1,10,-1,-1,-1,-1,-1],"split_conditions":[1E0,1E0,3.71E-1,1E0,-6.400935E-3,3.0543188E1,-1.3710968E-2,2.413572E-3,-6.2452764E-3,-9.539509E-3,-3.5693445E-3],"split_indices":[29,31,11,24,0,9,0,0,0,0,0],"split_type":[0,0,0,0,0,0,0,0,0,0,0],"sum_hessian":[2.0811646E2,1.7968672E2,2.8429735E1,1.6374864E2,1.5938079E1,1.8797245E1,9.63249E0,1.5402359E2,9.725055E0,9.144611E0,9.652634E0],"tree_param":{"num_deleted":"0","num_feature":"45","num_nodes":"11","size_leaf_vector":"1"}},{"base_weights":[-1.6527686E-2,-1.593777E-1,9.6812135E-1,-1.3566697E-2,-1.1262832E0,1.2164091E-2,5.086753E-3,-1.1008332E-3,7.4653733E-3,-1.3426233E-2,-7.500372E-3],"categories":[],"categories_nodes":[],"categories_segments":[],"categories_sizes":[],"default_left":[0,0,0,0,0,0,0,0,0,0,0],"id":31,"left_children":[1,3,5,7,9,-1,-1,-1,-1,-1,-1],"loss_changes":[2.9108643E1,2.5450739E1,2.3724995E0,1.1671371E1,9.186344E-1,0E0,0E0,0E0,0E0,0E0,0E0],"parents":[2147483647,0,0,1,1,2,2,3,3,4,4],"right_children":[2,4,6,8,10,-1,-1,-1,-1,-1,-1],"split_conditions":[1E0,1E0,3.1926605E1,1E0,7E-1,1.2164091E-2,5.086753E-3,-1.1008332E-3,7.4653733E-3,-1.3426233E-2,-7.500372E-3],"split_indices":[13,29,10,15,3,0,0,0,0,0,0],"split_type":[0,0,0,0,0,0,0,0,0,0,0],"sum_hessian":[2.0485056E2,1.796287E2,2.5221869E1,1.569712E2,2.2657492E1,1.5303952E1,9.917915E0,1.4004387E2,1.692734E1,1.2754963E1,9.90253E0],"tree_param":{"num_deleted":"0","num_feature":"45","num_nodes":"11","size_leaf_vector":"1"}},{"base_weights":[5.0293624E-2,-6.314334E-1,8.005781E-1,-1.3386043E0,-2.2673309E-1,4.2182237E-1,1.4213415E0,-7.28775E-3,-1.4938231E-2,-8.186972E-4,-1.0231734E-2,9.0034E-4,7.4842456E-3,1.0542482E-2,1.606242E-2],"categories":[],"categories_nodes":[],"categories_segments":[],"categories_sizes":[],"default_left":[0,0,0,0,0,0,0,0,0,0,0,0,0,0,0],"id":32,"left_children":[1,3,5,7,9,11,13,-1,-1,-1,-1,-1,-1,-1,-1],"loss_changes":[1.0843538E2,3.149694E1,2.3122734E1,2.720337E0,8.208878E0,6.876975E0,8.73085E-1,0E0,0E0,0E0,0E0,0E0,0E0,0E0,0E0],"parents":[2147483647,0,0,1,1,2,2,3,3,4,4,5,5,6,6],"right_children":[2,4,6,8,10,12,14,-1,-1,-1,-1,-1,-1,-1,-1],"split_conditions":[5.231254E-1,2.0990507E-1,8.222396E-1,6.57E1,7.04E1,6.79E1,1.2029411E1,-7.28775E-3,-1.4938231E-2,-8.186972E-4,-1.0231734E-2,9.0034E-4,7.4842456E-3,1.0542482E-2,1.606242E-2],"split_indices":[0,0,0,8,7,8,5,0,0,0,0,0,0,0,0],"split_type":[0,0,0,0,0,0,0,0,0,0,0,0,0,0,0],"sum_hessian":[2.1001102E2,1.1011564E2,9.989538E1,3.924009E1,7.087555E1,6.3084312E1,3.681107E1,9.1168E0,3.0123291E1,6.0901127E1,9.9744215E0,3.1926508E1,3.1157803E1,1.4575408E1,2.223566E1],"tree_param":{"num_deleted":"0","num_feature":"45","num_nodes":"15","size_leaf_vector":"1"}},{"base_weights":[4.243084E-3,-8.9975643E-1,6.702816E-1,-1.3242813E0,-3.1822586E-1,3.1313306E-1,1.2008923E0,-1.4679479E-2,-1.024399E-2,-6.9811866E-3,1.9361054E-4,8.598935E-3,7.037109E-4,1.0102767E-2,1.571608E-2],"categories":[],"categories_nodes":[],"categories_segments":[],"categories_sizes":[],"default_left":[0,0,0,0,0,0,0,0,0,0,0,0,0,0,0],"id":33,"left_children":[1,3,5,7,9,11,13,-1,-1,-1,-1,-1,-1,-1,-1],"loss_changes":[1.27413574E2,2.174128E1,2.2713654E1,7.182541E-1,5.0405235E0,9.785149E0,1.851059E0,0E0,0E0,0E0,0E0,0E0,0E0,0E0,0E0],"parents":[2147483647,0,0,1,1,2,2,3,3,4,4,5,5,6,6],"right_children":[2,4,6,8,10,12,14,-1,-1,-1,-1,-1,-1,-1,-1],"split_conditions":[4.4295382E-1,2.620849E-1,7.3291457E-1,1.324138E1,3.37E-1,6.62E1,9.3311256E-1,-1.4679479E-2,-1.024399E-2,-6.9811866E-3,1.9361054E-4,8.598935E-3,7.037109E-4,1.0102767E-2,1.571608E-2],"split_indices":[0,0,0,5,12,7,0,0,0,0,0,0,0,0,0],"split_type":[0,0,0,0,0,0,0,0,0,0,0,0,0,0,0],"sum_hessian":[2.0961417E2,8.8773254E1,1.2084091E2,5.0575356E1,3.81979E1,7.317662E1,4.7664288E1,3.1560417E1,1.901494E1,1.747029E1,2.072761E1,2.1718662E1,5.1457962E1,3.3938763E1,1.3725522E1],"tree_param":{"num_deleted":"0","num_feature":"45","num_nodes":"15","size_leaf_vector":"1"}},{"base_weights":[2.9969763E-2,-9.7241855E-1,5.5892366E-1,-1.4609185E-2,-7.8130144E-1,2.3186606E-1,1.1890382E0,-5.1947013E-3,-9.742511E-3,4.9105417E-3,-1.6962766E-3,9.954337E-3,1.5531959E-2],"categories":[],"categories_nodes":[],"categories_segments":[],"categories_sizes":[],"default_left":[0,0,0,0,0,0,0,0,0,0,0,0,0],"id":34,"left_children":[1,3,5,-1,7,9,11,-1,-1,-1,-1,-1,-1],"loss_changes":[1.0820109E2,5.440529E0,2.724556E1,0E0,2.1626053E0,9.361025E0,1.6539154E0,0E0,0E0,0E0,0E0,0E0,0E0],"parents":[2147483647,0,0,1,1,2,2,4,4,5,5,6,6],"right_children":[2,4,6,-1,8,10,12,-1,-1,-1,-1,-1,-1],"split_conditions":[3.6721098E-1,7.828183E-2,7.506692E-1,-1.4609185E-2,6.76E1,3.54E-1,9.408999E-1,-5.1947013E-3,-9.742511E-3,4.9105417E-3,-1.6962766E-3,9.954337E-3,1.5531959E-2],"split_indices":[0,0,0,0,7,11,0,0,0,0,0,0,0],"split_type":[0,0,0,0,0,0,0,0,0,0,0,0,0],"sum_hessian":[2.0204431E2,6.9500244E1,1.3254407E2,1.767596E1,5.1824284E1,8.815543E1,4.438863E1,2.3553976E1,2.8270306E1,5.343615E1,3.4719284E1,3.1418505E1,1.2970126E1],"tree_param":{"num_deleted":"0","num_feature":"45","num_nodes":"13","size_leaf_vector":"1"}},{"base_weights":[-3.6201693E-2,-7.64728E-1,5.9831566E-1,-1.3477808E-2,-3.791422E-1,1.7116381E-1,1.1862437E0,-2.2314773E-3,-1.0355866E-2,2.958747E-3,-3.8468512E-3,8.229613E-3,1.3979747E-2],"categories":[],"categories_nodes":[],"categories_segments":[],"categories_sizes":[],"default_left":[0,0,0,0,0,0,0,0,0,0,0,0,0],"id":35,"left_children":[1,3,5,-1,7,9,11,-1,-1,-1,-1,-1,-1],"loss_changes":[9.8504616E1,2.1785416E1,2.8407879E1,0E0,6.0244637E0,4.768979E0,2.5240784E0,0E0,0E0,0E0,0E0,0E0,0E0],"parents":[2147483647,0,0,1,1,2,2,4,4,5,5,6,6],"right_children":[2,4,6,-1,8,10,12,-1,-1,-1,-1,-1,-1],"split_conditions":[4.6849516E-1,2.057562E-1,7.5585103E-1,-1.3477808E-2,7.04E1,1E0,8.6138314E-1,-2.2314773E-3,-1.0355866E-2,2.958747E-3,-3.8468512E-3,8.229613E-3,1.3979747E-2],"split_indices":[0,0,0,0,7,39,0,0,0,0,0,0,0],"split_type":[0,0,0,0,0,0,0,0,0,0,0,0,0],"sum_hessian":[2.1110254E2,9.817588E1,1.1292666E2,3.808751E1,6.0088367E1,6.615424E1,4.6772415E1,4.96336E1,1.0454768E1,5.441364E1,1.17406E1,1.902193E1,2.7750484E1],"tree_param":{"num_deleted":"0","num_feature":"45","num_nodes":"13","size_leaf_vector":"1"}},{"base_weights":[-3.5699155E-2,-7.3844784E-1,7.632876E-1,-1.180234E0,-3.3473516E-1,3.6489213E-1,1.174422E0,-6.3364804E-3,-1.2960689E-2,1.3108195E-3,-5.5083763E-3,2.0979613E-4,6.438729E-3,1.3628939E-2,8.424631E-3],"categories":[],"categories_nodes":[],"categories_segments":[],"categories_sizes":[],"default_left":[0,0,0,0,0,0,0,0,0,0,0,0,0,0,0],"id":36,"left_children":[1,3,5,7,9,11,13,-1,-1,-1,-1,-1,-1,-1,-1],"loss_changes":[1.16238304E2,1.9244793E1,1.5442783E1,2.4826584E0,6.004718E0,4.8472705E0,1.8071136E0,0E0,0E0,0E0,0E0,0E0,0E0,0E0,0E0],"parents":[2147483647,0,0,1,1,2,2,3,3,4,4,5,5,6,6],"right_children":[2,4,6,8,10,12,14,-1,-1,-1,-1,-1,-1,-1,-1],"split_conditions":[5.231254E-1,2.8251934E-1,7.506692E-1,1.0709678E1,1.1676471E1,6.785714E-1,1.3129032E1,-6.3364804E-3,-1.2960689E-2,1.3108195E-3,-5.5083763E-3,2.0979613E-4,6.438729E-3,1.3628939E-2,8.424631E-3],"split_indices":[0,0,0,6,6,4,6,0,0,0,0,0,0,0,0],"split_type":[0,0,0,0,0,0,0,0,0,0,0,0,0,0,0],"sum_hessian":[2.0501488E2,1.0911689E2,9.589798E1,5.1183224E1,5.7933666E1,4.966214E1,4.623584E1,1.0081639E1,4.1101585E1,1.8484043E1,3.9449623E1,2.2724186E1,2.6937952E1,2.7510788E1,1.8725054E1],"tree_param":{"num_deleted":"0","num_feature":"45","num_nodes":"15","size_leaf_vector":"1"}},{"base_weights":[-1.8963112E-2,-1.3290788E-1,8.23525E-1,-3.3733457E-2,-9.535089E-3,1.2695123E-2,1.6028963E-3,9.1201225E-3,-1.326524E-3],"categories":[],"categories_nodes":[],"categories_segments":[],"categories_sizes":[],"default_left":[0,0,0,0,0,0,0,0,0],"id":37,"left_children":[1,3,5,7,-1,-1,-1,-1,-1],"loss_changes":[1.9619009E1,1.4606923E1,6.9993668E0,1.523162E1,0E0,0E0,0E0,0E0,0E0],"parents":[2147483647,0,0,1,1,2,2,3,3],"right_children":[2,4,6,8,-1,-1,-1,-1,-1],"split_conditions":[1E0,1E0,7.307692E-1,2.4433498E1,-9.535089E-3,1.2695123E-2,1.6028963E-3,9.1201225E-3,-1.326524E-3],"split_indices":[13,29,4,10,0,0,0,0,0],"split_type":[0,0,0,0,0,0,0,0,0],"sum_hessian":[2.0223067E2,1.7887979E2,2.3350876E1,1.60521E2,1.8358791E1,1.34155655E1,9.935311E0,1.442135E1,1.4609966E2],"tree_param":{"num_deleted":"0","num_feature":"45","num_nodes":"9","size_leaf_vector":"1"}},{"base_weights":[4.8328068E-2,1.7826691E-1,-8.2302016E-1,2.896092E-1,-7.3438E-1,-4.1429764E-3,-1.2391395E-2,3.8532754E-3,-5.1999674E-3,-4.724155E-3,-9.102703E-3],"categories":[],"categories_nodes":[],"categories_segments":[],"categories_sizes":[],"default_left":[0,0,0,0,0,0,0,0,0,0,0],"id":38,"left_children":[1,3,5,7,9,-1,-1,-1,-1,-1,-1],"loss_changes":[2.369346E1,1.8686815E1,4.1070576E0,1.2812703E1,4.938631E-1,0E0,0E0,0E0,0E0,0E0,0E0],"parents":[2147483647,0,0,1,1,2,2,3,3,4,4],"right_children":[2,4,6,8,10,-1,-1,-1,-1,-1,-1],"split_conditions":[1E0,1E0,3.55E-1,1E0,2.937853E1,-4.1429764E-3,-1.2391395E-2,3.8532754E-3,-5.1999674E-3,-4.724155E-3,-9.102703E-3],"split_indices":[29,30,11,32,9,0,0,0,0,0,0],"split_type":[0,0,0,0,0,0,0,0,0,0,0],"sum_hessian":[2.0696971E2,1.8080307E2,2.6166645E1,1.617521E2,1.905097E1,1.4207407E1,1.1959239E1,1.4511899E2,1.663312E1,9.133592E0,9.917377E0],"tree_param":{"num_deleted":"0","num_feature":"45","num_nodes":"11","size_leaf_vector":"1"}},{"base_weights":[5.9525028E-2,1.8071625E-1,-8.0828166E-1,2.7417415E-1,-5.4693925E-1,-1.1852406E-2,-1.2624669E-3,1.4888301E-3,8.679215E-3,-9.066812E-3,-1.3303589E-3],"categories":[],"categories_nodes":[],"categories_segments":[],"categories_sizes":[],"default_left":[0,0,0,0,0,0,0,0,0,0,0],"id":39,"left_children":[1,3,5,7,9,-1,-1,-1,-1,-1,-1],"loss_changes":[2.1860636E1,1.2525984E1,6.4021416E0,1.191765E1,3.0132957E0,0E0,0E0,0E0,0E0,0E0,0E0],"parents":[2147483647,0,0,1,1,2,2,3,3,4,4],"right_children":[2,4,6,8,10,-1,-1,-1,-1,-1,-1],"split_conditions":[1E0,1E0,7.4285716E-1,8.5294116E-1,7.037037E-1,-1.1852406E-2,-1.2624669E-3,1.4888301E-3,8.679215E-3,-9.066812E-3,-1.3303589E-3],"split_indices":[29,30,3,3,3,0,0,0,0,0,0],"split_type":[0,0,0,0,0,0,0,0,0,0,0],"sum_hessian":[2.0547005E2,1.809866E2,2.4483442E1,1.6093925E2,2.0047352E1,1.5293154E1,9.190288E0,1.3392868E2,2.7010561E1,1.0088457E1,9.958894E0],"tree_param":{"num_deleted":"0","num_feature":"45","num_nodes":"11","size_leaf_vector":"1"}},{"base_weights":[-3.9953496E-2,-1.749336E-1,1.0285633E0,-2.570722E-1,5.7020443E-3,7.204787E-3,1.1975549E-2,1.5293084E-3,-3.8806275E-3],"categories":[],"categories_nodes":[],"categories_segments":[],"categories_sizes":[],"default_left":[0,0,0,0,0,0,0,0,0],"id":40,"left_children":[1,3,5,7,-1,-1,-1,-1,-1],"loss_changes":[3.0254051E1,1.1529737E1,3.6234474E-1,9.093235E0,0E0,0E0,0E0,0E0,0E0],"parents":[2147483647,0,0,1,1,2,2,3,3],"right_children":[2,4,6,8,-1,-1,-1,-1,-1],"split_conditions":[1E0,1E0,8.6206895E-1,2.8472906E1,5.7020443E-3,7.204787E-3,1.1975549E-2,1.5293084E-3,-3.8806275E-3],"split_indices":[13,14,3,10,0,0,0,0,0],"split_type":[0,0,0,0,0,0,0,0,0],"sum_hessian":[2.0751718E2,1.8498524E2,2.2531929E1,1.672084E2,1.7776842E1,9.845762E0,1.2686167E1,4.0445538E1,1.2676287E2],"tree_param":{"num_deleted":"0","num_feature":"45","num_nodes":"9","size_leaf_vector":"1"}},{"base_weights":[4.4299904E-2,-5.652564E-2,7.4424714E-1,-1.4775907E-1,6.5292805E-1,8.820602E-3,4.4045863E-3,-7.23691E-4,-8.43896E-3,2.990791E-3,9.058802E-3],"categories":[],"categories_nodes":[],"categories_segments":[],"categories_sizes":[],"default_left":[0,0,0,0,0,0,0,0,0,0,0],"id":41,"left_children":[1,3,5,7,9,-1,-1,-1,-1,-1,-1],"loss_changes":[1.455126E1,1.1788283E1,6.981964E-1,8.381603E0,1.5878487E0,0E0,0E0,0E0,0E0,0E0,0E0],"parents":[2147483647,0,0,1,1,2,2,3,3,4,4],"right_children":[2,4,6,8,10,-1,-1,-1,-1,-1,-1],"split_conditions":[1E0,1E0,3.280075E1,1E0,8E-1,8.820602E-3,4.4045863E-3,-7.23691E-4,-8.43896E-3,2.990791E-3,9.058802E-3],"split_indices":[13,14,10,31,1,0,0,0,0,0,0],"split_type":[0,0,0,0,0,0,0,0,0,0,0],"sum_hessian":[2.0459253E2,1.7963571E2,2.4956806E1,1.5986884E2,1.976688E1,1.5858911E1,9.097895E0,1.452433E2,1.4625541E1,9.149797E0,1.0617084E1],"tree_param":{"num_deleted":"0","num_feature":"45","num_nodes":"11","size_leaf_vector":"1"}},{"base_weights":[8.385355E-3,-5.821479E-1,9.568518E-1,-1.2702289E0,-1.9187143E-1,4.0525097E-1,1.3148643E0,-1.37531115E-2,-8.276391E-3,-3.1966765E-3,3.3452066E-3,1.2502798E-3,8.2501015E-3,8.760167E-3,1.4348447E-2],"categories":[],"categories_nodes":[],"categories_segments":[],"categories_sizes":[],"default_left":[0,0,0,0,0,0,0,0,0,0,0,0,0,0,0],"id":42,"left_children":[1,3,5,7,9,11,13,-1,-1,-1,-1,-1,-1,-1,-1],"loss_changes":[1.1840418E2,3.4744797E1,1.5485283E1,1.0465317E0,5.778827E0,3.8220901E0,1.3094788E0,0E0,0E0,0E0,0E0,0E0,0E0,0E0,0E0],"parents":[2147483647,0,0,1,1,2,2,3,3,4,4,5,5,6,6],"right_children":[2,4,6,8,10,12,14,-1,-1,-1,-1,-1,-1,-1,-1],"split_conditions":[5.829286E-1,2.3932256E-1,7.450282E-1,3.280075E1,7.03E1,6.89E1,3.09E-1,-1.37531115E-2,-8.276391E-3,-3.1966765E-3,3.3452066E-3,1.2502798E-3,8.2501015E-3,8.760167E-3,1.4348447E-2],"split_indices":[0,0,0,9,8,8,12,0,0,0,0,0,0,0,0],"split_type":[0,0,0,0,0,0,0,0,0,0,0,0,0,0,0],"sum_hessian":[2.0940341E2,1.2929076E2,8.011266E1,4.5976578E1,8.331418E1,3.237046E1,4.7742203E1,3.545195E1,1.0524627E1,6.735469E1,1.5959492E1,2.018992E1,1.2180538E1,1.2032556E1,3.570965E1],"tree_param":{"num_deleted":"0","num_feature":"45","num_nodes":"15","size_leaf_vector":"1"}},{"base_weights":[-3.9340273E-2,-1.4878745E-1,8.428632E-1,-2.5245318E-1,6.404072E-3,1.2544451E-2,3.7067547E-3,2.9597378E-3,-3.8334636E-3],"categories":[],"categories_nodes":[],"categories_segments":[],"categories_sizes":[],"default_left":[0,0,0,0,0,0,0,0,0],"id":43,"left_children":[1,3,5,7,-1,-1,-1,-1,-1],"loss_changes":[1.9848967E1,1.5098827E1,3.9457264E0,1.1749649E1,0E0,0E0,0E0,0E0,0E0],"parents":[2147483647,0,0,1,1,2,2,3,3],"right_children":[2,4,6,8,-1,-1,-1,-1,-1],"split_conditions":[1E0,1E0,3.49E-1,2.7121464E1,6.404072E-3,1.2544451E-2,3.7067547E-3,2.9597378E-3,-3.8334636E-3],"split_indices":[13,14,11,10,0,0,0,0,0],"split_type":[0,0,0,0,0,0,0,0,0],"sum_hessian":[2.0327344E2,1.81578E2,2.169543E1,1.61097E2,2.0481E1,1.0706476E1,1.0988955E1,3.0797583E1,1.3029942E2],"tree_param":{"num_deleted":"0","num_feature":"45","num_nodes":"9","size_leaf_vector":"1"}},{"base_weights":[1.23160094E-1,-9.4220084E-1,5.6108284E-1,-1.1893809E0,-3.6355102E-1,2.0744239E-1,1.135777E0,-1.4490155E-2,-1.0078116E-2,-5.0467816E-3,-1.8647681E-3,5.0009117E-3,7.535185E-5,9.3515795E-3,1.4990311E-2],"categories":[],"categories_nodes":[],"categories_segments":[],"categories_sizes":[],"default_left":[0,0,0,0,0,0,0,0,0,0,0,0,0,0,0],"id":44,"left_children":[1,3,5,7,9,11,13,-1,-1,-1,-1,-1,-1,-1,-1],"loss_changes":[9.5734665E1,8.123665E0,2.9283463E1,4.9485397E-1,3.8931918E-1,5.3281174E0,2.6141052E0,0E0,0E0,0E0,0E0,0E0,0E0,0E0,0E0],"parents":[2147483647,0,0,1,1,2,2,3,3,4,4,5,5,6,6],"right_children":[2,4,6,8,10,12,14,-1,-1,-1,-1,-1,-1,-1,-1],"split_conditions":[3.3195898E-1,2.149048E-1,6.911312E-1,5.667113E-2,1.228125E1,7E-1,9.2426616E-1,-1.4490155E-2,-1.0078116E-2,-5.0467816E-3,-1.8647681E-3,5.0009117E-3,7.535185E-5,9.3515795E-3,1.4990311E-2],"split_indices":[0,0,0,0,6,2,0,0,0,0,0,0,0,0,0],"split_type":[0,0,0,0,0,0,0,0,0,0,0,0,0,0,0],"sum_hessian":[2.0306572E2,5.8819786E1,1.4424594E2,4.0474834E1,1.834495E1,9.01393E1,5.4106644E1,1.3783966E1,2.6690868E1,9.179136E0,9.165814E0,3.5974205E1,5.4165096E1,3.7158855E1,1.6947788E1],"tree_param":{"num_deleted":"0","num_feature":"45","num_nodes":"15","size_leaf_vector":"1"}},{"base_weights":[2.3945674E-2,-6.7384616E-2,7.607873E-1,-3.3797574E-1,1.5388821E-1,1.0323649E-2,4.884802E-3,4.140902E-3,-4.4896067E-3,5.2753994E-3,5.9552677E-4],"categories":[],"categories_nodes":[],"categories_segments":[],"categories_sizes":[],"default_left":[0,0,0,0,0,0,0,0,0,0,0],"id":45,"left_children":[1,3,5,7,9,-1,-1,-1,-1,-1,-1],"loss_changes":[1.4160705E1,1.1276059E1,1.2116165E0,7.2510242E0,3.627924E0,0E0,0E0,0E0,0E0,0E0,0E0],"parents":[2147483647,0,0,1,1,2,2,3,3,4,4],"right_children":[2,4,6,8,10,-1,-1,-1,-1,-1,-1],"split_conditions":[8.787879E-1,3.38E-1,1.2515152E1,2.7E-1,3.53E-1,1.0323649E-2,4.884802E-3,4.140902E-3,-4.4896067E-3,5.2753994E-3,5.9552677E-4],"split_indices":[3,12,6,12,12,0,0,0,0,0,0],"split_type":[0,0,0,0,0,0,0,0,0,0,0],"sum_hessian":[2.0866249E2,1.8645969E2,2.2202816E1,8.3644585E1,1.02815094E2,9.718837E0,1.2483978E1,1.0405164E1,7.3239426E1,1.9799496E1,8.3015594E1],"tree_param":{"num_deleted":"0","num_feature":"45","num_nodes":"11","size_leaf_vector":"1"}},{"base_weights":[1.9543486E-2,-1.1312096E0,3.8541085E-1,-1.2835365E-2,-5.7176426E-3,2.4802852E-2,1.0364896E0,-9.654827E-4,5.4867337E-3,8.663945E-3,1.4950065E-2],"categories":[],"categories_nodes":[],"categories_segments":[],"categories_sizes":[],"default_left":[0,0,0,0,0,0,0,0,0,0,0],"id":46,"left_children":[1,3,5,-1,-1,7,9,-1,-1,-1,-1],"loss_changes":[8.99335E1,3.6578217E0,3.8018017E1,0E0,0E0,6.7474303E0,3.2073593E0,0E0,0E0,0E0,0E0],"parents":[2147483647,0,0,1,1,2,2,5,5,6,6],"right_children":[2,4,6,-1,-1,8,10,-1,-1,-1,-1],"split_conditions":[2.620849E-1,2.057562E-1,6.911312E-1,-1.2835365E-2,-5.7176426E-3,7.07E1,9.3311256E-1,-9.654827E-4,5.4867337E-3,8.663945E-3,1.4950065E-2],"split_indices":[0,0,0,0,0,8,0,0,0,0,0],"split_type":[0,0,0,0,0,0,0,0,0,0,0],"sum_hessian":[2.1157156E2,5.0534584E1,1.6103699E2,3.870233E1,1.1832255E1,1.0430466E2,5.6732323E1,8.534968E1,1.895498E1,4.3488895E1,1.3243428E1],"tree_param":{"num_deleted":"0","num_feature":"45","num_nodes":"11","size_leaf_vector":"1"}},{"base_weights":[-3.9946467E-2,8.557677E-2,-8.650547E-1,-1.5801624E-3,6.562548E-1,-6.3218954E-3,-1.119692E-2,3.7850253E-3,-1.40382E-3,9.102683E-3,3.7966073E-3],"categories":[],"categories_nodes":[],"categories_segments":[],"categories_sizes":[],"default_left":[0,0,0,0,0,0,0,0,0,0,0],"id":47,"left_children":[1,3,5,7,9,-1,-1,-1,-1,-1,-1],"loss_changes":[2.1763618E1,9.087126E0,9.3714523E-1,8.466247E0,1.3550425E0,0E0,0E0,0E0,0E0,0E0,0E0],"parents":[2147483647,0,0,1,1,2,2,3,3,4,4],"right_children":[2,4,6,8,10,-1,-1,-1,-1,-1,-1],"split_conditions":[1E0,4.1E-1,3.466312E1,2.7688787E1,8E-1,-6.3218954E-3,-1.119692E-2,3.7850253E-3,-1.40382E-3,9.102683E-3,3.7966073E-3],"split_indices":[29,12,10,10,1,0,0,0,0,0,0],"split_type":[0,0,0,0,0,0,0,0,0,0,0],"sum_hessian":[2.0841908E2,1.8167696E2,2.6742126E1,1.5847159E2,2.3205376E1,1.5787343E1,1.09547825E1,4.1929264E1,1.1654232E2,1.0902214E1,1.2303163E1],"tree_param":{"num_deleted":"0","num_feature":"45","num_nodes":"11","size_leaf_vector":"1"}},{"base_weights":[-2.1155318E-2,-7.552144E-1,6.3087565E-1,-1.1778649E0,-2.4829221E-1,2.0536567E-1,1.2287402E0,-1.4341049E-2,-9.143349E-3,3.715561E-4,-5.353374E-3,6.823881E-3,-1.0251919E-3,7.3535624E-3,1.3710675E-2],"categories":[],"categories_nodes":[],"categories_segments":[],"categories_sizes":[],"default_left":[0,0,0,0,0,0,0,0,0,0,0,0,0,0,0],"id":48,"left_children":[1,3,5,7,9,11,13,-1,-1,-1,-1,-1,-1,-1,-1],"loss_changes":[9.879701E1,2.0508602E1,2.7561886E1,2.2458878E0,3.7406216E0,9.62731E0,2.1699753E0,0E0,0E0,0E0,0E0,0E0,0E0,0E0,0E0],"parents":[2147483647,0,0,1,1,2,2,3,3,4,4,5,5,6,6],"right_children":[2,4,6,8,10,12,14,-1,-1,-1,-1,-1,-1,-1,-1],"split_conditions":[4.7528267E-1,2.8251934E-1,7.506692E-1,1.22251496E-1,3.42E-1,3.31E-1,8.222396E-1,-1.4341049E-2,-9.143349E-3,3.715561E-4,-5.353374E-3,6.823881E-3,-1.0251919E-3,7.3535624E-3,1.3710675E-2],"split_indices":[0,0,0,0,11,11,0,0,0,0,0,0,0,0,0],"split_type":[0,0,0,0,0,0,0,0,0,0,0,0,0,0,0],"sum_hessian":[2.0442111E2,9.608735E1,1.0833377E2,5.1677364E1,4.4409985E1,6.407444E1,4.4259327E1,2.3948978E1,2.7728388E1,2.2703442E1,2.1706543E1,2.4656475E1,3.941797E1,1.1289703E1,3.2969624E1],"tree_param":{"num_deleted":"0","num_feature":"45","num_nodes":"15","size_leaf_vector":"1"}},{"base_weights":[-3.361747E-2,9.317984E-2,-9.609772E-1,-6.294786E-3,6.284138E-1,-1.2677472E-2,-6.0324054E-3,-1.0143382E-3,6.029735E-3,8.748199E-3,1.499062E-3],"categories":[],"categories_nodes":[],"categories_segments":[],"categories_sizes":[],"default_left":[0,0,0,0,0,0,0,0,0,0,0],"id":49,"left_children":[1,3,5,7,9,-1,-1,-1,-1,-1,-1],"loss_changes":[2.369559E1,9.455436E0,1.8949451E0,8.795772E0,3.1503925E0,0E0,0E0,0E0,0E0,0E0,0E0],"parents":[2147483647,0,0,1,1,2,2,3,3,4,4],"right_children":[2,4,6,8,10,-1,-1,-1,-1,-1,-1],"split_conditions":[1E0,8.518519E-1,3.49E-1,7.11E1,7.586207E-1,-1.2677472E-2,-6.0324054E-3,-1.0143382E-3,6.029735E-3,8.748199E-3,1.499062E-3],"split_indices":[29,3,12,8,4,0,0,0,0,0,0],"split_type":[0,0,0,0,0,0,0,0,0,0,0],"sum_hessian":[1.9975436E2,1.765186E2,2.3235756E1,1.496871E2,2.68315E1,1.1139497E1,1.2096259E1,1.3019092E2,1.9496181E1,1.7164476E1,9.667024E0],"tree_param":{"num_deleted":"0","num_feature":"45","num_nodes":"11","size_leaf_vector":"1"}},{"base_weights":[-2.1103714E-2,-7.49722E-1,5.929841E-1,-1.3187823E0,-4.0434888E-1,2.0446311E-1,1.1466616E0,-9.617052E-3,-1.4862061E-2,3.1957212E-3,-6.0382704E-3,3.6314337E-3,-6.2069627E-3,7.85E-3,1.2793873E-2],"categories":[],"categories_nodes":[],"categories_segments":[],"categories_sizes":[],"default_left":[0,0,0,0,0,0,0,0,0,0,0,0,0,0,0],"id":50,"left_children":[1,3,5,7,9,11,13,-1,-1,-1,-1,-1,-1,-1,-1],"loss_changes":[9.2746796E1,1.809647E1,2.396653E1,6.845665E-1,8.919511E0,9.041145E0,1.21212E0,0E0,0E0,0E0,0E0,0E0,0E0,0E0,0E0],"parents":[2147483647,0,0,1,1,2,2,3,3,4,4,5,5,6,6],"right_children":[2,4,6,8,10,12,14,-1,-1,-1,-1,-1,-1,-1,-1],"split_conditions":[4.8193938E-1,2.057562E-1,7.450282E-1,6.7E1,6.2068963E-1,4.06E-1,8.222396E-1,-9.617052E-3,-1.4862061E-2,3.1957212E-3,-6.0382704E-3,3.6314337E-3,-6.2069627E-3,7.85E-3,1.2793873E-2],"split_indices":[0,0,0,7,3,11,0,0,0,0,0,0,0,0,0],"split_type":[0,0,0,0,0,0,0,0,0,0,0,0,0,0,0],"sum_hessian":[2.0529166E2,9.37893E1,1.1150235E2,3.435886E1,5.9430435E1,6.632838E1,4.517398E1,1.3120315E1,2.1238546E1,1.270846E1,4.6721977E1,5.6100094E1,1.0228281E1,1.3983921E1,3.1190058E1],"tree_param":{"num_deleted":"0","num_feature":"45","num_nodes":"15","size_leaf_vector":"1"}},{"base_weights":[-7.159578E-2,-5.3878576E-1,7.879713E-1,-1.1974604E0,-2.2208023E-1,3.1375277E-1,1.1155368E0,-9.572133E-3,-1.319798E-2,-3.219785E-3,3.822115E-3,7.969179E-3,4.574432E-4,1.2086636E-2,7.925158E-3],"categories":[],"categories_nodes":[],"categories_segments":[],"categories_sizes":[],"default_left":[0,0,0,0,0,0,0,0,0,0,0,0,0,0,0],"id":51,"left_children":[1,3,5,7,9,11,13,-1,-1,-1,-1,-1,-1,-1,-1],"loss_changes":[8.634216E1,2.8773003E1,1.1415821E1,5.845642E-2,5.8720446E0,4.150814E0,3.7797546E-1,0E0,0E0,0E0,0E0,0E0,0E0,0E0,0E0],"parents":[2147483647,0,0,1,1,2,2,3,3,4,4,5,5,6,6],"right_children":[2,4,6,8,10,12,14,-1,-1,-1,-1,-1,-1,-1,-1],"split_conditions":[5.9326166E-1,2.2604279E-1,7.5585103E-1,8E-1,4.07E-1,6.440422E-1,3.477461E1,-9.572133E-3,-1.319798E-2,-3.219785E-3,3.822115E-3,7.969179E-3,4.574432E-4,1.2086636E-2,7.925158E-3],"split_indices":[0,0,0,2,12,0,9,0,0,0,0,0,0,0,0],"split_type":[0,0,0,0,0,0,0,0,0,0,0,0,0,0,0],"sum_hessian":[2.1294833E2,1.3820477E2,7.474356E1,4.3972046E1,9.423273E1,3.1336031E1,4.3407528E1,1.7813732E1,2.6158312E1,8.1265526E1,1.29672E1,1.0476154E1,2.0859875E1,3.156546E1,1.184207E1],"tree_param":{"num_deleted":"0","num_feature":"45","num_nodes":"15","size_leaf_vector":"1"}},{"base_weights":[2.8266944E-2,-3.8918903E-1,1.8621257E-1,-1.0466603E-1,-8.461756E-1,2.7640367E-1,-4.852811E-3,-3.522691E-3,1.751184E-3,-1.0792254E-2,-4.8531303E-3,-1.8547359E-4,5.521122E-3],"categories":[],"categories_nodes":[],"categories_segments":[],"categories_sizes":[],"default_left":[0,0,0,0,0,0,0,0,0,0,0,0,0],"id":52,"left_children":[1,3,5,7,9,11,-1,-1,-1,-1,-1,-1,-1],"loss_changes":[1.3521429E1,7.23345E0,9.137314E0,2.544973E0,1.281559E0,1.0719597E1,0E0,0E0,0E0,0E0,0E0,0E0,0E0],"parents":[2147483647,0,0,1,1,2,2,3,3,4,4,5,5],"right_children":[2,4,6,8,10,12,-1,-1,-1,-1,-1,-1,-1],"split_conditions":[2.8584393E1,7.6E-1,1E0,6.86E1,3.33E-1,6.76E1,-4.852811E-3,-3.522691E-3,1.751184E-3,-1.0792254E-2,-4.8531303E-3,-1.8547359E-4,5.521122E-3],"split_indices":[9,4,29,8,12,8,0,0,0,0,0,0,0],"split_type":[0,0,0,0,0,0,0,0,0,0,0,0,0],"sum_hessian":[2.0297188E2,5.5313152E1,1.4765872E2,3.4846508E1,2.0466644E1,1.3069316E2,1.6965563E1,1.8348988E1,1.6497522E1,1.1226039E1,9.240604E0,6.3593758E1,6.709941E1],"tree_param":{"num_deleted":"0","num_feature":"45","num_nodes":"13","size_leaf_vector":"1"}},{"base_weights":[-6.1499756E-2,-6.3598716E-1,6.802295E-1,-1.1820651E0,-2.3367187E-1,3.6187312E-1,9.7114164E-1,-1.4581206E-2,-9.953797E-3,2.6369696E-3,-3.4372483E-3,3.8659945E-4,5.864539E-3,7.781862E-3,1.3745875E-2],"categories":[],"categories_nodes":[],"categories_segments":[],"categories_sizes":[],"default_left":[0,0,0,0,0,0,0,0,0,0,0,0,0,0,0],"id":53,"left_children":[1,3,5,7,9,11,13,-1,-1,-1,-1,-1,-1,-1,-1],"loss_changes":[8.8406555E1,2.5397705E1,8.038902E0,1.0907135E0,3.8419962E0,3.2329483E0,2.569191E0,0E0,0E0,0E0,0E0,0E0,0E0,0E0,0E0],"parents":[2147483647,0,0,1,1,2,2,3,3,4,4,5,5,6,6],"right_children":[2,4,6,8,10,12,14,-1,-1,-1,-1,-1,-1,-1,-1],"split_conditions":[5.2626586E-1,2.4445759E-1,7.3066396E-1,7.828183E-2,6.2068963E-1,1.225E1,9.408999E-1,-1.4581206E-2,-9.953797E-3,2.6369696E-3,-3.4372483E-3,3.8659945E-4,5.864539E-3,7.781862E-3,1.3745875E-2],"split_indices":[0,0,0,0,3,6,0,0,0,0,0,0,0,0,0],"split_type":[0,0,0,0,0,0,0,0,0,0,0,0,0,0,0],"sum_hessian":[2.0545628E2,1.15861374E2,8.95949E1,4.8327057E1,6.753432E1,4.3850998E1,4.5743908E1,1.6749153E1,3.1577904E1,1.1982955E1,5.555136E1,1.8458277E1,2.5392721E1,3.2925518E1,1.2818388E1],"tree_param":{"num_deleted":"0","num_feature":"45","num_nodes":"15","size_leaf_vector":"1"}},{"base_weights":[-2.3493875E-2,-6.1646944E-1,6.491831E-1,-1.0909578E0,-2.3860313E-1,2.1801059E-1,1.0934966E0,-1.2417242E-2,-6.798361E-3,-5.070064E-4,-9.924181E-3,-1.2387749E-3,7.3764543E-3,7.816823E-3,1.2441861E-2],"categories":[],"categories_nodes":[],"categories_segments":[],"categories_sizes":[],"default_left":[0,0,0,0,0,0,0,0,0,0,0,0,0,0,0],"id":54,"left_children":[1,3,5,7,9,11,13,-1,-1,-1,-1,-1,-1,-1,-1],"loss_changes":[8.771413E1,2.0690777E1,1.9502228E1,2.3494453E0,9.344915E0,9.603853E0,1.4002609E0,0E0,0E0,0E0,0E0,0E0,0E0,0E0,0E0],"parents":[2147483647,0,0,1,1,2,2,3,3,4,4,5,5,6,6],"right_children":[2,4,6,8,10,12,14,-1,-1,-1,-1,-1,-1,-1,-1],"split_conditions":[5.208705E-1,2.620849E-1,7.450282E-1,3.2577904E1,7.04E1,6.86E1,6.68E1,-1.2417242E-2,-6.798361E-3,-5.070064E-4,-9.924181E-3,-1.2387749E-3,7.3764543E-3,7.816823E-3,1.2441861E-2],"split_indices":[0,0,0,9,7,8,8,0,0,0,0,0,0,0,0],"split_type":[0,0,0,0,0,0,0,0,0,0,0,0,0,0,0],"sum_hessian":[2.178972E2,1.1585378E2,1.0204342E2,5.0523746E1,6.533004E1,5.2544064E1,4.9499355E1,3.548892E1,1.5034828E1,5.314893E1,1.21811075E1,3.2151768E1,2.0392296E1,1.8143442E1,3.1355911E1],"tree_param":{"num_deleted":"0","num_feature":"45","num_nodes":"15","size_leaf_vector":"1"}},{"base_weights":[8.0018245E-2,-2.8084073E-2,6.486369E-1,-9.951124E-2,4.565422E-1,3.953091E-3,8.57548E-3,-5.528845E-4,-7.001337E-3,9.528165E-4,8.672117E-3],"categories":[],"categories_nodes":[],"categories_segments":[],"categories_sizes":[],"default_left":[0,0,0,0,0,0,0,0,0,0,0],"id":55,"left_children":[1,3,5,7,9,-1,-1,-1,-1,-1,-1],"loss_changes":[1.2886147E1,6.1674485E0,1.4329939E0,4.0772347E0,3.3143425E0,0E0,0E0,0E0,0E0,0E0,0E0],"parents":[2147483647,0,0,1,1,2,2,3,3,4,4],"right_children":[2,4,6,8,10,-1,-1,-1,-1,-1,-1],"split_conditions":[8.484849E-1,4.14E-1,3.49E-1,4.03E-1,6.77E1,3.953091E-3,8.57548E-3,-5.528845E-4,-7.001337E-3,9.528165E-4,8.672117E-3],"split_indices":[3,12,12,12,8,0,0,0,0,0,0],"split_type":[0,0,0,0,0,0,0,0,0,0,0],"sum_hessian":[2.083402E2,1.7585779E2,3.2482403E1,1.5396077E2,2.189701E1,1.5987742E1,1.649466E1,1.4441948E2,9.541303E0,1.2304725E1,9.592287E0],"tree_param":{"num_deleted":"0","num_feature":"45","num_nodes":"11","size_leaf_vector":"1"}},{"base_weights":[-7.877158E-2,-8.102186E-1,5.449707E-1,-1.2209809E0,-3.4276754E-1,1.7401144E-1,1.0968487E0,-1.417904E-2,-1.050644E-2,1.7093963E-4,-5.4649697E-3,-3.3535152E-3,4.025182E-3,8.862876E-3,1.3463712E-2],"categories":[],"categories_nodes":[],"categories_segments":[],"categories_sizes":[],"default_left":[0,0,0,0,0,0,0,0,0,0,0,0,0,0,0],"id":56,"left_children":[1,3,5,7,9,11,13,-1,-1,-1,-1,-1,-1,-1,-1],"loss_changes":[9.370158E1,1.7723763E1,2.2518597E1,1.8416595E-1,3.3512692E0,7.994473E0,1.1395721E0,0E0,0E0,0E0,0E0,0E0,0E0,0E0,0E0],"parents":[2147483647,0,0,1,1,2,2,3,3,4,4,5,5,6,6],"right_children":[2,4,6,8,10,12,14,-1,-1,-1,-1,-1,-1,-1,-1],"split_conditions":[4.718583E-1,2.620849E-1,7.450282E-1,3.0300274E1,1.2029411E1,1.1807693E1,9.084584E-1,-1.417904E-2,-1.050644E-2,1.7093963E-4,-5.4649697E-3,-3.3535152E-3,4.025182E-3,8.862876E-3,1.3463712E-2],"split_indices":[0,0,0,10,6,6,0,0,0,0,0,0,0,0,0],"split_type":[0,0,0,0,0,0,0,0,0,0,0,0,0,0,0],"sum_hessian":[2.0341254E2,9.348548E1,1.09927055E2,4.8901962E1,4.4583515E1,6.6525505E1,4.340155E1,1.928399E1,2.9617971E1,1.644741E1,2.8136106E1,2.0457113E1,4.606839E1,2.600717E1,1.7394379E1],"tree_param":{"num_deleted":"0","num_feature":"45","num_nodes":"15","size_leaf_vector":"1"}},{"base_weights":[-7.354237E-2,-7.223225E-1,7.112505E-1,-1.2900499E-2,-4.194986E-1,3.2581306E-1,1.1562622E0,-1.5021791E-3,-8.774239E-3,6.418889E-3,-7.923946E-4,9.631301E-3,1.4443535E-2],"categories":[],"categories_nodes":[],"categories_segments":[],"categories_sizes":[],"default_left":[0,0,0,0,0,0,0,0,0,0,0,0,0],"id":57,"left_children":[1,3,5,-1,7,9,11,-1,-1,-1,-1,-1,-1],"loss_changes":[1.0572009E2,1.8991203E1,1.5749256E1,0E0,9.187229E0,6.6791534E0,1.014946E0,0E0,0E0,0E0,0E0,0E0,0E0],"parents":[2147483647,0,0,1,1,2,2,4,4,5,5,6,6],"right_children":[2,4,6,-1,8,10,12,-1,-1,-1,-1,-1,-1],"split_conditions":[5.2724373E-1,2.057562E-1,7.506692E-1,-1.2900499E-2,6.88E1,6.359426E-1,9.3311256E-1,-1.5021791E-3,-8.774239E-3,6.418889E-3,-7.923946E-4,9.631301E-3,1.4443535E-2],"split_indices":[0,0,0,0,7,0,0,0,0,0,0,0,0],"split_type":[0,0,0,0,0,0,0,0,0,0,0,0,0],"sum_hessian":[2.0562808E2,1.12612274E2,9.301581E1,3.8038498E1,7.457378E1,5.0772465E1,4.2243343E1,4.7795757E1,2.6778019E1,2.8190094E1,2.2582369E1,2.7889677E1,1.4353665E1],"tree_param":{"num_deleted":"0","num_feature":"45","num_nodes":"13","size_leaf_vector":"1"}},{"base_weights":[1.4328076E-2,9.828485E-2,-7.2274965E-1,2.036061E-1,-6.297049E-1,-8.602836E-3,-5.4596732E-3,3.6537743E-4,5.706259E-3,-9.161847E-3,-2.3149434E-3],"categories":[],"categories_nodes":[],"categories_segments":[],"categories_sizes":[],"default_left":[0,0,0,0,0,0,0,0,0,0,0],"id":58,"left_children":[1,3,5,7,9,-1,-1,-1,-1,-1,-1],"loss_changes":[1.2835423E1,1.4393608E1,4.6053886E-2,9.992023E0,2.4983969E0,0E0,0E0,0E0,0E0,0E0,0E0],"parents":[2147483647,0,0,1,1,2,2,3,3,4,4],"right_children":[2,4,6,8,10,-1,-1,-1,-1,-1,-1],"split_conditions":[1E0,1E0,6.764706E-1,6.94E1,7.241379E-1,-8.602836E-3,-5.4596732E-3,3.6537743E-4,5.706259E-3,-9.161847E-3,-2.3149434E-3],"split_indices":[30,29,3,8,3,0,0,0,0,0,0],"split_type":[0,0,0,0,0,0,0,0,0,0,0],"sum_hessian":[2.0526758E2,1.850555E2,2.0212074E1,1.6229582E2,2.2759684E1,9.193402E0,1.1018672E1,1.12283585E2,5.001223E1,1.2480345E1,1.0279338E1],"tree_param":{"num_deleted":"0","num_feature":"45","num_nodes":"11","size_leaf_vector":"1"}},{"base_weights":[7.330916E-2,-5.304121E-1,7.231315E-1,-9.77799E-1,-9.338293E-2,4.439174E-1,1.1900632E0,-1.1153685E-2,-6.100285E-3,3.0749612E-3,-3.4691459E-3,5.3152577E-3,-7.1123353E-4,1.3437651E-2,8.252101E-3],"categories":[],"categories_nodes":[],"categories_segments":[],"categories_sizes":[],"default_left":[0,0,0,0,0,0,0,0,0,0,0,0,0,0,0],"id":59,"left_children":[1,3,5,7,9,11,13,-1,-1,-1,-1,-1,-1,-1,-1],"loss_changes":[8.301019E1,2.1368532E1,1.2751297E1,2.0582619E0,5.861976E0,2.985918E0,9.9523926E-1,0E0,0E0,0E0,0E0,0E0,0E0,0E0,0E0],"parents":[2147483647,0,0,1,1,2,2,3,3,4,4,5,5,6,6],"right_children":[2,4,6,8,10,12,14,-1,-1,-1,-1,-1,-1,-1,-1],"split_conditions":[5.208705E-1,2.8441367E-1,8.222396E-1,2.057562E-1,1.2029411E1,1E0,1.324138E1,-1.1153685E-2,-6.100285E-3,3.0749612E-3,-3.4691459E-3,5.3152577E-3,-7.1123353E-4,1.3437651E-2,8.252101E-3],"split_indices":[0,0,0,0,6,14,6,0,0,0,0,0,0,0,0],"split_type":[0,0,0,0,0,0,0,0,0,0,0,0,0,0,0],"sum_hessian":[2.0961485E2,1.0875714E2,1.00857704E2,5.313028E1,5.562686E1,6.433664E1,3.652107E1,3.718714E1,1.5943137E1,2.1468483E1,3.415838E1,5.4956528E1,9.38011E0,2.3808296E1,1.2712773E1],"tree_param":{"num_deleted":"0","num_feature":"45","num_nodes":"15","size_leaf_vector":"1"}},{"base_weights":[-2.4148364E-2,-7.149935E-1,6.3928777E-1,-1.1273229E0,-2.4510235E-1,2.4888438E-1,1.0889674E0,-1.2452343E-2,-7.243971E-3,6.618732E-5,-6.685498E-3,-5.893505E-4,7.0918864E-3,7.6642814E-3,1.24830445E-2],"categories":[],"categories_nodes":[],"categories_segments":[],"categories_sizes":[],"default_left":[0,0,0,0,0,0,0,0,0,0,0,0,0,0,0],"id":60,"left_children":[1,3,5,7,9,11,13,-1,-1,-1,-1,-1,-1,-1,-1],"loss_changes":[9.22705E1,1.8828476E1,1.7761341E1,1.5799408E0,5.052952E0,8.015837E0,1.481205E0,0E0,0E0,0E0,0E0,0E0,0E0,0E0,0E0],"parents":[2147483647,0,0,1,1,2,2,3,3,4,4,5,5,6,6],"right_children":[2,4,6,8,10,12,14,-1,-1,-1,-1,-1,-1,-1,-1],"split_conditions":[4.9453527E-1,2.8251934E-1,7.450282E-1,2.057562E-1,6.86E1,6.89E1,6.68E1,-1.2452343E-2,-7.243971E-3,6.618732E-5,-6.685498E-3,-5.893505E-4,7.0918864E-3,7.6642814E-3,1.24830445E-2],"split_indices":[0,0,0,0,7,8,8,0,0,0,0,0,0,0,0],"split_type":[0,0,0,0,0,0,0,0,0,0,0,0,0,0,0],"sum_hessian":[1.9932092E2,9.7605385E1,1.0171553E2,5.124169E1,4.636369E1,5.5277836E1,4.64377E1,3.8023952E1,1.3217738E1,2.9695425E1,1.6668264E1,3.3648216E1,2.1629618E1,1.727624E1,2.9161459E1],"tree_param":{"num_deleted":"0","num_feature":"45","num_nodes":"15","size_leaf_vector":"1"}},{"base_weights":[-1.5809383E-3,1.6668102E-1,-2.8873482E-1,-4.9815193E-2,4.5062566E-1,1.632805E-2,-6.5885776E-1,-2.2305446E-3,4.2539025E-3,7.53638E-3,2.1211149E-3,5.3439955E-3,-1.4665324E-3,-1.8923242E-3,-1.2180799E-2],"categories":[],"categories_nodes":[],"categories_segments":[],"categories_sizes":[],"default_left":[0,0,0,0,0,0,0,0,0,0,0,0,0,0,0],"id":61,"left_children":[1,3,5,7,9,11,13,-1,-1,-1,-1,-1,-1,-1,-1],"loss_changes":[9.596144E0,7.720968E0,8.295851E0,6.0186944E0,3.7629137E0,3.5571132E0,8.482759E0,0E0,0E0,0E0,0E0,0E0,0E0,0E0,0E0],"parents":[2147483647,0,0,1,1,2,2,3,3,4,4,5,5,6,6],"right_children":[2,4,6,8,10,12,14,-1,-1,-1,-1,-1,-1,-1,-1],"split_conditions":[7.777778E-1,6.86E1,6.85E1,1.36875E1,3.34E-1,2.9147982E1,3.54E-1,-2.2305446E-3,4.2539025E-3,7.53638E-3,2.1211149E-3,5.3439955E-3,-1.4665324E-3,-1.8923242E-3,-1.2180799E-2],"split_indices":[4,8,7,5,11,10,11,0,0,0,0,0,0,0,0],"split_type":[0,0,0,0,0,0,0,0,0,0,0,0,0,0,0],"sum_hessian":[1.9661166E2,1.24234314E2,7.237735E1,7.095702E1,5.3277287E1,4.0199764E1,3.217758E1,5.2388916E1,1.856811E1,2.2514616E1,3.0762669E1,9.07476E0,3.1125006E1,1.8217344E1,1.3960237E1],"tree_param":{"num_deleted":"0","num_feature":"45","num_nodes":"15","size_leaf_vector":"1"}},{"base_weights":[6.4809866E-2,-7.378084E-1,6.073301E-1,-1.1983238E0,-3.2497314E-1,2.3731121E-1,1.1208683E0,-7.7959746E-3,-1.4010297E-2,-7.4165803E-3,7.280701E-4,4.978607E-3,-6.834361E-5,1.3398823E-2,8.792551E-3],"categories":[],"categories_nodes":[],"categories_segments":[],"categories_sizes":[],"default_left":[0,0,0,0,0,0,0,0,0,0,0,0,0,0,0],"id":62,"left_children":[1,3,5,7,9,11,13,-1,-1,-1,-1,-1,-1,-1,-1],"loss_changes":[8.698817E1,1.4935612E1,2.2371853E1,2.1103668E0,7.3265176E0,4.488793E0,1.4477806E0,0E0,0E0,0E0,0E0,0E0,0E0,0E0,0E0],"parents":[2147483647,0,0,1,1,2,2,3,3,4,4,5,5,6,6],"right_children":[2,4,6,8,10,12,14,-1,-1,-1,-1,-1,-1,-1,-1],"split_conditions":[4.4295382E-1,2.149048E-1,7.450282E-1,6.68E1,3.38E-1,3.39E-1,3.48E-1,-7.7959746E-3,-1.4010297E-2,-7.4165803E-3,7.280701E-4,4.978607E-3,-6.834361E-5,1.3398823E-2,8.792551E-3],"split_indices":[0,0,0,7,12,11,11,0,0,0,0,0,0,0,0],"split_type":[0,0,0,0,0,0,0,0,0,0,0,0,0,0,0],"sum_hessian":[1.977432E2,7.960845E1,1.1813474E2,3.673174E1,4.2876713E1,6.95117E1,4.8623043E1,1.3562289E1,2.316945E1,2.0518534E1,2.2358181E1,3.3123486E1,3.6388214E1,2.3119995E1,2.550305E1],"tree_param":{"num_deleted":"0","num_feature":"45","num_nodes":"15","size_leaf_vector":"1"}},{"base_weights":[-4.423927E-2,-3.5963643E-1,1.0185945E0,-9.898763E-1,-3.408597E-2,6.573846E-3,1.1627353E0,-6.7588203E-3,-1.1193098E-2,8.2090974E-4,-4.715186E-3,8.741439E-3,1.4201154E-2],"categories":[],"categories_nodes":[],"categories_segments":[],"categories_sizes":[],"default_left":[0,0,0,0,0,0,0,0,0,0,0,0,0],"id":63,"left_children":[1,3,5,7,9,-1,11,-1,-1,-1,-1,-1,-1],"loss_changes":[7.079496E1,3.3360397E1,1.7525024E0,1.4950752E0,5.545407E0,0E0,1.2284698E0,0E0,0E0,0E0,0E0,0E0,0E0],"parents":[2147483647,0,0,1,1,2,2,3,3,4,4,6,6],"right_children":[2,4,6,8,10,-1,12,-1,-1,-1,-1,-1,-1],"split_conditions":[7.450282E-1,2.8441367E-1,6.4705884E-1,3.17E-1,7.03E1,6.573846E-3,3.46E-1,-6.7588203E-3,-1.1193098E-2,8.2090974E-4,-4.715186E-3,8.741439E-3,1.4201154E-2],"split_indices":[0,0,4,11,7,0,12,0,0,0,0,0,0],"split_type":[0,0,0,0,0,0,0,0,0,0,0,0,0],"sum_hessian":[2.0910007E2,1.617594E2,4.7340668E1,5.44016E1,1.073578E2,1.508903E1,3.2251637E1,1.7695568E1,3.670603E1,8.547025E1,2.1887554E1,1.7276455E1,1.497518E1],"tree_param":{"num_deleted":"0","num_feature":"45","num_nodes":"13","size_leaf_vector":"1"}},{"base_weights":[3.61506E-2,-3.7325197E-1,1.1160774E0,-1.0919958E0,-7.571978E-2,9.4775015E-1,1.447064E-2,-1.352186E-2,-8.733763E-3,-2.7876815E-3,1.4162308E-3,1.1110166E-2,7.6399045E-3],"categories":[],"categories_nodes":[],"categories_segments":[],"categories_sizes":[],"default_left":[0,0,0,0,0,0,0,0,0,0,0,0,0],"id":64,"left_children":[1,3,5,7,9,11,-1,-1,-1,-1,-1,-1,-1],"loss_changes":[9.388525E1,3.285937E1,1.8802719E0,1.3801346E0,4.894738E0,3.9888382E-1,0E0,0E0,0E0,0E0,0E0,0E0,0E0],"parents":[2147483647,0,0,1,1,2,2,3,3,4,4,5,5],"right_children":[2,4,6,8,10,12,-1,-1,-1,-1,-1,-1,-1],"split_conditions":[6.911312E-1,2.4445759E-1,9.2426616E-1,8.471043E-2,3.49E-1,3.39E-1,1.447064E-2,-1.352186E-2,-8.733763E-3,-2.7876815E-3,1.4162308E-3,1.1110166E-2,7.6399045E-3],"split_indices":[0,0,0,0,12,11,0,0,0,0,0,0,0],"split_type":[0,0,0,0,0,0,0,0,0,0,0,0,0],"sum_hessian":[2.1040788E2,1.5304323E2,5.736465E1,4.4024284E1,1.0901895E2,4.0587036E1,1.6777615E1,1.7733557E1,2.629073E1,5.621684E1,5.2802113E1,1.8819912E1,2.1767122E1],"tree_param":{"num_deleted":"0","num_feature":"45","num_nodes":"13","size_leaf_vector":"1"}},{"base_weights":[1.9951135E-2,-9.053122E-1,3.868193E-1,-1.4410245E-2,-7.46709E-1,5.984112E-2,1.0556492E0,-1.1963459E-3,-9.536439E-3,1.8219539E-3,-7.658851E-3,7.4899187E-3,1.16987955E-2],"categories":[],"categories_nodes":[],"categories_segments":[],"categories_sizes":[],"default_left":[0,0,0,0,0,0,0,0,0,0,0,0,0],"id":65,"left_children":[1,3,5,-1,7,9,11,-1,-1,-1,-1,-1,-1],"loss_changes":[6.7680275E1,3.734394E0,3.115187E1,0E0,5.823721E0,9.932203E0,7.634125E-1,0E0,0E0,0E0,0E0,0E0,0E0],"parents":[2147483647,0,0,1,1,2,2,4,4,5,5,6,6],"right_children":[2,4,6,-1,8,10,12,-1,-1,-1,-1,-1,-1],"split_conditions":[3.2105353E-1,5.667113E-2,7.3291457E-1,-1.4410245E-2,6.551724E-1,7.11E1,8.222396E-1,-1.1963459E-3,-9.536439E-3,1.8219539E-3,-7.658851E-3,7.4899187E-3,1.16987955E-2],"split_indices":[0,0,0,0,3,7,0,0,0,0,0,0,0],"split_type":[0,0,0,0,0,0,0,0,0,0,0,0,0],"sum_hessian":[1.9735072E2,5.561605E1,1.4173466E2,1.08574E1,4.475865E1,9.592718E1,4.580749E1,1.1497113E1,3.326154E1,8.422609E1,1.1701084E1,1.4483269E1,3.1324224E1],"tree_param":{"num_deleted":"0","num_feature":"45","num_nodes":"13","size_leaf_vector":"1"}},{"base_weights":[-5.8960808E-3,-1.1186131E-1,8.230192E-1,-4.0348444E-2,-7.2776484E-3,1.0979552E-2,4.0117265E-3,4.3221645E-4,-5.0546364E-3],"categories":[],"categories_nodes":[],"categories_segments":[],"categories_sizes":[],"default_left":[0,0,0,0,0,0,0,0,0],"id":66,"left_children":[1,3,5,7,-1,-1,-1,-1,-1],"loss_changes":[1.8003038E1,7.972775E0,2.2540503E0,6.3902264E0,0E0,0E0,0E0,0E0,0E0],"parents":[2147483647,0,0,1,1,2,2,3,3],"right_children":[2,4,6,8,-1,-1,-1,-1,-1],"split_conditions":[1E0,8.787879E-1,7.1875E-1,7.07E1,-7.2776484E-3,1.0979552E-2,4.0117265E-3,4.3221645E-4,-5.0546364E-3],"split_indices":[13,4,4,7,0,0,0,0,0],"split_type":[0,0,0,0,0,0,0,0,0],"sum_hessian":[2.0291338E2,1.806809E2,2.2232475E1,1.6283908E2,1.7841816E1,1.248967E1,9.742806E0,1.3880603E2,2.4033054E1],"tree_param":{"num_deleted":"0","num_feature":"45","num_nodes":"9","size_leaf_vector":"1"}},{"base_weights":[-3.9261933E-2,7.802593E-2,-6.031322E-1,1.331072E-1,-6.811292E-3,-1.0283569E-2,-1.4949773E-3,-1.9097562E-3,2.5261587E-3],"categories":[],"categories_nodes":[],"categories_segments":[],"categories_sizes":[],"default_left":[0,0,0,0,0,0,0,0,0],"id":67,"left_children":[1,3,5,7,-1,-1,-1,-1,-1],"loss_changes":[1.3643478E1,7.2440505E0,6.696805E0,6.2581425E0,0E0,0E0,0E0,0E0,0E0],"parents":[2147483647,0,0,1,1,2,2,3,3],"right_children":[2,4,6,8,-1,-1,-1,-1,-1],"split_conditions":[8.484849E-1,3.8025417E1,7.3333335E-1,2.8584393E1,-6.811292E-3,-1.0283569E-2,-1.4949773E-3,-1.9097562E-3,2.5261587E-3],"split_indices":[4,10,3,9,0,0,0,0,0],"split_type":[0,0,0,0,0,0,0,0,0],"sum_hessian":[2.045854E2,1.7007133E2,3.4514072E1,1.5933527E2,1.0736067E1,1.7160942E1,1.7353132E1,4.276565E1,1.1656962E2],"tree_param":{"num_deleted":"0","num_feature":"45","num_nodes":"9","size_leaf_vector":"1"}},{"base_weights":[-6.450538E-2,-4.3192652E-1,8.94354E-1,-1.0767798E0,-1.3537206E-1,5.0946826E-1,1.1054103E0,-6.312134E-3,-1.2106155E-2,7.2393793E-4,-5.286365E-3,8.064407E-3,1.1303991E-3,8.873441E-3,1.383377E-2],"categories":[],"categories_nodes":[],"categories_segments":[],"categories_sizes":[],"default_left":[0,0,0,0,0,0,0,0,0,0,0,0,0,0,0],"id":68,"left_children":[1,3,5,7,9,11,13,-1,-1,-1,-1,-1,-1,-1,-1],"loss_changes":[7.3846504E1,2.881143E1,4.1556587E0,2.071743E0,8.606599E0,2.5492396E0,9.947586E-1,0E0,0E0,0E0,0E0,0E0,0E0,0E0,0E0],"parents":[2147483647,0,0,1,1,2,2,3,3,4,4,5,5,6,6],"right_children":[2,4,6,8,10,12,14,-1,-1,-1,-1,-1,-1,-1,-1],"split_conditions":[6.911312E-1,2.620849E-1,8.222396E-1,6.2857145E-1,3.64E-1,3.49E-1,9.3311256E-1,-6.312134E-3,-1.2106155E-2,7.2393793E-4,-5.286365E-3,8.064407E-3,1.1303991E-3,8.873441E-3,1.383377E-2],"split_indices":[0,0,0,3,11,11,0,0,0,0,0,0,0,0,0],"split_type":[0,0,0,0,0,0,0,0,0,0,0,0,0,0,0],"sum_hessian":[2.0751302E2,1.5042273E2,5.7090286E1,4.6556126E1,1.038666E2,2.1427912E1,3.5662373E1,1.2074376E1,3.448175E1,6.849557E1,3.537103E1,1.1659375E1,9.7685375E0,2.233372E1,1.3328653E1],"tree_param":{"num_deleted":"0","num_feature":"45","num_nodes":"15","size_leaf_vector":"1"}},{"base_weights":[-1.460805E-2,-1.1081387E-1,7.12167E-1,-3.66674E-2,-7.467698E-3,1.0978863E-2,2.2550968E-3,3.059993E-3,-1.415125E-3],"categories":[],"categories_nodes":[],"categories_segments":[],"categories_sizes":[],"default_left":[0,0,0,0,0,0,0,0,0],"id":69,"left_children":[1,3,5,7,-1,-1,-1,-1,-1],"loss_changes":[1.4490767E1,8.596562E0,4.3006716E0,5.9656506E0,0E0,0E0,0E0,0E0,0E0],"parents":[2147483647,0,0,1,1,2,2,3,3],"right_children":[2,4,6,8,-1,-1,-1,-1,-1],"split_conditions":[1E0,1E0,7.307692E-1,2.726503E1,-7.467698E-3,1.0978863E-2,2.2550968E-3,3.059993E-3,-1.415125E-3],"split_indices":[13,30,4,10,0,0,0,0,0],"split_type":[0,0,0,0,0,0,0,0,0],"sum_hessian":[2.0511916E2,1.8188933E2,2.3229818E1,1.6384428E2,1.8045044E1,1.2258159E1,1.097166E1,3.7936687E1,1.259076E2],"tree_param":{"num_deleted":"0","num_feature":"45","num_nodes":"9","size_leaf_vector":"1"}},{"base_weights":[3.1247582E-2,-7.1346745E-2,6.22968E-1,-1.24697946E-1,4.723536E-3,8.388612E-3,4.0275482E-3,-8.445836E-5,-3.7713337E-3],"categories":[],"categories_nodes":[],"categories_segments":[],"categories_sizes":[],"default_left":[0,0,0,0,0,0,0,0,0],"id":70,"left_children":[1,3,5,7,-1,-1,-1,-1,-1],"loss_changes":[1.2299778E1,5.075485E0,1.0852194E0,4.6417475E0,0E0,0E0,0E0,0E0,0E0],"parents":[2147483647,0,0,1,1,2,2,3,3],"right_children":[2,4,6,8,-1,-1,-1,-1,-1],"split_conditions":[8.5294116E-1,1E0,3.42E-1,1.35161295E1,4.723536E-3,8.388612E-3,4.0275482E-3,-8.445836E-5,-3.7713337E-3],"split_indices":[3,15,11,6,0,0,0,0,0],"split_type":[0,0,0,0,0,0,0,0,0],"sum_hessian":[2.0087619E2,1.7194353E2,2.8932676E1,1.572808E2,1.4662706E1,1.319107E1,1.5741606E1,1.0839566E2,4.888515E1],"tree_param":{"num_deleted":"0","num_feature":"45","num_nodes":"9","size_leaf_vector":"1"}},{"base_weights":[1.9016108E-3,4.1872093E-1,-1.5453653E-1,5.222445E-1,2.4024572E-4,3.132008E-1,-2.4298131E-1,9.457514E-3,3.878378E-3,-5.5329874E-4,6.3600033E-3,-5.4895505E-3,-1.0814231E-3],"categories":[],"categories_nodes":[],"categories_segments":[],"categories_sizes":[],"default_left":[0,0,0,0,0,0,0,0,0,0,0,0,0],"id":71,"left_children":[1,3,5,7,-1,9,11,-1,-1,-1,-1,-1,-1],"loss_changes":[1.3565507E1,2.3071527E0,6.3342133E0,2.1905308E0,0E0,2.9489057E0,5.2125936E0,0E0,0E0,0E0,0E0,0E0,0E0],"parents":[2147483647,0,0,1,1,2,2,3,3,5,5,6,6],"right_children":[2,4,6,8,-1,10,12,-1,-1,-1,-1,-1,-1],"split_conditions":[2.8584393E1,7.04E1,6.48E1,6E-1,2.4024572E-4,6.63E1,6.68E1,9.457514E-3,3.878378E-3,-5.5329874E-4,6.3600033E-3,-5.4895505E-3,-1.0814231E-3],"split_indices":[10,7,7,1,0,8,8,0,0,0,0,0,0],"split_type":[0,0,0,0,0,0,0,0,0,0,0,0,0],"sum_hessian":[2.0604701E2,5.5771328E1,1.5027568E2,4.3926765E1,1.1844562E1,2.3492924E1,1.2678277E2,9.128131E0,3.4798634E1,1.135633E1,1.2136593E1,3.784179E1,8.894097E1],"tree_param":{"num_deleted":"0","num_feature":"45","num_nodes":"13","size_leaf_vector":"1"}},{"base_weights":[2.3054607E-2,1.1941225E-1,-6.6153103E-1,2.018367E-1,-6.9191167E-3,-8.6492775E-3,-3.4932734E-3,-1.6813754E-3,3.4205555E-3],"categories":[],"categories_nodes":[],"categories_segments":[],"categories_sizes":[],"default_left":[0,0,0,0,0,0,0,0,0],"id":72,"left_children":[1,3,5,7,-1,-1,-1,-1,-1],"loss_changes":[1.3206816E1,1.1862715E1,1.2668581E0,8.353255E0,0E0,0E0,0E0,0E0,0E0],"parents":[2147483647,0,0,1,1,2,2,3,3],"right_children":[2,4,6,8,-1,-1,-1,-1,-1],"split_conditions":[1E0,1E0,8E-1,2.8472906E1,-6.9191167E-3,-8.6492775E-3,-3.4932734E-3,-1.6813754E-3,3.4205555E-3],"split_indices":[29,30,1,9,0,0,0,0,0],"split_type":[0,0,0,0,0,0,0,0,0],"sum_hessian":[1.9801172E2,1.7430351E2,2.3708212E1,1.5891061E2,1.5392906E1,1.3283675E1,1.0424538E1,4.3619453E1,1.1529115E2],"tree_param":{"num_deleted":"0","num_feature":"45","num_nodes":"9","size_leaf_vector":"1"}},{"base_weights":[1.2334605E-2,-4.9122453E-1,6.107939E-1,-1.034324E0,-2.2392932E-1,2.609673E-1,9.7250545E-1,-5.642696E-3,-1.1708796E-2,-6.898181E-4,-1.1216481E-2,6.690258E-3,-5.8560574E-4,5.909139E-3,1.1218277E-2],"categories":[],"categories_nodes":[],"categories_segments":[],"categories_sizes":[],"default_left":[0,0,0,0,0,0,0,0,0,0,0,0,0,0,0],"id":73,"left_children":[1,3,5,7,9,11,13,-1,-1,-1,-1,-1,-1,-1,-1],"loss_changes":[6.1765438E1,1.5927952E1,1.1595562E1,1.6783066E0,1.0477045E1,6.424287E0,1.9395561E0,0E0,0E0,0E0,0E0,0E0,0E0,0E0,0E0],"parents":[2147483647,0,0,1,1,2,2,3,3,4,4,5,5,6,6],"right_children":[2,4,6,8,10,12,14,-1,-1,-1,-1,-1,-1,-1,-1],"split_conditions":[5.208705E-1,2.057562E-1,7.506692E-1,3.09E-1,7.06E1,3.37E-1,6.68E1,-5.642696E-3,-1.1708796E-2,-6.898181E-4,-1.1216481E-2,6.690258E-3,-5.8560574E-4,5.909139E-3,1.1218277E-2],"split_indices":[0,0,0,11,7,11,8,0,0,0,0,0,0,0,0],"split_type":[0,0,0,0,0,0,0,0,0,0,0,0,0,0,0],"sum_hessian":[2.029603E2,1.103164E2,9.264389E1,3.543954E1,7.487686E1,4.7970787E1,4.4673103E1,9.133195E0,2.6306345E1,6.4773674E1,1.0103184E1,2.0586569E1,2.7384218E1,1.3958806E1,3.0714296E1],"tree_param":{"num_deleted":"0","num_feature":"45","num_nodes":"15","size_leaf_vector":"1"}},{"base_weights":[-2.2103682E-2,-3.426478E-1,1.0420784E0,-1.0354068E0,-2.988666E-2,5.415179E-3,1.1523732E0,-6.1893747E-3,-1.1226511E-2,1.8810589E-3,-3.0559683E-3,7.765381E-3,1.2988522E-2],"categories":[],"categories_nodes":[],"categories_segments":[],"categories_sizes":[],"default_left":[0,0,0,0,0,0,0,0,0,0,0,0,0],"id":74,"left_children":[1,3,5,7,9,-1,11,-1,-1,-1,-1,-1,-1],"loss_changes":[7.036485E1,3.4305626E1,2.0125122E0,1.0951004E0,6.6815486E0,0E0,1.0969276E0,0E0,0E0,0E0,0E0,0E0,0E0],"parents":[2147483647,0,0,1,1,2,2,3,3,4,4,6,6],"right_children":[2,4,6,8,10,-1,12,-1,-1,-1,-1,-1,-1],"split_conditions":[7.450282E-1,2.620849E-1,2.854594E1,6.51E1,3.49E-1,5.415179E-3,6.4285713E-1,-6.1893747E-3,-1.1226511E-2,1.8810589E-3,-3.0559683E-3,7.765381E-3,1.2988522E-2],"split_indices":[0,0,9,8,11,0,4,0,0,0,0,0,0],"split_type":[0,0,0,0,0,0,0,0,0,0,0,0,0],"sum_hessian":[2.0423087E2,1.5747543E2,4.675543E1,4.8263126E1,1.092123E2,9.509122E0,3.7246307E1,9.761232E0,3.8501896E1,6.116747E1,4.8044834E1,1.2212615E1,2.5033691E1],"tree_param":{"num_deleted":"0","num_feature":"45","num_nodes":"13","size_leaf_vector":"1"}},{"base_weights":[3.585039E-2,-6.7799103E-1,5.1111174E-1,-9.174723E-1,-2.6757538E-1,2.2493283E-1,9.9127877E-1,-1.0414434E-2,-4.909201E-3,-8.3513063E-4,-6.019861E-3,-1.0955645E-3,4.207612E-3,8.031147E-3,1.4169639E-2],"categories":[],"categories_nodes":[],"categories_segments":[],"categories_sizes":[],"default_left":[0,0,0,0,0,0,0,0,0,0,0,0,0,0,0],"id":75,"left_children":[1,3,5,7,9,11,13,-1,-1,-1,-1,-1,-1,-1,-1],"loss_changes":[7.005201E1,7.8680115E0,1.6804413E1,2.223629E0,1.9089632E0,5.2164392E0,2.5449371E0,0E0,0E0,0E0,0E0,0E0,0E0,0E0,0E0],"parents":[2147483647,0,0,1,1,2,2,3,3,4,4,5,5,6,6],"right_children":[2,4,6,8,10,12,14,-1,-1,-1,-1,-1,-1,-1,-1],"split_conditions":[4.3368807E-1,2.8441367E-1,7.450282E-1,3.251599E1,6.9E1,6.666667E-1,9.3311256E-1,-1.0414434E-2,-4.909201E-3,-8.3513063E-4,-6.019861E-3,-1.0955645E-3,4.207612E-3,8.031147E-3,1.4169639E-2],"split_indices":[0,0,0,9,7,4,0,0,0,0,0,0,0,0,0],"split_type":[0,0,0,0,0,0,0,0,0,0,0,0,0,0,0],"sum_hessian":[2.0446254E2,8.1549225E1,1.22913315E2,5.0718845E1,3.0830383E1,7.79335E1,4.4979813E1,3.818067E1,1.2538176E1,2.0691402E1,1.013898E1,2.894089E1,4.8992615E1,3.319388E1,1.17859335E1],"tree_param":{"num_deleted":"0","num_feature":"45","num_nodes":"15","size_leaf_vector":"1"}},{"base_weights":[5.0866E-2,-5.6788117E-1,5.5884993E-1,-9.226839E-1,-1.7047642E-1,2.0105116E-1,9.7008246E-1,-5.40069E-3,-1.038483E-2,-5.8802455E-3,5.729004E-4,3.699955E-3,-2.4705327E-3,8.203306E-3,1.3977572E-2],"categories":[],"categories_nodes":[],"categories_segments":[],"categories_sizes":[],"default_left":[0,0,0,0,0,0,0,0,0,0,0,0,0,0,0],"id":76,"left_children":[1,3,5,7,9,11,13,-1,-1,-1,-1,-1,-1,-1,-1],"loss_changes":[6.3157314E1,1.2621958E1,1.6033566E1,1.5506363E0,4.2160063E0,4.6519003E0,2.123146E0,0E0,0E0,0E0,0E0,0E0,0E0,0E0,0E0],"parents":[2147483647,0,0,1,1,2,2,3,3,4,4,5,5,6,6],"right_children":[2,4,6,8,10,12,14,-1,-1,-1,-1,-1,-1,-1,-1],"split_conditions":[4.6473697E-1,2.620849E-1,7.1358156E-1,6.25E-1,3.31E-1,6.3784975E-1,9.408999E-1,-5.40069E-3,-1.038483E-2,-5.8802455E-3,5.729004E-4,3.699955E-3,-2.4705327E-3,8.203306E-3,1.3977572E-2],"split_indices":[0,0,0,3,12,0,0,0,0,0,0,0,0,0,0],"split_type":[0,0,0,0,0,0,0,0,0,0,0,0,0,0,0],"sum_hessian":[1.9892755E2,8.9632835E1,1.09294716E2,4.6656326E1,4.2976513E1,5.9240532E1,5.0054184E1,1.2155821E1,3.4500504E1,1.4610471E1,2.8366041E1,4.3147408E1,1.6093126E1,3.9234283E1,1.08199E1],"tree_param":{"num_deleted":"0","num_feature":"45","num_nodes":"15","size_leaf_vector":"1"}},{"base_weights":[-3.2468077E-2,4.4783644E-2,-6.2935245E-1,-8.472449E-2,3.088158E-1,-2.3213152E-3,-1.0092808E-2,5.362245E-4,-4.851332E-3,-4.376982E-3,4.577859E-3],"categories":[],"categories_nodes":[],"categories_segments":[],"categories_sizes":[],"default_left":[0,0,0,0,0,0,0,0,0,0,0],"id":77,"left_children":[1,3,5,7,9,-1,-1,-1,-1,-1,-1],"loss_changes":[9.628021E0,6.3612995E0,3.376215E0,6.955098E0,7.0045805E0,0E0,0E0,0E0,0E0,0E0,0E0],"parents":[2147483647,0,0,1,1,2,2,3,3,4,4],"right_children":[2,4,6,8,10,-1,-1,-1,-1,-1,-1],"split_conditions":[1E0,7.8571427E-1,3.55E-1,3.86E-1,2.7688787E1,-2.3213152E-3,-1.0092808E-2,5.362245E-4,-4.851332E-3,-4.376982E-3,4.577859E-3],"split_indices":[29,3,11,11,9,0,0,0,0,0,0],"split_type":[0,0,0,0,0,0,0,0,0,0,0],"sum_hessian":[2.0719267E2,1.8426868E2,2.2923992E1,1.2408428E2,6.01844E1,1.1994521E1,1.092947E1,9.286439E1,3.1219896E1,9.689671E0,5.0494728E1],"tree_param":{"num_deleted":"0","num_feature":"45","num_nodes":"11","size_leaf_vector":"1"}},{"base_weights":[-3.899664E-2,-5.657313E-1,5.608297E-1,-1.0777216E0,-2.4343204E-1,1.5462919E-1,9.8059654E-1,-1.4109729E-2,-8.920423E-3,1.3990244E-3,-6.6885524E-3,-9.176559E-4,4.4707963E-3,4.0941685E-3,1.1163594E-2],"categories":[],"categories_nodes":[],"categories_segments":[],"categories_sizes":[],"default_left":[0,0,0,0,0,0,0,0,0,0,0,0,0,0,0],"id":78,"left_children":[1,3,5,7,9,11,13,-1,-1,-1,-1,-1,-1,-1,-1],"loss_changes":[6.3446465E1,1.7374947E1,1.5863363E1,1.278286E0,1.1001067E1,3.5661688E0,3.1102943E0,0E0,0E0,0E0,0E0,0E0,0E0,0E0,0E0],"parents":[2147483647,0,0,1,1,2,2,3,3,4,4,5,5,6,6],"right_children":[2,4,6,8,10,12,14,-1,-1,-1,-1,-1,-1,-1,-1],"split_conditions":[5.208705E-1,2.0990507E-1,7.450282E-1,5.667113E-2,6.84E1,6.84E1,6.55E1,-1.4109729E-2,-8.920423E-3,1.3990244E-3,-6.6885524E-3,-9.176559E-4,4.4707963E-3,4.0941685E-3,1.1163594E-2],"split_indices":[0,0,0,0,7,8,8,0,0,0,0,0,0,0,0],"split_type":[0,0,0,0,0,0,0,0,0,0,0,0,0,0,0],"sum_hessian":[1.9880794E2,1.0588359E2,9.292434E1,3.999904E1,6.588455E1,4.7920723E1,4.5003616E1,1.1950928E1,2.8048111E1,3.500967E1,3.0874886E1,2.6380714E1,2.1540009E1,9.413782E0,3.5589832E1],"tree_param":{"num_deleted":"0","num_feature":"45","num_nodes":"15","size_leaf_vector":"1"}},{"base_weights":[1.850623E-3,-1.0471567E-1,7.220515E-1,-1.2553249E-2,-7.9572695E-1,9.304228E-3,3.2068342E-3,6.759667E-4,-7.829029E-3,-4.0534274E-3,-1.0867179E-2],"categories":[],"categories_nodes":[],"categories_segments":[],"categories_sizes":[],"default_left":[0,0,0,0,0,0,0,0,0,0,0],"id":79,"left_children":[1,3,5,7,9,-1,-1,-1,-1,-1,-1],"loss_changes":[1.5289107E1,1.10423975E1,1.8490667E0,9.570079E0,1.8776684E0,0E0,0E0,0E0,0E0,0E0,0E0],"parents":[2147483647,0,0,1,1,2,2,3,3,4,4],"right_children":[2,4,6,8,10,-1,-1,-1,-1,-1,-1],"split_conditions":[1E0,1E0,3.61E-1,1E0,3.44E-1,9.304228E-3,3.2068342E-3,6.759667E-4,-7.829029E-3,-4.0534274E-3,-1.0867179E-2],"split_indices":[13,29,11,32,11,0,0,0,0,0,0],"split_type":[0,0,0,0,0,0,0,0,0,0,0],"sum_hessian":[1.9722371E2,1.7254698E2,2.4676735E1,1.5314032E2,1.9406656E1,1.5376075E1,9.300661E0,1.3953487E2,1.3605451E1,9.309844E0,1.0096811E1],"tree_param":{"num_deleted":"0","num_feature":"45","num_nodes":"11","size_leaf_vector":"1"}},{"base_weights":[-1.7115306E-2,-1.16204664E-1,6.699517E-1,-1.8370168E-1,5.4270886E-3,3.3763563E-3,1.0882271E-2,-2.4380512E-3,5.313427E-3],"categories":[],"categories_nodes":[],"categories_segments":[],"categories_sizes":[],"default_left":[0,0,0,0,0,0,0,0,0],"id":80,"left_children":[1,3,5,7,-1,-1,-1,-1,-1],"loss_changes":[1.383659E1,7.992769E0,3.1937838E0,7.080149E0,0E0,0E0,0E0,0E0,0E0],"parents":[2147483647,0,0,1,1,2,2,3,3],"right_children":[2,4,6,8,-1,-1,-1,-1,-1],"split_conditions":[1E0,1E0,3.55E-1,3.7249783E1,5.4270886E-3,3.3763563E-3,1.0882271E-2,-2.4380512E-3,5.313427E-3],"split_indices":[13,15,12,9,0,0,0,0,0],"split_type":[0,0,0,0,0,0,0,0,0],"sum_hessian":[2.0109358E2,1.7647333E2,2.4620258E1,1.6072987E2,1.5743454E1,1.4727001E1,9.893257E0,1.4887514E2,1.1854743E1],"tree_param":{"num_deleted":"0","num_feature":"45","num_nodes":"9","size_leaf_vector":"1"}},{"base_weights":[-9.978569E-2,-4.8298705E-3,-7.958421E-1,-2.2948138E-1,1.4657824E-1,-1.023728E-2,-5.189804E-3,2.650487E-3,-4.1288254E-3,2.1687988E-3,-5.5617434E-3],"categories":[],"categories_nodes":[],"categories_segments":[],"categories_sizes":[],"default_left":[0,0,0,0,0,0,0,0,0,0,0],"id":81,"left_children":[1,3,5,7,9,-1,-1,-1,-1,-1,-1],"loss_changes":[1.3472446E1,6.1705875E0,1.0125885E0,6.733206E0,5.47571E0,0E0,0E0,0E0,0E0,0E0,0E0],"parents":[2147483647,0,0,1,1,2,2,3,3,4,4],"right_children":[2,4,6,8,10,-1,-1,-1,-1,-1,-1],"split_conditions":[1E0,3.31E-1,3.49E-1,2.88E-1,1E0,-1.023728E-2,-5.189804E-3,2.650487E-3,-4.1288254E-3,2.1687988E-3,-5.5617434E-3],"split_indices":[29,12,12,12,31,0,0,0,0,0,0],"split_type":[0,0,0,0,0,0,0,0,0,0,0],"sum_hessian":[2.0289394E2,1.7942392E2,2.3470022E1,7.203156E1,1.0739235E2,1.139398E1,1.2076043E1,1.9366306E1,5.266526E1,9.825459E1,9.137763E0],"tree_param":{"num_deleted":"0","num_feature":"45","num_nodes":"11","size_leaf_vector":"1"}},{"base_weights":[4.9090635E-2,-4.5739955E-1,6.283041E-1,-8.56757E-1,-1.396132E-1,2.4114794E-1,1.0493566E0,-1.2496722E-2,-6.8703317E-3,2.3425918E-3,-3.6520425E-3,5.099949E-3,-4.022992E-3,1.2415129E-2,8.381084E-3],"categories":[],"categories_nodes":[],"categories_segments":[],"categories_sizes":[],"default_left":[0,0,0,0,0,0,0,0,0,0,0,0,0,0,0],"id":82,"left_children":[1,3,5,7,9,11,13,-1,-1,-1,-1,-1,-1,-1,-1],"loss_changes":[5.990059E1,1.3711889E1,1.5268696E1,2.349102E0,5.305173E0,9.010997E0,7.98893E-1,0E0,0E0,0E0,0E0,0E0,0E0,0E0,0E0],"parents":[2147483647,0,0,1,1,2,2,3,3,4,4,5,5,6,6],"right_children":[2,4,6,8,10,12,14,-1,-1,-1,-1,-1,-1,-1,-1],"split_conditions":[5.231254E-1,2.620849E-1,7.506692E-1,6.2057324E-2,1.2029411E1,8E-1,3.39E-1,-1.2496722E-2,-6.8703317E-3,2.3425918E-3,-3.6520425E-3,5.099949E-3,-4.022992E-3,1.2415129E-2,8.381084E-3],"split_indices":[0,0,0,0,6,3,11,0,0,0,0,0,0,0,0],"split_type":[0,0,0,0,0,0,0,0,0,0,0,0,0,0,0],"sum_hessian":[2.0220424E2,1.07986404E2,9.4217834E1,4.7100227E1,6.088618E1,4.9904007E1,4.4313828E1,1.2288667E1,3.4811558E1,2.2898327E1,3.7987854E1,3.534391E1,1.4560096E1,2.0651606E1,2.366222E1],"tree_param":{"num_deleted":"0","num_feature":"45","num_nodes":"15","size_leaf_vector":"1"}},{"base_weights":[2.622372E-3,-2.4701543E-1,2.0617133E-1,-5.005976E-2,-6.841735E-1,-4.5645083E-3,3.0607134E-1,2.0775811E-3,-3.5385287E-3,-1.9706953E-3,-8.987884E-3,7.466074E-3,1.9520636E-3],"categories":[],"categories_nodes":[],"categories_segments":[],"categories_sizes":[],"default_left":[0,0,0,0,0,0,0,0,0,0,0,0,0],"id":83,"left_children":[1,3,5,7,9,-1,11,-1,-1,-1,-1,-1,-1],"loss_changes":[1.0502133E1,7.958925E0,7.675623E0,5.1707554E0,2.8289824E0,0E0,4.715126E0,0E0,0E0,0E0,0E0,0E0,0E0],"parents":[2147483647,0,0,1,1,2,2,3,3,4,4,6,6],"right_children":[2,4,6,8,10,-1,12,-1,-1,-1,-1,-1,-1],"split_conditions":[7.2727275E-1,7.9310346E-1,2.7263681E1,6.86E1,1.1678572E1,-4.5645083E-3,6.4E-1,2.0775811E-3,-3.5385287E-3,-1.9706953E-3,-8.987884E-3,7.466074E-3,1.9520636E-3],"split_indices":[3,4,9,7,6,0,4,0,0,0,0,0,0],"split_type":[0,0,0,0,0,0,0,0,0,0,0,0,0],"sum_hessian":[2.0467766E2,9.183511E1,1.12842545E2,6.407948E1,2.7755634E1,1.43162E1,9.8526344E1,3.4833614E1,2.924587E1,9.07551E0,1.8680124E1,1.8656797E1,7.9869545E1],"tree_param":{"num_deleted":"0","num_feature":"45","num_nodes":"13","size_leaf_vector":"1"}},{"base_weights":[2.8743692E-2,-8.238573E-1,3.780589E-1,-5.1813006E-1,-9.560572E-1,1.7099288E-1,1.0459236E0,-7.5948164E-3,-2.2062722E-3,-1.160941E-2,-5.762026E-3,2.8773441E-3,-5.917831E-3,1.1657783E-2,6.910755E-3],"categories":[],"categories_nodes":[],"categories_segments":[],"categories_sizes":[],"default_left":[0,0,0,0,0,0,0,0,0,0,0,0,0,0,0],"id":84,"left_children":[1,3,5,7,9,11,13,-1,-1,-1,-1,-1,-1,-1,-1],"loss_changes":[6.0644108E1,1.8969116E0,1.9788702E1,1.2721648E0,2.4548912E0,1.0091145E1,6.3936234E-1,0E0,0E0,0E0,0E0,0E0,0E0,0E0,0E0],"parents":[2147483647,0,0,1,1,2,2,3,3,4,4,5,5,6,6],"right_children":[2,4,6,8,10,12,14,-1,-1,-1,-1,-1,-1,-1,-1],"split_conditions":[3.3195898E-1,6.68E1,8.222396E-1,6.52E1,6.94E1,7.12E1,3.4749035E1,-7.5948164E-3,-2.2062722E-3,-1.160941E-2,-5.762026E-3,2.8773441E-3,-5.917831E-3,1.1657783E-2,6.910755E-3],"split_indices":[0,7,0,7,8,7,9,0,0,0,0,0,0,0,0],"split_type":[0,0,0,0,0,0,0,0,0,0,0,0,0,0,0],"sum_hessian":[2.0157648E2,5.8189735E1,1.4338673E2,1.9051128E1,3.9138607E1,1.104108E2,3.297594E1,9.660838E0,9.390289E0,2.4089218E1,1.5049389E1,9.6295685E1,1.4115108E1,2.2941763E1,1.0034179E1],"tree_param":{"num_deleted":"0","num_feature":"45","num_nodes":"15","size_leaf_vector":"1"}},{"base_weights":[-2.415225E-2,-3.415964E-1,8.566261E-1,-1.0044744E0,-1.0972313E-1,4.4297028E-1,1.1511534E0,-1.3153064E-2,-8.145408E-3,-2.5154462E-3,2.1471665E-3,7.302308E-3,-3.0212538E-4,9.533267E-3,1.3762424E-2],"categories":[],"categories_nodes":[],"categories_segments":[],"categories_sizes":[],"default_left":[0,0,0,0,0,0,0,0,0,0,0,0,0,0,0],"id":85,"left_children":[1,3,5,7,9,11,13,-1,-1,-1,-1,-1,-1,-1,-1],"loss_changes":[5.7627003E1,2.3168005E1,6.1435547E0,1.2384682E0,5.268318E0,3.3302422E0,8.056259E-2,0E0,0E0,0E0,0E0,0E0,0E0,0E0,0E0],"parents":[2147483647,0,0,1,1,2,2,3,3,4,4,5,5,6,6],"right_children":[2,4,6,8,10,12,14,-1,-1,-1,-1,-1,-1,-1,-1],"split_conditions":[6.911312E-1,2.0990507E-1,8.179418E-1,5.667113E-2,3.71E-1,6.89E1,7.1428573E-1,-1.3153064E-2,-8.145408E-3,-2.5154462E-3,2.1471665E-3,7.302308E-3,-3.0212538E-4,9.533267E-3,1.3762424E-2],"split_indices":[0,0,0,0,12,7,4,0,0,0,0,0,0,0,0],"split_type":[0,0,0,0,0,0,0,0,0,0,0,0,0,0,0],"sum_hessian":[2.0406013E2,1.5044862E2,5.3611504E1,3.812502E1,1.123236E2,2.3337961E1,3.0273544E1,1.2213003E1,2.5912018E1,7.831476E1,3.4008842E1,1.41839285E1,9.154032E0,1.889894E1,1.1374605E1],"tree_param":{"num_deleted":"0","num_feature":"45","num_nodes":"15","size_leaf_vector":"1"}},{"base_weights":[8.194469E-2,-3.2066745E-1,7.985232E-1,-1.0096122E0,-6.2291045E-2,4.90116E-1,1.1163297E0,-6.9180746E-3,-1.1458544E-2,-3.7219462E-3,2.0548226E-3,7.0549124E-3,1.495724E-3,8.971983E-3,1.3919066E-2],"categories":[],"categories_nodes":[],"categories_segments":[],"categories_sizes":[],"default_left":[0,0,0,0,0,0,0,0,0,0,0,0,0,0,0],"id":86,"left_children":[1,3,5,7,9,11,13,-1,-1,-1,-1,-1,-1,-1,-1],"loss_changes":[5.9636143E1,2.3521904E1,6.7380066E0,7.6911163E-1,8.160977E0,2.7919073E0,9.1446686E-1,0E0,0E0,0E0,0E0,0E0,0E0,0E0,0E0],"parents":[2147483647,0,0,1,1,2,2,3,3,4,4,5,5,6,6],"right_children":[2,4,6,8,10,12,14,-1,-1,-1,-1,-1,-1,-1,-1],"split_conditions":[6.0294586E-1,2.057562E-1,8.222396E-1,1.2029411E1,3.38E-1,3.2162663E1,9.3311256E-1,-6.9180746E-3,-1.1458544E-2,-3.7219462E-3,2.0548226E-3,7.0549124E-3,1.495724E-3,8.971983E-3,1.3919066E-2],"split_indices":[0,0,0,6,12,9,0,0,0,0,0,0,0,0,0],"split_type":[0,0,0,0,0,0,0,0,0,0,0,0,0,0,0],"sum_hessian":[2.0482123E2,1.3149359E2,7.332764E1,3.5071114E1,9.6422485E1,3.85043E1,3.4823334E1,1.2347221E1,2.2723892E1,4.4514416E1,5.190807E1,2.2930405E1,1.5573894E1,2.1768959E1,1.3054377E1],"tree_param":{"num_deleted":"0","num_feature":"45","num_nodes":"15","size_leaf_vector":"1"}},{"base_weights":[-5.268115E-3,-9.991315E-1,3.0170766E-1,-6.4201145E-3,-1.159782E0,5.050877E-2,9.376528E-1,-8.251784E-3,-1.3463009E-2,2.0525032E-3,-6.1962456E-3,1.0735009E-2,4.3000905E-3],"categories":[],"categories_nodes":[],"categories_segments":[],"categories_sizes":[],"default_left":[0,0,0,0,0,0,0,0,0,0,0,0,0],"id":87,"left_children":[1,3,5,-1,7,9,11,-1,-1,-1,-1,-1,-1],"loss_changes":[6.192456E1,2.0032883E0,2.4727406E1,0E0,8.734093E-1,1.1765096E1,2.5628166E0,0E0,0E0,0E0,0E0,0E0,0E0],"parents":[2147483647,0,0,1,1,2,2,4,4,5,5,6,6],"right_children":[2,4,6,-1,8,10,12,-1,-1,-1,-1,-1,-1],"split_conditions":[2.620849E-1,6.551724E-1,7.5585103E-1,-6.4201145E-3,2.8842676E1,7.04E1,3.2928066E1,-8.251784E-3,-1.3463009E-2,2.0525032E-3,-6.1962456E-3,1.0735009E-2,4.3000905E-3],"split_indices":[0,3,0,0,9,7,10,0,0,0,0,0,0],"split_type":[0,0,0,0,0,0,0,0,0,0,0,0,0],"sum_hessian":[2.0098209E2,4.6896244E1,1.5408585E2,1.6100895E1,3.079535E1,1.11229515E2,4.2856323E1,1.2963575E1,1.7831774E1,9.092711E1,2.0302406E1,3.2929543E1,9.926784E0],"tree_param":{"num_deleted":"0","num_feature":"45","num_nodes":"13","size_leaf_vector":"1"}},{"base_weights":[4.7504525E-3,-6.468918E-1,5.2890664E-1,-9.8687154E-1,-2.71734E-1,1.14832565E-1,9.503773E-1,-1.1236635E-2,-7.0371795E-3,-6.2755607E-3,1.4387313E-3,-2.003205E-4,6.9584483E-3,6.20552E-3,1.1133158E-2],"categories":[],"categories_nodes":[],"categories_segments":[],"categories_sizes":[],"default_left":[0,0,0,0,0,0,0,0,0,0,0,0,0,0,0],"id":88,"left_children":[1,3,5,7,9,11,13,-1,-1,-1,-1,-1,-1,-1,-1],"loss_changes":[6.618907E1,1.0750462E1,1.863295E1,9.499092E-1,6.3678756E0,4.34783E0,2.1618958E0,0E0,0E0,0E0,0E0,0E0,0E0,0E0,0E0],"parents":[2147483647,0,0,1,1,2,2,3,3,4,4,5,5,6,6],"right_children":[2,4,6,8,10,12,14,-1,-1,-1,-1,-1,-1,-1,-1],