{"learner":{"attributes":{"scikit_learn":"{\"_estimator_type\": \"classifier\"}"},"feature_names":["reg_season_pred","Defensive_Rebound_Rate_1","Defensive_Rebound_Rate_2","Win_Percentage_1","Win_Percentage_2","offensiveRating_1","offensiveRating_2","Free_Throw_Percentage_1","Free_Throw_Percentage_2","Opp_Free_Throws_Per_Game_1","Opp_Free_Throws_Per_Game_2","T1_Seed_1","T1_Seed_2","T1_Seed_3","T1_Seed_4","T1_Seed_5","T1_Seed_6","T1_Seed_7","T1_Seed_8","T1_Seed_9","T1_Seed_10","T1_Seed_11","T1_Seed_12","T1_Seed_13","T1_Seed_14","T1_Seed_15","T1_Seed_16","T2_Seed_1","T2_Seed_2","T2_Seed_3","T2_Seed_4","T2_Seed_5","T2_Seed_6","T2_Seed_7","T2_Seed_8","T2_Seed_9","T2_Seed_10","T2_Seed_11","T2_Seed_12","T2_Seed_13","T2_Seed_14","T2_Seed_15","T2_Seed_16"],"feature_types":["float","float","float","float","float","float","float","float","float","float","float","int","int","int","int","int","int","int","int","int","int","int","int","int","int","int","int","int","int","int","int","int","int","int","int","int","int","int","int","int","int","int","int"],"gradient_booster":{"model":{"gbtree_model_param":{"num_parallel_tree":"1","num_trees":"500"},"iteration_indptr":[0,1,2,3,4,5,6,7,8,9,10,11,12,13,14,15,16,17,18,19,20,21,22,23,24,25,26,27,28,29,30,31,32,33,34,35,36,37,38,39,40,41,42,43,44,45,46,47,48,49,50,51,52,53,54,55,56,57,58,59,60,61,62,63,64,65,66,67,68,69,70,71,72,73,74,75,76,77,78,79,80,81,82,83,84,85,86,87,88,89,90,91,92,93,94,95,96,97,98,99,100,101,102,103,104,105,106,107,108,109,110,111,112,113,114,115,116,117,118,119,120,121,122,123,124,125,126,127,128,129,130,131,132,133,134,135,136,137,138,139,140,141,142,143,144,145,146,147,148,149,150,151,152,153,154,155,156,157,158,159,160,161,162,163,164,165,166,167,168,169,170,171,172,173,174,175,176,177,178,179,180,181,182,183,184,185,186,187,188,189,190,191,192,193,194,195,196,197,198,199,200,201,202,203,204,205,206,207,208,209,210,211,212,213,214,215,216,217,218,219,220,221,222,223,224,225,226,227,228,229,230,231,232,233,234,235,236,237,238,239,240,241,242,243,244,245,246,247,248,249,250,251,252,253,254,255,256,257,258,259,260,261,262,263,264,265,266,267,268,269,270,271,272,273,274,275,276,277,278,279,280,281,282,283,284,285,286,287,288,289,290,291,292,293,294,295,296,297,298,299,300,301,302,303,304,305,306,307,308,309,310,311,312,313,314,315,316,317,318,319,320,321,322,323,324,325,326,327,328,329,330,331,332,333,334,335,336,337,338,339,340,341,342,343,344,345,346,347,348,349,350,351,352,353,354,355,356,357,358,359,360,361,362,363,364,365,366,367,368,369,370,371,372,373,374,375,376,377,378,379,380,381,382,383,384,385,386,387,388,389,390,391,392,393,394,395,396,397,398,399,400,401,402,403,404,405,406,407,408,409,410,411,412,413,414,415,416,417,418,419,420,421,422,423,424,425,426,427,428,429,430,431,432,433,434,435,436,437,438,439,440,441,442,443,444,445,446,447,448,449,450,451,452,453,454,455,456,457,458,459,460,461,462,463,464,465,466,467,468,469,470,471,472,473,474,475,476,477,478,479,480,481,482,483,484,485,486,487,488,489,490,491,492,493,494,495,496,497,498,499,500],"tree_info":[0,0,0,0,0,0,0,0,0,0,0,0,0,0,0,0,0,0,0,0,0,0,0,0,0,0,0,0,0,0,0,0,0,0,0,0,0,0,0,0,0,0,0,0,0,0,0,0,0,0,0,0,0,0,0,0,0,0,0,0,0,0,0,0,0,0,0,0,0,0,0,0,0,0,0,0,0,0,0,0,0,0,0,0,0,0,0,0,0,0,0,0,0,0,0,0,0,0,0,0,0,0,0,0,0,0,0,0,0,0,0,0,0,0,0,0,0,0,0,0,0,0,0,0,0,0,0,0,0,0,0,0,0,0,0,0,0,0,0,0,0,0,0,0,0,0,0,0,0,0,0,0,0,0,0,0,0,0,0,0,0,0,0,0,0,0,0,0,0,0,0,0,0,0,0,0,0,0,0,0,0,0,0,0,0,0,0,0,0,0,0,0,0,0,0,0,0,0,0,0,0,0,0,0,0,0,0,0,0,0,0,0,0,0,0,0,0,0,0,0,0,0,0,0,0,0,0,0,0,0,0,0,0,0,0,0,0,0,0,0,0,0,0,0,0,0,0,0,0,0,0,0,0,0,0,0,0,0,0,0,0,0,0,0,0,0,0,0,0,0,0,0,0,0,0,0,0,0,0,0,0,0,0,0,0,0,0,0,0,0,0,0,0,0,0,0,0,0,0,0,0,0,0,0,0,0,0,0,0,0,0,0,0,0,0,0,0,0,0,0,0,0,0,0,0,0,0,0,0,0,0,0,0,0,0,0,0,0,0,0,0,0,0,0,0,0,0,0,0,0,0,0,0,0,0,0,0,0,0,0,0,0,0,0,0,0,0,0,0,0,0,0,0,0,0,0,0,0,0,0,0,0,0,0,0,0,0,0,0,0,0,0,0,0,0,0,0,0,0,0,0,0,0,0,0,0,0,0,0,0,0,0,0,0,0,0,0,0,0,0,0,0,0,0,0,0,0,0,0,0,0,0,0,0,0,0,0,0,0,0,0,0,0,0,0,0,0,0,0,0,0,0,0,0,0,0,0,0,0,0,0,0,0,0,0,0,0,0,0,0,0,0,0,0,0,0,0,0,0,0,0,0,0,0,0,0,0,0,0,0,0,0,0,0,0,0,0,0,0,0],"trees":[{"base_weights":[2.575107E-8,-5.2753294E-1,1.3069204E0,-1.3688741E0,-1.0847664E-1,8.5162157E-1,1.5803843E0,-1.4890226E-2,-8.11356E-3,-5.223624E-5,-7.3619494E-3,1.10880835E-2,4.1855187E-3,1.6703147E-2,1.03036435E-2],"categories":[],"categories_nodes":[],"categories_segments":[],"categories_sizes":[],"default_left":[0,0,0,0,0,0,0,0,0,0,0,0,0,0,0],"id":0,"left_children":[1,3,5,7,9,11,13,-1,-1,-1,-1,-1,-1,-1,-1],"loss_changes":[1.8580441E2,6.7544586E1,8.303421E0,3.0621567E0,8.37331E0,3.0165138E0,6.1611176E-1,0E0,0E0,0E0,0E0,0E0,0E0,0E0,0E0],"parents":[2147483647,0,0,1,1,2,2,3,3,4,4,5,5,6,6],"right_children":[2,4,6,8,10,12,14,-1,-1,-1,-1,-1,-1,-1,-1],"split_conditions":[6.905533E-1,2.617779E-1,8.222396E-1,2.0990507E-1,7.594142E1,7.343896E1,1E0,-1.4890226E-2,-8.11356E-3,-5.223624E-5,-7.3619494E-3,1.10880835E-2,4.1855187E-3,1.6703147E-2,1.03036435E-2],"split_indices":[0,0,0,0,8,2,13,0,0,0,0,0,0,0,0],"split_type":[0,0,0,0,0,0,0,0,0,0,0,0,0,0,0],"sum_hessian":[2.6749908E2,1.9099934E2,7.649973E1,6.2749783E1,1.2824956E2,3.0249895E1,4.624984E1,5.0249825E1,1.2499957E1,1.1099962E2,1.724994E1,1.7999937E1,1.2249958E1,3.799987E1,8.249971E0],"tree_param":{"num_deleted":"0","num_feature":"43","num_nodes":"15","size_leaf_vector":"1"}},{"base_weights":[4.4126788E-5,-5.2242994E-1,1.2944245E0,-1.3556439E0,-1.07449606E-1,8.435979E-1,1.5652025E0,-1.4745437E-2,-8.038671E-3,-5.1718176E-5,-7.292552E-3,1.0983143E-2,4.1468106E-3,1.6541021E-2,1.0211813E-2],"categories":[],"categories_nodes":[],"categories_segments":[],"categories_sizes":[],"default_left":[0,0,0,0,0,0,0,0,0,0,0,0,0,0,0],"id":1,"left_children":[1,3,5,7,9,11,13,-1,-1,-1,-1,-1,-1,-1,-1],"loss_changes":[1.822523E2,6.623969E1,8.140091E0,2.9967422E0,8.216069E0,2.9586544E0,5.9594727E-1,0E0,0E0,0E0,0E0,0E0,0E0,0E0,0E0],"parents":[2147483647,0,0,1,1,2,2,3,3,4,4,5,5,6,6],"right_children":[2,4,6,8,10,12,14,-1,-1,-1,-1,-1,-1,-1,-1],"split_conditions":[6.905533E-1,2.617779E-1,8.222396E-1,2.0990507E-1,7.594142E1,7.343896E1,1E0,-1.4745437E-2,-8.038671E-3,-5.1718176E-5,-7.292552E-3,1.0983143E-2,4.1468106E-3,1.6541021E-2,1.0211813E-2],"split_indices":[0,0,0,0,8,2,13,0,0,0,0,0,0,0,0],"split_type":[0,0,0,0,0,0,0,0,0,0,0,0,0,0,0],"sum_hessian":[2.6749234E2,1.9099428E2,7.649807E1,6.274521E1,1.2824907E2,3.0249756E1,4.6248314E1,5.0245644E1,1.2499562E1,1.109996E2,1.7249468E1,1.7999756E1,1.2249999E1,3.79984E1,8.249911E0],"tree_param":{"num_deleted":"0","num_feature":"43","num_nodes":"15","size_leaf_vector":"1"}},{"base_weights":[8.731588E-5,-5.1739377E-1,1.2821622E0,-1.3426658E0,-1.0643293E-1,8.356819E-1,1.5503529E0,-1.4603619E-2,-7.964713E-3,-5.1207793E-5,-7.223992E-3,1.0879824E-2,4.10849E-3,1.6382668E-2,1.0121275E-2],"categories":[],"categories_nodes":[],"categories_segments":[],"categories_sizes":[],"default_left":[0,0,0,0,0,0,0,0,0,0,0,0,0,0,0],"id":2,"left_children":[1,3,5,7,9,11,13,-1,-1,-1,-1,-1,-1,-1,-1],"loss_changes":[1.7878131E2,6.496895E1,7.983139E0,2.9340591E0,8.062015E0,2.902382E0,5.772095E-1,0E0,0E0,0E0,0E0,0E0,0E0,0E0,0E0],"parents":[2147483647,0,0,1,1,2,2,3,3,4,4,5,5,6,6],"right_children":[2,4,6,8,10,12,14,-1,-1,-1,-1,-1,-1,-1,-1],"split_conditions":[6.905533E-1,2.617779E-1,8.222396E-1,2.0990507E-1,7.594142E1,7.343896E1,1E0,-1.4603619E-2,-7.964713E-3,-5.1207793E-5,-7.223992E-3,1.0879824E-2,4.10849E-3,1.6382668E-2,1.0121275E-2],"split_indices":[0,0,0,0,8,2,13,0,0,0,0,0,0,0,0],"split_type":[0,0,0,0,0,0,0,0,0,0,0,0,0,0,0],"sum_hessian":[2.6747247E2,1.9098291E2,7.648957E1,6.2734776E1,1.2824814E2,3.0248423E1,4.624115E1,5.023601E1,1.2498764E1,1.1099959E2,1.724854E1,1.7998487E1,1.2249935E1,3.799173E1,8.249419E0],"tree_param":{"num_deleted":"0","num_feature":"43","num_nodes":"15","size_leaf_vector":"1"}},{"base_weights":[1.2981625E-4,-5.1242244E-1,1.2701253E0,-1.3299308E0,-1.0542604E-1,8.278711E-1,1.5358232E0,-1.4464663E-2,-7.891662E-3,-3.799309E-3,1.1812139E-3,1.0778075E-2,4.070557E-3,1.6227946E-2,1.0031998E-2],"categories":[],"categories_nodes":[],"categories_segments":[],"categories_sizes":[],"default_left":[0,0,0,0,0,0,0,0,0,0,0,0,0,0,0],"id":3,"left_children":[1,3,5,7,9,11,13,-1,-1,-1,-1,-1,-1,-1,-1],"loss_changes":[1.7538882E2,6.37311E1,7.832245E0,2.8739395E0,7.9760866E0,2.8476276E0,5.5978394E-1,0E0,0E0,0E0,0E0,0E0,0E0,0E0,0E0],"parents":[2147483647,0,0,1,1,2,2,3,3,4,4,5,5,6,6],"right_children":[2,4,6,8,10,12,14,-1,-1,-1,-1,-1,-1,-1,-1],"split_conditions":[6.905533E-1,2.617779E-1,8.222396E-1,2.0990507E-1,4.7147927E-1,7.343896E1,1E0,-1.4464663E-2,-7.891662E-3,-3.799309E-3,1.1812139E-3,1.0778075E-2,4.070557E-3,1.6227946E-2,1.0031998E-2],"split_indices":[0,0,0,0,0,2,13,0,0,0,0,0,0,0,0],"split_type":[0,0,0,0,0,0,0,0,0,0,0,0,0,0,0],"sum_hessian":[2.6743985E2,1.9096542E2,7.647444E1,6.271867E1,1.2824675E2,3.0245928E1,4.622851E1,5.0221092E1,1.2497576E1,5.72487E1,7.099805E1,1.799616E1,1.2249768E1,3.7980003E1,8.248508E0],"tree_param":{"num_deleted":"0","num_feature":"43","num_nodes":"15","size_leaf_vector":"1"}},{"base_weights":[1.8877441E-4,-5.074878E-1,1.2583071E0,-1.3174313E0,-1.04392424E-1,8.2016337E-1,1.5216023E0,-1.4328473E-2,-7.8195045E-3,-3.9948703E-5,-7.1490714E-3,1.0677866E-2,4.033007E-3,1.6487448E-2,1.12066865E-2],"categories":[],"categories_nodes":[],"categories_segments":[],"categories_sizes":[],"default_left":[0,0,0,0,0,0,0,0,0,0,0,0,0,0,0],"id":4,"left_children":[1,3,5,7,9,11,13,-1,-1,-1,-1,-1,-1,-1,-1],"loss_changes":[1.7206772E2,6.252894E1,7.6870956E0,2.816269E0,7.9191804E0,2.794342E0,5.588989E-1,0E0,0E0,0E0,0E0,0E0,0E0,0E0,0E0],"parents":[2147483647,0,0,1,1,2,2,3,3,4,4,5,5,6,6],"right_children":[2,4,6,8,10,12,14,-1,-1,-1,-1,-1,-1,-1,-1],"split_conditions":[6.905533E-1,2.617779E-1,8.222396E-1,2.0990507E-1,7.594142E1,7.343896E1,2.0428572E1,-1.4328473E-2,-7.8195045E-3,-3.9948703E-5,-7.1490714E-3,1.0677866E-2,4.033007E-3,1.6487448E-2,1.12066865E-2],"split_indices":[0,0,0,0,8,2,10,0,0,0,0,0,0,0,0],"split_type":[0,0,0,0,0,0,0,0,0,0,0,0,0,0,0],"sum_hessian":[2.6739603E2,1.9094318E2,7.6452866E1,6.269706E1,1.2824611E2,3.0242306E1,4.6210556E1,5.020105E1,1.2496007E1,1.1099914E2,1.7246973E1,1.7992805E1,1.22495E1,3.2721703E1,1.3488855E1],"tree_param":{"num_deleted":"0","num_feature":"43","num_nodes":"15","size_leaf_vector":"1"}},{"base_weights":[2.3561621E-4,-5.026422E-1,1.2467133E0,-1.3051599E0,-1.0340568E-1,8.125561E-1,1.5076972E0,-1.4194958E-2,-7.7482215E-3,-3.7534498E-3,1.18034E-3,1.05791455E-2,3.995831E-3,1.5938478E-2,9.816886E-3],"categories":[],"categories_nodes":[],"categories_segments":[],"categories_sizes":[],"default_left":[0,0,0,0,0,0,0,0,0,0,0,0,0,0,0],"id":5,"left_children":[1,3,5,7,9,11,13,-1,-1,-1,-1,-1,-1,-1,-1],"loss_changes":[1.6882909E2,6.1353333E1,7.5478516E0,2.760872E0,7.8271537E0,2.742466E0,5.737076E-1,0E0,0E0,0E0,0E0,0E0,0E0,0E0,0E0],"parents":[2147483647,0,0,1,1,2,2,3,3,4,4,5,5,6,6],"right_children":[2,4,6,8,10,12,14,-1,-1,-1,-1,-1,-1,-1,-1],"split_conditions":[6.905533E-1,2.617779E-1,8.222396E-1,2.0990507E-1,4.7147927E-1,7.343896E1,1E0,-1.4194958E-2,-7.7482215E-3,-3.7534498E-3,1.18034E-3,1.05791455E-2,3.995831E-3,1.5938478E-2,9.816886E-3],"split_indices":[0,0,0,0,0,2,13,0,0,0,0,0,0,0,0],"split_type":[0,0,0,0,0,0,0,0,0,0,0,0,0,0,0],"sum_hessian":[2.6733994E2,1.9091437E2,7.6425575E1,6.2670105E1,1.2824425E2,3.0237587E1,4.6187984E1,5.0176037E1,1.2494071E1,5.7246986E1,7.099727E1,1.7988453E1,1.2249135E1,3.7943466E1,8.244519E0],"tree_param":{"num_deleted":"0","num_feature":"43","num_nodes":"15","size_leaf_vector":"1"}},{"base_weights":[2.9235144E-4,-4.9783093E-1,1.2353089E0,-1.2931088E0,-1.0239246E-1,5.1033753E-3,1.3803939E0,-1.40640205E-2,-7.6777944E-3,-2.9005634E-5,-7.075244E-3,1.1932245E-2,1.7609876E-2],"categories":[],"categories_nodes":[],"categories_segments":[],"categories_sizes":[],"default_left":[0,0,0,0,0,0,0,0,0,0,0,0,0],"id":6,"left_children":[1,3,5,7,9,-1,11,-1,-1,-1,-1,-1,-1],"loss_changes":[1.656539E2,6.0211037E1,7.4357986E0,2.7076797E0,7.7791233E0,0E0,2.4506836E0,0E0,0E0,0E0,0E0,0E0,0E0],"parents":[2147483647,0,0,1,1,2,2,3,3,4,4,6,6],"right_children":[2,4,6,8,10,-1,12,-1,-1,-1,-1,-1,-1],"split_conditions":[6.905533E-1,2.617779E-1,7.502659E-1,2.0990507E-1,7.594142E1,5.1033753E-3,9.444227E-1,-1.40640205E-2,-7.6777944E-3,-2.9005634E-5,-7.075244E-3,1.1932245E-2,1.7609876E-2],"split_indices":[0,0,0,0,8,0,0,0,0,0,0,0,0],"split_type":[0,0,0,0,0,0,0,0,0,0,0,0,0],"sum_hessian":[2.672729E2,1.908811E2,7.63918E1,6.263797E1,1.2824313E2,1.3491907E1,6.289989E1,5.0146194E1,1.2491775E1,1.109983E2,1.7244833E1,4.4936226E1,1.7963663E1],"tree_param":{"num_deleted":"0","num_feature":"43","num_nodes":"13","size_leaf_vector":"1"}},{"base_weights":[3.111131E-4,-4.931058E-1,1.224003E0,-1.2812717E0,-1.01425365E-1,7.9661906E-1,1.4811928E0,-1.3935584E-2,-7.608206E-3,-3.7082678E-3,1.1792746E-3,1.0400513E-2,3.8774733E-3,1.6071327E-2,1.0858271E-2],"categories":[],"categories_nodes":[],"categories_segments":[],"categories_sizes":[],"default_left":[0,0,0,0,0,0,0,0,0,0,0,0,0,0,0],"id":7,"left_children":[1,3,5,7,9,11,13,-1,-1,-1,-1,-1,-1,-1,-1],"loss_changes":[1.6253752E2,5.909331E1,7.3227234E0,2.6565704E0,7.681082E0,2.7046375E0,6.0160065E-1,0E0,0E0,0E0,0E0,0E0,0E0,0E0,0E0],"parents":[2147483647,0,0,1,1,2,2,3,3,4,4,5,5,6,6],"right_children":[2,4,6,8,10,12,14,-1,-1,-1,-1,-1,-1,-1,-1],"split_conditions":[6.905533E-1,2.617779E-1,8.222396E-1,2.0990507E-1,4.7147927E-1,7.343896E1,2.0428572E1,-1.3935584E-2,-7.608206E-3,-3.7082678E-3,1.1792746E-3,1.0400513E-2,3.8774733E-3,1.6071327E-2,1.0858271E-2],"split_indices":[0,0,0,0,0,2,10,0,0,0,0,0,0,0,0],"split_type":[0,0,0,0,0,0,0,0,0,0,0,0,0,0,0],"sum_hessian":[2.671957E2,1.9084161E2,7.63541E1,6.2600807E1,1.282408E2,3.0225094E1,4.6129005E1,5.011168E1,1.248913E1,5.7244534E1,7.099627E1,1.7977825E1,1.224727E1,3.2660416E1,1.3468593E1],"tree_param":{"num_deleted":"0","num_feature":"43","num_nodes":"15","size_leaf_vector":"1"}},{"base_weights":[3.720928E-4,-4.884128E-1,1.2129979E0,-1.2696412E0,-1.00432046E-1,4.9854964E-3,1.3561639E0,-1.3809557E-2,-7.539439E-3,-1.836965E-5,-7.0024817E-3,1.1712088E-2,1.7328376E-2],"categories":[],"categories_nodes":[],"categories_segments":[],"categories_sizes":[],"default_left":[0,0,0,0,0,0,0,0,0,0,0,0,0],"id":8,"left_children":[1,3,5,7,9,-1,11,-1,-1,-1,-1,-1,-1],"loss_changes":[1.5950333E2,5.800676E1,7.231468E0,2.607399E0,7.6417804E0,0E0,2.4168625E0,0E0,0E0,0E0,0E0,0E0,0E0],"parents":[2147483647,0,0,1,1,2,2,3,3,4,4,6,6],"right_children":[2,4,6,8,10,-1,12,-1,-1,-1,-1,-1,-1],"split_conditions":[6.905533E-1,2.617779E-1,7.502659E-1,2.0990507E-1,7.594142E1,4.9854964E-3,9.444227E-1,-1.3809557E-2,-7.539439E-3,-1.836965E-5,-7.0024817E-3,1.1712088E-2,1.7328376E-2],"split_indices":[0,0,0,0,8,0,0,0,0,0,0,0,0],"split_type":[0,0,0,0,0,0,0,0,0,0,0,0,0],"sum_hessian":[2.6710754E2,1.9079799E2,7.630957E1,6.2558773E1,1.2823921E2,1.348701E1,6.2822563E1,5.0072624E1,1.2486148E1,1.1099707E2,1.7242138E1,4.4889954E1,1.7932608E1],"tree_param":{"num_deleted":"0","num_feature":"43","num_nodes":"13","size_leaf_vector":"1"}},{"base_weights":[3.8965757E-4,-4.838031E-1,1.2020686E0,-1.258211E0,-9.948417E-2,7.8110206E-1,1.4557343E0,-1.3685865E-2,-7.471477E-3,-3.6637553E-3,1.1780296E-3,1.022689E-2,3.7620973E-3,1.5413359E-2,9.378478E-3],"categories":[],"categories_nodes":[],"categories_segments":[],"categories_sizes":[],"default_left":[0,0,0,0,0,0,0,0,0,0,0,0,0,0,0],"id":9,"left_children":[1,3,5,7,9,11,13,-1,-1,-1,-1,-1,-1,-1,-1],"loss_changes":[1.5652129E2,5.694294E1,7.1131973E0,2.5601044E0,7.5378475E0,2.6679554E0,6.403961E-1,0E0,0E0,0E0,0E0,0E0,0E0,0E0,0E0],"parents":[2147483647,0,0,1,1,2,2,3,3,4,4,5,5,6,6],"right_children":[2,4,6,8,10,12,14,-1,-1,-1,-1,-1,-1,-1,-1],"split_conditions":[6.905533E-1,2.617779E-1,8.222396E-1,2.0990507E-1,4.7147927E-1,7.343896E1,1E0,-1.3685865E-2,-7.471477E-3,-3.6637553E-3,1.1780296E-3,1.022689E-2,3.7620973E-3,1.5413359E-2,9.378478E-3],"split_indices":[0,0,0,0,0,2,13,0,0,0,0,0,0,0,0],"split_type":[0,0,0,0,0,0,0,0,0,0,0,0,0,0,0],"sum_hessian":[2.670094E2,1.9074847E2,7.626093E1,6.2512024E1,1.2823645E2,3.0208384E1,4.605255E1,5.0029182E1,1.2482839E1,5.7241375E1,7.099508E1,1.7963985E1,1.2244399E1,3.7824337E1,8.228214E0],"tree_param":{"num_deleted":"0","num_feature":"43","num_nodes":"15","size_leaf_vector":"1"}},{"base_weights":[4.4262884E-4,-4.792235E-1,1.191412E0,-1.2469748E0,-9.8510176E-2,4.870439E-3,1.3327804E0,-1.3564426E-2,-7.404307E-3,-8.031613E-6,-6.9307606E-3,1.1497574E-2,1.7062185E-2],"categories":[],"categories_nodes":[],"categories_segments":[],"categories_sizes":[],"default_left":[0,0,0,0,0,0,0,0,0,0,0,0,0],"id":10,"left_children":[1,3,5,7,9,-1,11,-1,-1,-1,-1,-1,-1],"loss_changes":[1.5361382E2,5.5908318E1,7.0386353E0,2.5145645E0,7.5070906E0,0E0,2.3936691E0,0E0,0E0,0E0,0E0,0E0,0E0],"parents":[2147483647,0,0,1,1,2,2,3,3,4,4,6,6],"right_children":[2,4,6,8,10,-1,12,-1,-1,-1,-1,-1,-1],"split_conditions":[6.905533E-1,2.617779E-1,7.502659E-1,2.0990507E-1,7.594142E1,4.870439E-3,9.444227E-1,-1.3564426E-2,-7.404307E-3,-8.031613E-6,-6.9307606E-3,1.1497574E-2,1.7062185E-2],"split_indices":[0,0,0,0,8,0,0,0,0,0,0,0,0],"split_type":[0,0,0,0,0,0,0,0,0,0,0,0,0],"sum_hessian":[2.6690042E2,1.9069508E2,7.6205345E1,6.2460697E1,1.2823439E2,1.3481069E1,6.2724274E1,4.998149E1,1.2479208E1,1.1099548E2,1.7238909E1,4.483123E1,1.7893042E1],"tree_param":{"num_deleted":"0","num_feature":"43","num_nodes":"13","size_leaf_vector":"1"}},{"base_weights":[4.5906033E-4,-4.7472483E-1,1.1808374E0,-1.2359271E0,-9.758132E-2,4.8258957E-3,1.3210791E0,-1.3445178E-2,-7.337911E-3,-3.6198935E-3,1.176605E-3,1.139306E-2,1.6922845E-2],"categories":[],"categories_nodes":[],"categories_segments":[],"categories_sizes":[],"default_left":[0,0,0,0,0,0,0,0,0,0,0,0,0],"id":11,"left_children":[1,3,5,7,9,-1,11,-1,-1,-1,-1,-1,-1],"loss_changes":[1.5075894E2,5.489478E1,6.9169083E0,2.4707031E0,7.3973546E0,0E0,2.3679504E0,0E0,0E0,0E0,0E0,0E0,0E0],"parents":[2147483647,0,0,1,1,2,2,3,3,4,4,6,6],"right_children":[2,4,6,8,10,-1,12,-1,-1,-1,-1,-1,-1],"split_conditions":[6.905533E-1,2.617779E-1,7.502659E-1,2.0990507E-1,4.7147927E-1,4.8258957E-3,9.444227E-1,-1.3445178E-2,-7.337911E-3,-3.6198935E-3,1.176605E-3,1.139306E-2,1.6922845E-2],"split_indices":[0,0,0,0,0,0,0,0,0,0,0,0,0],"split_type":[0,0,0,0,0,0,0,0,0,0,0,0,0],"sum_hessian":[2.6678256E2,1.9063614E2,7.614641E1,6.240494E1,1.282312E2,1.3478686E1,6.266772E1,4.9929672E1,1.2475271E1,5.7237522E1,7.0993675E1,4.47994E1,1.7868324E1],"tree_param":{"num_deleted":"0","num_feature":"43","num_nodes":"13","size_leaf_vector":"1"}},{"base_weights":[4.9190875E-4,-6.921847E-1,7.956174E-1,-1.3328046E0,-3.3699268E-1,2.595811E-1,1.3095837E0,-1.409388E-2,-7.620412E-3,-1.1790007E-3,-8.102782E-3,9.71164E-6,8.19262E-3,1.1290145E-2,1.678675E-2],"categories":[],"categories_nodes":[],"categories_segments":[],"categories_sizes":[],"default_left":[0,0,0,0,0,0,0,0,0,0,0,0,0,0,0],"id":12,"left_children":[1,3,5,7,9,11,13,-1,-1,-1,-1,-1,-1,-1,-1],"loss_changes":[1.4796623E2,3.2221054E1,3.4119614E1,1.1497269E0,9.620975E0,9.041296E0,2.343895E0,0E0,0E0,0E0,0E0,0E0,0E0,0E0,0E0],"parents":[2147483647,0,0,1,1,2,2,3,3,4,4,5,5,6,6],"right_children":[2,4,6,8,10,12,14,-1,-1,-1,-1,-1,-1,-1,-1],"split_conditions":[5.258538E-1,2.0990507E-1,7.502659E-1,7.680691E1,1.176E2,1.176E2,9.444227E-1,-1.409388E-2,-7.620412E-3,-1.1790007E-3,-8.102782E-3,9.71164E-6,8.19262E-3,1.1290145E-2,1.678675E-2],"split_indices":[0,0,0,2,6,5,0,0,0,0,0,0,0,0,0],"split_type":[0,0,0,0,0,0,0,0,0,0,0,0,0,0,0],"sum_hessian":[2.6665604E2,1.4257806E2,1.24077965E2,4.9873856E1,9.270421E1,6.1471695E1,6.260627E1,4.2678127E1,7.1957307E0,6.422321E1,2.8480997E1,4.2729534E1,1.8742159E1,4.4764973E1,1.7841295E1],"tree_param":{"num_deleted":"0","num_feature":"43","num_nodes":"15","size_leaf_vector":"1"}},{"base_weights":[5.0707866E-4,-4.6598944E-1,1.1605127E0,-1.2150565E0,-9.555509E-2,7.5109094E-1,1.4080727E0,-1.3214424E-2,-7.2345785E-3,1.182631E-5,-6.844648E-3,9.917844E-3,3.5004276E-3,1.5330451E-2,1.0199623E-2],"categories":[],"categories_nodes":[],"categories_segments":[],"categories_sizes":[],"default_left":[0,0,0,0,0,0,0,0,0,0,0,0,0,0,0],"id":13,"left_children":[1,3,5,7,9,11,13,-1,-1,-1,-1,-1,-1,-1,-1],"loss_changes":[1.4530788E2,5.302369E1,6.748352E0,2.353653E0,7.3627367E0,2.6610336E0,7.087784E-1,0E0,0E0,0E0,0E0,0E0,0E0,0E0,0E0],"parents":[2147483647,0,0,1,1,2,2,3,3,4,4,5,5,6,6],"right_children":[2,4,6,8,10,12,14,-1,-1,-1,-1,-1,-1,-1,-1],"split_conditions":[6.905533E-1,2.617779E-1,8.222396E-1,2.0990507E-1,7.594142E1,7.343896E1,2.0428572E1,-1.3214424E-2,-7.2345785E-3,1.182631E-5,-6.844648E-3,9.917844E-3,3.5004276E-3,1.5330451E-2,1.0199623E-2],"split_indices":[0,0,0,0,8,2,10,0,0,0,0,0,0,0,0],"split_type":[0,0,0,0,0,0,0,0,0,0,0,0,0,0,0],"sum_hessian":[2.6652316E2,1.9050845E2,7.6014725E1,6.2283306E1,1.2822514E2,3.0163485E1,4.5851242E1,4.9814903E1,1.2468403E1,1.109911E2,1.7234047E1,1.792976E1,1.2233725E1,3.2451706E1,1.3399536E1],"tree_param":{"num_deleted":"0","num_feature":"43","num_nodes":"15","size_leaf_vector":"1"}},{"base_weights":[5.461558E-4,-6.804669E-1,7.824409E-1,-1.3101299E0,-3.3212188E-1,2.5641546E-1,1.2877939E0,-1.3861841E-2,-7.45014E-3,-1.1538013E-3,-8.00464E-3,4.698176E-6,8.103905E-3,1.1089742E-2,1.6541384E-2],"categories":[],"categories_nodes":[],"categories_segments":[],"categories_sizes":[],"default_left":[0,0,0,0,0,0,0,0,0,0,0,0,0,0,0],"id":14,"left_children":[1,3,5,7,9,11,13,-1,-1,-1,-1,-1,-1,-1,-1],"loss_changes":[1.4290565E2,3.102758E1,3.288099E1,1.1485443E0,9.418161E0,8.856218E0,2.3235626E0,0E0,0E0,0E0,0E0,0E0,0E0,0E0,0E0],"parents":[2147483647,0,0,1,1,2,2,3,3,4,4,5,5,6,6],"right_children":[2,4,6,8,10,12,14,-1,-1,-1,-1,-1,-1,-1,-1],"split_conditions":[5.258538E-1,2.0990507E-1,7.502659E-1,7.680691E1,1.176E2,1.176E2,9.444227E-1,-1.3861841E-2,-7.45014E-3,-1.1538013E-3,-8.00464E-3,4.698176E-6,8.103905E-3,1.1089742E-2,1.6541384E-2],"split_indices":[0,0,0,2,6,5,0,0,0,0,0,0,0,0,0],"split_type":[0,0,0,0,0,0,0,0,0,0,0,0,0,0,0],"sum_hessian":[2.6637735E2,1.4244266E2,1.23934685E2,4.975154E1,9.269112E1,6.146389E1,6.24708E1,4.2569542E1,7.181998E0,6.421823E1,2.8472881E1,4.2725056E1,1.8738834E1,4.468591E1,1.7784885E1],"tree_param":{"num_deleted":"0","num_feature":"43","num_nodes":"15","size_leaf_vector":"1"}},{"base_weights":[5.608542E-4,-6.742236E-1,7.753865E-1,-1.1948447E0,-2.6117182E-1,2.5399077E-1,1.2768674E0,-1.2991544E-2,-7.1331095E-3,-7.1974494E-4,-7.096353E-3,4.652169E-6,8.027929E-3,1.0991356E-2,1.6413985E-2],"categories":[],"categories_nodes":[],"categories_segments":[],"categories_sizes":[],"default_left":[0,0,0,0,0,0,0,0,0,0,0,0,0,0,0],"id":15,"left_children":[1,3,5,7,9,11,13,-1,-1,-1,-1,-1,-1,-1,-1],"loss_changes":[1.4023956E2,3.0518547E1,3.2322144E1,2.245041E0,6.8405504E0,8.690236E0,2.3032227E0,0E0,0E0,0E0,0E0,0E0,0E0,0E0,0E0],"parents":[2147483647,0,0,1,1,2,2,3,3,4,4,5,5,6,6],"right_children":[2,4,6,8,10,12,14,-1,-1,-1,-1,-1,-1,-1,-1],"split_conditions":[5.258538E-1,2.617779E-1,7.502659E-1,2.0990507E-1,1.176E2,1.176E2,9.444227E-1,-1.2991544E-2,-7.1331095E-3,-7.1974494E-4,-7.096353E-3,4.652169E-6,8.027929E-3,1.0991356E-2,1.6413985E-2],"split_indices":[0,0,0,0,6,5,0,0,0,0,0,0,0,0,0],"split_type":[0,0,0,0,0,0,0,0,0,0,0,0,0,0,0],"sum_hessian":[2.6622647E2,1.4236911E2,1.2385737E2,6.214599E1,8.022312E1,6.1461544E1,6.239583E1,4.9685238E1,1.2460751E1,5.7236668E1,2.2986456E1,4.2725056E1,1.873649E1,4.46442E1,1.7751627E1],"tree_param":{"num_deleted":"0","num_feature":"43","num_nodes":"15","size_leaf_vector":"1"}},{"base_weights":[5.838919E-4,-6.6805136E-1,7.684267E-1,-1.1846399E0,-2.5866994E-1,2.515914E-1,1.2661228E0,-1.5687447E-2,-1.0259202E-2,-7.126766E-4,-7.0294538E-3,4.606026E-6,7.9529025E-3,1.0894402E-2,1.628942E-2],"categories":[],"categories_nodes":[],"categories_segments":[],"categories_sizes":[],"default_left":[0,0,0,0,0,0,0,0,0,0,0,0,0,0,0],"id":16,"left_children":[1,3,5,7,9,11,13,-1,-1,-1,-1,-1,-1,-1,-1],"loss_changes":[1.3762607E2,2.9996643E1,3.1776985E1,2.2356796E0,6.712044E0,8.527705E0,2.284195E0,0E0,0E0,0E0,0E0,0E0,0E0,0E0,0E0],"parents":[2147483647,0,0,1,1,2,2,3,3,4,4,5,5,6,6],"right_children":[2,4,6,8,10,12,14,-1,-1,-1,-1,-1,-1,-1,-1],"split_conditions":[5.258538E-1,2.617779E-1,7.502659E-1,5.997209E-2,1.176E2,1.176E2,9.444227E-1,-1.5687447E-2,-1.0259202E-2,-7.126766E-4,-7.0294538E-3,4.606026E-6,7.9529025E-3,1.0894402E-2,1.628942E-2],"split_indices":[0,0,0,0,6,5,0,0,0,0,0,0,0,0,0],"split_type":[0,0,0,0,0,0,0,0,0,0,0,0,0,0,0],"sum_hessian":[2.6606448E2,1.4228932E2,1.23775154E2,6.2070423E1,8.021889E1,6.145862E1,6.231654E1,1.5551578E1,4.651885E1,5.723619E1,2.2982698E1,4.272505E1,1.8733562E1,4.4600216E1,1.7716322E1],"tree_param":{"num_deleted":"0","num_feature":"43","num_nodes":"15","size_leaf_vector":"1"}},{"base_weights":[5.840917E-4,-4.493086E-1,1.1221182E0,-1.1746352E0,-9.219771E-2,7.240555E-1,1.3637934E0,-1.2782314E-2,-6.978959E-3,3.364154E-5,-6.7425E-3,9.643848E-3,3.2586982E-3,1.4496745E-2,8.549083E-3],"categories":[],"categories_nodes":[],"categories_segments":[],"categories_sizes":[],"default_left":[0,0,0,0,0,0,0,0,0,0,0,0,0,0,0],"id":17,"left_children":[1,3,5,7,9,11,13,-1,-1,-1,-1,-1,-1,-1,-1],"loss_changes":[1.3517206E2,4.9416492E1,6.390953E0,2.219101E0,7.1889157E0,2.6624317E0,7.96875E-1,0E0,0E0,0E0,0E0,0E0,0E0,0E0,0E0],"parents":[2147483647,0,0,1,1,2,2,3,3,4,4,5,5,6,6],"right_children":[2,4,6,8,10,12,14,-1,-1,-1,-1,-1,-1,-1,-1],"split_conditions":[6.905533E-1,2.617779E-1,8.222396E-1,2.0990507E-1,7.594142E1,7.343896E1,1E0,-1.2782314E-2,-6.978959E-3,3.364154E-5,-6.7425E-3,9.643848E-3,3.2586982E-3,1.4496745E-2,8.549083E-3],"split_indices":[0,0,0,0,8,2,13,0,0,0,0,0,0,0,0],"split_type":[0,0,0,0,0,0,0,0,0,0,0,0,0,0,0],"sum_hessian":[2.6589633E2,1.9019914E2,7.569719E1,6.199403E1,1.2820511E2,3.010587E1,4.559132E1,4.9546333E1,1.2447697E1,1.10978745E2,1.7226368E1,1.7887642E1,1.2218227E1,3.742639E1,8.164928E0],"tree_param":{"num_deleted":"0","num_feature":"43","num_nodes":"15","size_leaf_vector":"1"}},{"base_weights":[6.144762E-4,-6.5692127E-1,7.559189E-1,-1.2676392E0,-3.207926E-1,2.4854162E-1,1.2457083E0,-1.343582E-2,-7.081873E-3,-1.0983635E-3,-7.7699455E-3,-1.216353E-7,7.867756E-3,1.0704044E-2,1.6066963E-2],"categories":[],"categories_nodes":[],"categories_segments":[],"categories_sizes":[],"default_left":[0,0,0,0,0,0,0,0,0,0,0,0,0,0,0],"id":18,"left_children":[1,3,5,7,9,11,13,-1,-1,-1,-1,-1,-1,-1,-1],"loss_changes":[1.3295949E2,2.897356E1,3.065342E1,1.1927567E0,8.927716E0,8.354347E0,2.2763138E0,0E0,0E0,0E0,0E0,0E0,0E0,0E0,0E0],"parents":[2147483647,0,0,1,1,2,2,3,3,4,4,5,5,6,6],"right_children":[2,4,6,8,10,12,14,-1,-1,-1,-1,-1,-1,-1,-1],"split_conditions":[5.258538E-1,2.0990507E-1,7.502659E-1,7.680691E1,1.176E2,1.176E2,9.444227E-1,-1.343582E-2,-7.081873E-3,-1.0983635E-3,-7.7699455E-3,-1.216353E-7,7.867756E-3,1.0704044E-2,1.6066963E-2],"split_indices":[0,0,0,2,6,5,0,0,0,0,0,0,0,0,0],"split_type":[0,0,0,0,0,0,0,0,0,0,0,0,0,0,0],"sum_hessian":[2.6571835E2,1.421227E2,1.2359567E2,4.946947E1,9.265321E1,6.1448284E1,6.214739E1,4.2322758E1,7.146713E0,6.420459E1,2.8448624E1,4.2720257E1,1.8728025E1,4.45016E1,1.764579E1],"tree_param":{"num_deleted":"0","num_feature":"43","num_nodes":"15","size_leaf_vector":"1"}},{"base_weights":[6.287146E-4,-6.50967E-1,7.4921566E-1,-1.2573551E0,-3.177134E-1,2.4619879E-1,1.2354681E0,-1.3327186E-2,-7.025055E-3,-1.0875702E-3,-7.6971524E-3,-1.198357E-7,7.7947066E-3,1.0611165E-2,1.5949959E-2],"categories":[],"categories_nodes":[],"categories_segments":[],"categories_sizes":[],"default_left":[0,0,0,0,0,0,0,0,0,0,0,0,0,0,0],"id":19,"left_children":[1,3,5,7,9,11,13,-1,-1,-1,-1,-1,-1,-1,-1],"loss_changes":[1.3049654E2,2.8504868E1,3.0147774E1,1.170845E0,8.760773E0,8.198759E0,2.2601624E0,0E0,0E0,0E0,0E0,0E0,0E0,0E0,0E0],"parents":[2147483647,0,0,1,1,2,2,3,3,4,4,5,5,6,6],"right_children":[2,4,6,8,10,12,14,-1,-1,-1,-1,-1,-1,-1,-1],"split_conditions":[5.258538E-1,2.0990507E-1,7.502659E-1,7.680691E1,1.176E2,1.176E2,9.444227E-1,-1.3327186E-2,-7.025055E-3,-1.0875702E-3,-7.6971524E-3,-1.198357E-7,7.7947066E-3,1.0611165E-2,1.5949959E-2],"split_indices":[0,0,0,2,6,5,0,0,0,0,0,0,0,0,0],"split_type":[0,0,0,0,0,0,0,0,0,0,0,0,0,0,0],"sum_hessian":[2.6553384E2,1.4203346E2,1.2350038E2,4.9390175E1,9.264329E1,6.1444157E1,6.205623E1,4.2249588E1,7.1405864E0,6.420329E1,2.8439991E1,4.2720257E1,1.8723896E1,4.4451206E1,1.760502E1],"tree_param":{"num_deleted":"0","num_feature":"43","num_nodes":"15","size_leaf_vector":"1"}},{"base_weights":[6.427253E-4,-6.45085E-1,7.425986E-1,-1.1466595E0,-2.4957018E-1,2.438801E-1,1.2253895E0,-1.5286216E-2,-9.895716E-3,-6.778825E-4,-6.8086036E-3,-1.1899046E-7,7.7225445E-3,1.0519571E-2,1.583545E-2],"categories":[],"categories_nodes":[],"categories_segments":[],"categories_sizes":[],"default_left":[0,0,0,0,0,0,0,0,0,0,0,0,0,0,0],"id":20,"left_children":[1,3,5,7,9,11,13,-1,-1,-1,-1,-1,-1,-1,-1],"loss_changes":[1.2808345E2,2.8070358E1,2.9653976E1,2.2519608E0,6.3198333E0,8.046355E0,2.2450714E0,0E0,0E0,0E0,0E0,0E0,0E0,0E0,0E0],"parents":[2147483647,0,0,1,1,2,2,3,3,4,4,5,5,6,6],"right_children":[2,4,6,8,10,12,14,-1,-1,-1,-1,-1,-1,-1,-1],"split_conditions":[5.258538E-1,2.617779E-1,7.502659E-1,5.997209E-2,1.176E2,1.176E2,9.444227E-1,-1.5286216E-2,-9.895716E-3,-6.778825E-4,-6.8086036E-3,-1.1899046E-7,7.7225445E-3,1.0519571E-2,1.583545E-2],"split_indices":[0,0,0,0,6,5,0,0,0,0,0,0,0,0,0],"split_type":[0,0,0,0,0,0,0,0,0,0,0,0,0,0,0],"sum_hessian":[2.6534113E2,1.4194034E2,1.2340078E2,6.1742302E1,8.019803E1,6.14395E1,6.1961285E1,1.5448362E1,4.6293938E1,5.7232586E1,2.296544E1,4.272026E1,1.8719238E1,4.4398834E1,1.7562449E1],"tree_param":{"num_deleted":"0","num_feature":"43","num_nodes":"15","size_leaf_vector":"1"}},{"base_weights":[6.4248435E-4,-4.3338597E-1,1.0859445E0,-1.1372174E0,-8.865275E-2,6.98267E-1,1.3224597E0,-1.5173712E-2,-9.8104365E-3,5.7616046E-5,-6.6405134E-3,9.383342E-3,3.0272917E-3,1.4082998E-2,8.184781E-3],"categories":[],"categories_nodes":[],"categories_segments":[],"categories_sizes":[],"default_left":[0,0,0,0,0,0,0,0,0,0,0,0,0,0,0],"id":21,"left_children":[1,3,5,7,9,11,13,-1,-1,-1,-1,-1,-1,-1,-1],"loss_changes":[1.2583722E2,4.6200443E1,6.073944E0,2.2311096E0,7.021336E0,2.6629047E0,8.4944916E-1,0E0,0E0,0E0,0E0,0E0,0E0,0E0,0E0],"parents":[2147483647,0,0,1,1,2,2,3,3,4,4,5,5,6,6],"right_children":[2,4,6,8,10,12,14,-1,-1,-1,-1,-1,-1,-1,-1],"split_conditions":[6.905533E-1,2.617779E-1,8.222396E-1,5.997209E-2,7.594142E1,7.343896E1,1E0,-1.5173712E-2,-9.8104365E-3,5.7616046E-5,-6.6405134E-3,9.383342E-3,3.0272917E-3,1.4082998E-2,8.184781E-3],"split_indices":[0,0,0,0,8,2,13,0,0,0,0,0,0,0,0],"split_type":[0,0,0,0,0,0,0,0,0,0,0,0,0,0,0],"sum_hessian":[2.6514172E2,1.8982755E2,7.5314186E1,6.165321E1,1.2817433E2,3.0035164E1,4.5279022E1,1.5414854E1,4.6238358E1,1.10957794E2,1.7216537E1,1.7836933E1,1.219823E1,3.71561E1,8.12292E0],"tree_param":{"num_deleted":"0","num_feature":"43","num_nodes":"15","size_leaf_vector":"1"}},{"base_weights":[6.4859836E-4,-6.3449705E-1,7.307079E-1,-1.2286235E0,-3.0943385E-1,2.4093816E-1,1.2062125E0,-1.3038795E-2,-6.7792884E-3,-1.0446856E-3,-7.531791E-3,-4.6031946E-6,7.6407115E-3,1.0339415E-2,1.563093E-2],"categories":[],"categories_nodes":[],"categories_segments":[],"categories_sizes":[],"default_left":[0,0,0,0,0,0,0,0,0,0,0,0,0,0,0],"id":22,"left_children":[1,3,5,7,9,11,13,-1,-1,-1,-1,-1,-1,-1,-1],"loss_changes":[1.2377799E2,2.7188793E1,2.8631668E1,1.1942444E0,8.434815E0,7.8838353E0,2.2425308E0,0E0,0E0,0E0,0E0,0E0,0E0,0E0,0E0],"parents":[2147483647,0,0,1,1,2,2,3,3,4,4,5,5,6,6],"right_children":[2,4,6,8,10,12,14,-1,-1,-1,-1,-1,-1,-1,-1],"split_conditions":[5.258538E-1,2.0990507E-1,7.502659E-1,7.680691E1,1.176E2,1.176E2,9.444227E-1,-1.3038795E-2,-6.7792884E-3,-1.0446856E-3,-7.531791E-3,-4.6031946E-6,7.6407115E-3,1.0339415E-2,1.563093E-2],"split_indices":[0,0,0,2,6,5,0,0,0,0,0,0,0,0,0],"split_type":[0,0,0,0,0,0,0,0,0,0,0,0,0,0,0],"sum_hessian":[2.6493912E2,1.4174928E2,1.2318983E2,4.9145367E1,9.260392E1,6.1426865E1,6.1762962E1,4.203351E1,7.1118603E0,6.419005E1,2.8413866E1,4.271517E1,1.8711695E1,4.4283768E1,1.7479193E1],"tree_param":{"num_deleted":"0","num_feature":"43","num_nodes":"15","size_leaf_vector":"1"}},{"base_weights":[6.625572E-4,-6.2880903E-1,7.243247E-1,-1.2189443E0,-3.0647248E-1,2.3867337E-1,1.1965828E0,-1.2936755E-2,-6.7254603E-3,-1.0344211E-3,-7.461857E-3,-4.559018E-6,7.5703994E-3,1.0251489E-2,1.5523077E-2],"categories":[],"categories_nodes":[],"categories_segments":[],"categories_sizes":[],"default_left":[0,0,0,0,0,0,0,0,0,0,0,0,0,0,0],"id":23,"left_children":[1,3,5,7,9,11,13,-1,-1,-1,-1,-1,-1,-1,-1],"loss_changes":[1.21499794E2,2.6760906E1,2.817221E1,1.1738358E0,8.278201E0,7.737858E0,2.2297287E0,0E0,0E0,0E0,0E0,0E0,0E0,0E0,0E0],"parents":[2147483647,0,0,1,1,2,2,3,3,4,4,5,5,6,6],"right_children":[2,4,6,8,10,12,14,-1,-1,-1,-1,-1,-1,-1,-1],"split_conditions":[5.258538E-1,2.0990507E-1,7.502659E-1,7.680691E1,1.176E2,1.176E2,9.444227E-1,-1.2936755E-2,-6.7254603E-3,-1.0344211E-3,-7.461857E-3,-4.559018E-6,7.5703994E-3,1.0251489E-2,1.5523077E-2],"split_indices":[0,0,0,2,6,5,0,0,0,0,0,0,0,0,0],"split_type":[0,0,0,0,0,0,0,0,0,0,0,0,0,0,0],"sum_hessian":[2.64725E2,1.4164626E2,1.2307876E2,4.9054836E1,9.259142E1,6.142112E1,6.165764E1,4.1949707E1,7.1051307E0,6.418863E1,2.8402794E1,4.271517E1,1.8705946E1,4.4225822E1,1.7431816E1],"tree_param":{"num_deleted":"0","num_feature":"43","num_nodes":"15","size_leaf_vector":"1"}},{"base_weights":[6.763114E-4,-4.218813E-1,1.0600766E0,-1.1108403E0,-8.589557E-2,6.797087E-1,1.29309E0,-1.4893669E-2,-9.559119E-3,7.473927E-5,-6.552239E-3,9.190177E-3,2.8696475E-3,1.4186402E-2,9.115126E-3],"categories":[],"categories_nodes":[],"categories_segments":[],"categories_sizes":[],"default_left":[0,0,0,0,0,0,0,0,0,0,0,0,0,0,0],"id":24,"left_children":[1,3,5,7,9,11,13,-1,-1,-1,-1,-1,-1,-1,-1],"loss_changes":[1.19302E2,4.4005013E1,5.8560333E0,2.2338715E0,6.8700366E0,2.6475344E0,9.11293E-1,0E0,0E0,0E0,0E0,0E0,0E0,0E0,0E0],"parents":[2147483647,0,0,1,1,2,2,3,3,4,4,5,5,6,6],"right_children":[2,4,6,8,10,12,14,-1,-1,-1,-1,-1,-1,-1,-1],"split_conditions":[6.905533E-1,2.617779E-1,8.222396E-1,5.997209E-2,7.594142E1,7.343896E1,2.0428572E1,-1.4893669E-2,-9.559119E-3,7.473927E-5,-6.552239E-3,9.190177E-3,2.8696475E-3,1.4186402E-2,9.115126E-3],"split_indices":[0,0,0,0,8,2,10,0,0,0,0,0,0,0,0],"split_type":[0,0,0,0,0,0,0,0,0,0,0,0,0,0,0],"sum_hessian":[2.6450372E2,1.8951472E2,7.4989E1,6.1368565E1,1.2814616E2,2.9975098E1,4.5013905E1,1.5321433E1,4.604713E1,1.10939095E2,1.720707E1,1.7793234E1,1.2181864E1,3.1824774E1,1.3189129E1],"tree_param":{"num_deleted":"0","num_feature":"43","num_nodes":"15","size_leaf_vector":"1"}},{"base_weights":[6.872157E-4,-6.1855567E-1,7.12868E-1,-1.2005773E0,-3.0171415E-1,2.358037E-1,1.1782587E0,-1.5772251E-2,-1.0476236E-2,-1.0089914E-3,-7.368978E-3,-8.876757E-6,7.4907313E-3,1.0079529E-2,1.532835E-2],"categories":[],"categories_nodes":[],"categories_segments":[],"categories_sizes":[],"default_left":[0,0,0,0,0,0,0,0,0,0,0,0,0,0,0],"id":25,"left_children":[1,3,5,7,9,11,13,-1,-1,-1,-1,-1,-1,-1,-1],"loss_changes":[1.1743434E2,2.5904179E1,2.7218925E1,1.2207642E0,8.102351E0,7.5822577E0,2.2255325E0,0E0,0E0,0E0,0E0,0E0,0E0,0E0,0E0],"parents":[2147483647,0,0,1,1,2,2,3,3,4,4,5,5,6,6],"right_children":[2,4,6,8,10,12,14,-1,-1,-1,-1,-1,-1,-1,-1],"split_conditions":[5.258538E-1,2.0990507E-1,7.502659E-1,1.63125E1,1.176E2,1.176E2,9.444227E-1,-1.5772251E-2,-1.0476236E-2,-1.0089914E-3,-7.368978E-3,-8.876757E-6,7.4907313E-3,1.0079529E-2,1.532835E-2],"split_indices":[0,0,0,9,6,5,0,0,0,0,0,0,0,0,0],"split_type":[0,0,0,0,0,0,0,0,0,0,0,0,0,0,0],"sum_hessian":[2.642834E2,1.4143594E2,1.22847435E2,4.8871788E1,9.256416E1,6.1406902E1,6.144053E1,1.1425275E1,3.744651E1,6.418015E1,2.8384008E1,4.270979E1,1.8697113E1,4.4101124E1,1.7339405E1],"tree_param":{"num_deleted":"0","num_feature":"43","num_nodes":"15","size_leaf_vector":"1"}},{"base_weights":[6.7480444E-4,-6.13093E-1,7.067038E-1,-1.1914105E0,-2.9883212E-1,2.3359123E-1,1.1690414E0,-1.566596E-2,-1.0392061E-2,-9.990782E-4,-7.300954E-3,-8.790602E-6,7.4221897E-3,9.994984E-3,1.5226607E-2],"categories":[],"categories_nodes":[],"categories_segments":[],"categories_sizes":[],"default_left":[0,0,0,0,0,0,0,0,0,0,0,0,0,0,0],"id":26,"left_children":[1,3,5,7,9,11,13,-1,-1,-1,-1,-1,-1,-1,-1],"loss_changes":[1.15290115E2,2.5510574E1,2.6790462E1,1.2144012E0,7.9525986E0,7.4423733E0,2.2147598E0,0E0,0E0,0E0,0E0,0E0,0E0,0E0,0E0],"parents":[2147483647,0,0,1,1,2,2,3,3,4,4,5,5,6,6],"right_children":[2,4,6,8,10,12,14,-1,-1,-1,-1,-1,-1,-1,-1],"split_conditions":[5.258538E-1,2.0990507E-1,7.502659E-1,1.63125E1,1.176E2,1.176E2,9.444227E-1,-1.566596E-2,-1.0392061E-2,-9.990782E-4,-7.300954E-3,-8.790602E-6,7.4221897E-3,9.994984E-3,1.5226607E-2],"split_indices":[0,0,0,9,6,5,0,0,0,0,0,0,0,0,0],"split_type":[0,0,0,0,0,0,0,0,0,0,0,0,0,0,0],"sum_hessian":[2.6405148E2,1.413255E2,1.2272599E2,4.8775463E1,9.255003E1,6.140014E1,6.1325855E1,1.1394703E1,3.738076E1,6.417867E1,2.8371363E1,4.2709793E1,1.8690346E1,4.40382E1,1.7287653E1],"tree_param":{"num_deleted":"0","num_feature":"43","num_nodes":"15","size_leaf_vector":"1"}},{"base_weights":[6.6252117E-4,-6.076926E-1,7.0061356E-1,-1.1823767E0,-2.9597986E-1,2.3140134E-1,1.1599566E0,-1.2572835E-2,-6.396307E-3,-9.892641E-4,-7.233716E-3,-8.704201E-6,7.354447E-3,9.911509E-3,1.5126877E-2],"categories":[],"categories_nodes":[],"categories_segments":[],"categories_sizes":[],"default_left":[0,0,0,0,0,0,0,0,0,0,0,0,0,0,0],"id":27,"left_children":[1,3,5,7,9,11,13,-1,-1,-1,-1,-1,-1,-1,-1],"loss_changes":[1.1318817E2,2.5125385E1,2.6371258E1,1.2154312E0,7.8058863E0,7.305295E0,2.2047577E0,0E0,0E0,0E0,0E0,0E0,0E0,0E0,0E0],"parents":[2147483647,0,0,1,1,2,2,3,3,4,4,5,5,6,6],"right_children":[2,4,6,8,10,12,14,-1,-1,-1,-1,-1,-1,-1,-1],"split_conditions":[5.258538E-1,2.0990507E-1,7.502659E-1,7.680691E1,1.176E2,1.176E2,9.444227E-1,-1.2572835E-2,-6.396307E-3,-9.892641E-4,-7.233716E-3,-8.704201E-6,7.354447E-3,9.911509E-3,1.5126877E-2],"split_indices":[0,0,0,2,6,5,0,0,0,0,0,0,0,0,0],"split_type":[0,0,0,0,0,0,0,0,0,0,0,0,0,0,0],"sum_hessian":[2.6381314E2,1.41212E2,1.2260113E2,4.867675E1,9.2535255E1,6.139292E1,6.120821E1,4.161654E1,7.06021E0,6.417717E1,2.8358086E1,4.2709793E1,1.8683126E1,4.397374E1,1.7234472E1],"tree_param":{"num_deleted":"0","num_feature":"43","num_nodes":"15","size_leaf_vector":"1"}},{"base_weights":[6.765207E-4,-7.170197E-1,5.8436775E-1,-1.173372E0,-3.8612592E-1,1.654133E-1,1.1510011E0,-1.5485607E-2,-1.0216109E-2,-7.180129E-3,-9.3974976E-4,-3.2842855E-4,6.6162637E-3,9.829083E-3,1.5029099E-2],"categories":[],"categories_nodes":[],"categories_segments":[],"categories_sizes":[],"default_left":[0,0,0,0,0,0,0,0,0,0,0,0,0,0,0],"id":28,"left_children":[1,3,5,7,9,11,13,-1,-1,-1,-1,-1,-1,-1,-1],"loss_changes":[1.1124953E2,1.753321E1,3.457726E1,1.2406769E0,6.7718754E0,8.42001E0,2.1954727E0,0E0,0E0,0E0,0E0,0E0,0E0,0E0,0E0],"parents":[2147483647,0,0,1,1,2,2,3,3,4,4,5,5,6,6],"right_children":[2,4,6,8,10,12,14,-1,-1,-1,-1,-1,-1,-1,-1],"split_conditions":[4.7147927E-1,2.0990507E-1,7.502659E-1,1.63125E1,1.6967741E1,1.176E2,9.444227E-1,-1.5485607E-2,-1.0216109E-2,-7.180129E-3,-9.3974976E-4,-3.2842855E-4,6.6162637E-3,9.829083E-3,1.5029099E-2],"split_indices":[0,0,0,9,10,5,0,0,0,0,0,0,0,0,0],"split_type":[0,0,0,0,0,0,0,0,0,0,0,0,0,0,0],"sum_hessian":[2.6356693E2,1.1811115E2,1.4545576E2,4.8574097E1,6.9537056E1,8.436806E1,6.1087704E1,1.1338565E1,3.723553E1,3.1872189E1,3.766487E1,6.095001E1,2.3418053E1,4.390779E1,1.7179913E1],"tree_param":{"num_deleted":"0","num_feature":"43","num_nodes":"15","size_leaf_vector":"1"}},{"base_weights":[6.6068966E-4,-4.0371832E-1,1.0194849E0,-1.069642E0,-8.153902E-2,6.502195E-1,1.2474157E0,-1.4465769E-2,-9.163612E-3,1.06104555E-4,-6.4387787E-3,8.89999E-3,2.5945264E-3,1.3343338E-2,7.4737873E-3],"categories":[],"categories_nodes":[],"categories_segments":[],"categories_sizes":[],"default_left":[0,0,0,0,0,0,0,0,0,0,0,0,0,0,0],"id":29,"left_children":[1,3,5,7,9,11,13,-1,-1,-1,-1,-1,-1,-1,-1],"loss_changes":[1.0930921E2,4.066264E1,5.5338974E0,2.2477493E0,6.6960363E0,2.6607113E0,9.8134613E-1,0E0,0E0,0E0,0E0,0E0,0E0,0E0,0E0],"parents":[2147483647,0,0,1,1,2,2,3,3,4,4,5,5,6,6],"right_children":[2,4,6,8,10,12,14,-1,-1,-1,-1,-1,-1,-1,-1],"split_conditions":[6.905533E-1,2.617779E-1,8.222396E-1,5.997209E-2,7.594142E1,7.343896E1,1E0,-1.4465769E-2,-9.163612E-3,1.06104555E-4,-6.4387787E-3,8.89999E-3,2.5945264E-3,1.3343338E-2,7.4737873E-3],"split_indices":[0,0,0,0,8,2,13,0,0,0,0,0,0,0,0],"split_type":[0,0,0,0,0,0,0,0,0,0,0,0,0,0,0],"sum_hessian":[2.6332034E2,1.8893452E2,7.43858E1,6.0847237E1,1.280873E2,2.986115E1,4.452465E1,1.5151222E1,4.5696014E1,1.1089608E2,1.7191212E1,1.771403E1,1.2147121E1,3.6509907E1,8.014745E0],"tree_param":{"num_deleted":"0","num_feature":"43","num_nodes":"15","size_leaf_vector":"1"}},{"base_weights":[6.6408084E-4,-7.0584565E-1,5.751642E-1,-1.1563488E0,-3.803902E-1,1.6358458E-1,1.1339126E0,-1.5313645E-2,-1.0050881E-2,-7.086926E-3,-9.157004E-4,-3.2584573E-4,6.5471414E-3,9.66636E-3,1.4854523E-2],"categories":[],"categories_nodes":[],"categories_segments":[],"categories_sizes":[],"default_left":[0,0,0,0,0,0,0,0,0,0,0,0,0,0,0],"id":30,"left_children":[1,3,5,7,9,11,13,-1,-1,-1,-1,-1,-1,-1,-1],"loss_changes":[1.0759074E2,1.6990051E1,3.343472E1,1.2613907E0,6.620761E0,8.2445545E0,2.2006836E0,0E0,0E0,0E0,0E0,0E0,0E0,0E0,0E0],"parents":[2147483647,0,0,1,1,2,2,3,3,4,4,5,5,6,6],"right_children":[2,4,6,8,10,12,14,-1,-1,-1,-1,-1,-1,-1,-1],"split_conditions":[4.7147927E-1,2.0990507E-1,7.502659E-1,1.63125E1,1.6967741E1,1.176E2,9.444227E-1,-1.5313645E-2,-1.0050881E-2,-7.086926E-3,-9.157004E-4,-3.2584573E-4,6.5471414E-3,9.66636E-3,1.4854523E-2],"split_indices":[0,0,0,9,10,5,0,0,0,0,0,0,0,0,0],"split_type":[0,0,0,0,0,0,0,0,0,0,0,0,0,0,0],"sum_hessian":[2.6307343E2,1.17879166E2,1.4519426E2,4.837052E1,6.9508644E1,8.435229E1,6.0841976E1,1.1280113E1,3.709041E1,3.1850437E1,3.7658203E1,6.0943584E1,2.3408705E1,4.376607E1,1.7075903E1],"tree_param":{"num_deleted":"0","num_feature":"43","num_nodes":"15","size_leaf_vector":"1"}},{"base_weights":[6.4853596E-4,-6.997916E-1,5.701551E-1,-1.147803E0,-3.7677974E-1,1.620348E-1,1.1253165E0,-1.5216668E-2,-9.971973E-3,-7.0211086E-3,-9.06812E-4,-3.2263985E-4,6.486171E-3,9.586939E-3,1.4761964E-2],"categories":[],"categories_nodes":[],"categories_segments":[],"categories_sizes":[],"default_left":[0,0,0,0,0,0,0,0,0,0,0,0,0,0,0],"id":31,"left_children":[1,3,5,7,9,11,13,-1,-1,-1,-1,-1,-1,-1,-1],"loss_changes":[1.0563673E2,1.6753239E1,3.2910667E1,1.2564163E0,6.4976683E0,8.089687E0,2.1928482E0,0E0,0E0,0E0,0E0,0E0,0E0,0E0,0E0],"parents":[2147483647,0,0,1,1,2,2,3,3,4,4,5,5,6,6],"right_children":[2,4,6,8,10,12,14,-1,-1,-1,-1,-1,-1,-1,-1],"split_conditions":[4.7147927E-1,2.0990507E-1,7.502659E-1,1.63125E1,1.6967741E1,1.176E2,9.444227E-1,-1.5216668E-2,-9.971973E-3,-7.0211086E-3,-9.06812E-4,-3.2263985E-4,6.486171E-3,9.586939E-3,1.4761964E-2],"split_indices":[0,0,0,9,10,5,0,0,0,0,0,0,0,0,0],"split_type":[0,0,0,0,0,0,0,0,0,0,0,0,0,0,0],"sum_hessian":[2.6281635E2,1.1775719E2,1.4505917E2,4.8263374E1,6.949381E1,8.4345474E1,6.0713696E1,1.124503E1,3.7018345E1,3.1836964E1,3.765685E1,6.0943584E1,2.3401892E1,4.369599E1,1.7017704E1],"tree_param":{"num_deleted":"0","num_feature":"43","num_nodes":"15","size_leaf_vector":"1"}},{"base_weights":[6.332519E-4,-5.8289486E-1,6.728214E-1,-1.0457239E0,-2.2473972E-1,2.2350645E-1,1.1168364E0,-1.4217186E-2,-8.934775E-3,-5.411043E-4,-6.3096005E-3,-3.235179E-6,7.09974E-3,9.508467E-3,1.467114E-2],"categories":[],"categories_nodes":[],"categories_segments":[],"categories_sizes":[],"default_left":[0,0,0,0,0,0,0,0,0,0,0,0,0,0,0],"id":32,"left_children":[1,3,5,7,9,11,13,-1,-1,-1,-1,-1,-1,-1,-1],"loss_changes":[1.0376869E2,2.3240044E1,2.4276623E1,2.2506104E0,5.587848E0,6.789709E0,2.1855774E0,0E0,0E0,0E0,0E0,0E0,0E0,0E0,0E0],"parents":[2147483647,0,0,1,1,2,2,3,3,4,4,5,5,6,6],"right_children":[2,4,6,8,10,12,14,-1,-1,-1,-1,-1,-1,-1,-1],"split_conditions":[5.258538E-1,2.617779E-1,7.502659E-1,5.997209E-2,1.176E2,1.176E2,9.444227E-1,-1.4217186E-2,-8.934775E-3,-5.411043E-4,-6.3096005E-3,-3.235179E-6,7.09974E-3,9.508467E-3,1.467114E-2],"split_indices":[0,0,0,0,6,5,0,0,0,0,0,0,0,0,0],"split_type":[0,0,0,0,0,0,0,0,0,0,0,0,0,0,0],"sum_hessian":[2.6255377E2,1.4061682E2,1.2193694E2,6.0506725E1,8.011009E1,6.135399E1,6.058296E1,1.5035671E1,4.5471054E1,5.7211933E1,2.2898165E1,4.2704456E1,1.864953E1,4.3624645E1,1.6958311E1],"tree_param":{"num_deleted":"0","num_feature":"43","num_nodes":"15","size_leaf_vector":"1"}},{"base_weights":[6.329447E-4,-3.8988602E-1,9.888797E-1,-1.0376433E0,-7.870409E-2,6.279728E-1,1.2131479E0,-1.4124711E-2,-8.861112E-3,1.2274791E-4,-6.342672E-3,8.6767925E-3,2.3939516E-3,1.3400052E-2,8.342656E-3],"categories":[],"categories_nodes":[],"categories_segments":[],"categories_sizes":[],"default_left":[0,0,0,0,0,0,0,0,0,0,0,0,0,0,0],"id":33,"left_children":[1,3,5,7,9,11,13,-1,-1,-1,-1,-1,-1,-1,-1],"loss_changes":[1.0199431E2,3.810156E1,5.296913E0,2.235176E0,6.53005E0,2.6575174E0,1.0494537E0,0E0,0E0,0E0,0E0,0E0,0E0,0E0,0E0],"parents":[2147483647,0,0,1,1,2,2,3,3,4,4,5,5,6,6],"right_children":[2,4,6,8,10,12,14,-1,-1,-1,-1,-1,-1,-1,-1],"split_conditions":[6.905533E-1,2.617779E-1,8.222396E-1,5.997209E-2,7.594142E1,7.343896E1,2.0428572E1,-1.4124711E-2,-8.861112E-3,1.2274791E-4,-6.342672E-3,8.6767925E-3,2.3939516E-3,1.3400052E-2,8.342656E-3],"split_indices":[0,0,0,0,8,2,10,0,0,0,0,0,0,0,0],"split_type":[0,0,0,0,0,0,0,0,0,0,0,0,0,0,0],"sum_hessian":[2.6228348E2,1.8842879E2,7.385469E1,6.038879E1,1.2804001E2,2.9761175E1,4.4093513E1,1.4989547E1,4.5399242E1,1.10863014E2,1.7176994E1,1.7643969E1,1.2117208E1,3.1132877E1,1.2960637E1],"tree_param":{"num_deleted":"0","num_feature":"43","num_nodes":"15","size_leaf_vector":"1"}},{"base_weights":[6.4141036E-4,-6.834172E-1,5.5668443E-1,-1.1236382E0,-3.6786267E-1,1.5920468E-1,1.1006501E0,-1.4987948E-2,-9.73219E-3,-6.8923323E-3,-8.5557933E-4,-3.1683373E-4,6.3758832E-3,9.354396E-3,1.4507151E-2],"categories":[],"categories_nodes":[],"categories_segments":[],"categories_sizes":[],"default_left":[0,0,0,0,0,0,0,0,0,0,0,0,0,0,0],"id":34,"left_children":[1,3,5,7,9,11,13,-1,-1,-1,-1,-1,-1,-1,-1],"loss_changes":[1.0042398E2,1.603164E1,3.131358E1,1.3031158E0,6.331826E0,7.811208E0,2.1892853E0,0E0,0E0,0E0,0E0,0E0,0E0,0E0,0E0],"parents":[2147483647,0,0,1,1,2,2,3,3,4,4,5,5,6,6],"right_children":[2,4,6,8,10,12,14,-1,-1,-1,-1,-1,-1,-1,-1],"split_conditions":[4.7147927E-1,2.0990507E-1,7.502659E-1,1.63125E1,1.6967741E1,1.176E2,9.444227E-1,-1.4987948E-2,-9.73219E-3,-6.8923323E-3,-8.5557933E-4,-3.1683373E-4,6.3758832E-3,9.354396E-3,1.4507151E-2],"split_indices":[0,0,0,9,10,5,0,0,0,0,0,0,0,0,0],"split_type":[0,0,0,0,0,0,0,0,0,0,0,0,0,0,0],"sum_hessian":[2.6201913E2,1.17382744E2,1.4463638E2,4.7940918E1,6.944183E1,8.431757E1,6.031881E1,1.1155114E1,3.6785805E1,3.1799925E1,3.7641907E1,6.093616E1,2.338141E1,4.347386E1,1.6844948E1],"tree_param":{"num_deleted":"0","num_feature":"43","num_nodes":"15","size_leaf_vector":"1"}},{"base_weights":[6.2648155E-4,-6.776131E-1,5.5187976E-1,-1.1155248E0,-3.6438134E-1,1.5769887E-1,1.0924937E0,-1.4897327E-2,-9.657008E-3,-6.828726E-3,-8.472751E-4,-3.1371522E-4,6.3168216E-3,9.278648E-3,1.4421014E-2],"categories":[],"categories_nodes":[],"categories_segments":[],"categories_sizes":[],"default_left":[0,0,0,0,0,0,0,0,0,0,0,0,0,0,0],"id":35,"left_children":[1,3,5,7,9,11,13,-1,-1,-1,-1,-1,-1,-1,-1],"loss_changes":[9.860867E1,1.5813858E1,3.083179E1,1.298851E0,6.214715E0,7.6649365E0,2.183258E0,0E0,0E0,0E0,0E0,0E0,0E0,0E0,0E0],"parents":[2147483647,0,0,1,1,2,2,3,3,4,4,5,5,6,6],"right_children":[2,4,6,8,10,12,14,-1,-1,-1,-1,-1,-1,-1,-1],"split_conditions":[4.7147927E-1,2.0990507E-1,7.502659E-1,1.63125E1,1.6967741E1,1.176E2,9.444227E-1,-1.4897327E-2,-9.657008E-3,-6.828726E-3,-8.472751E-4,-3.1371522E-4,6.3168216E-3,9.278648E-3,1.4421014E-2],"split_indices":[0,0,0,9,10,5,0,0,0,0,0,0,0,0,0],"split_type":[0,0,0,0,0,0,0,0,0,0,0,0,0,0,0],"sum_hessian":[2.6174274E2,1.1725175E2,1.4449098E2,4.7826645E1,6.94251E1,8.430957E1,6.0181416E1,1.1117015E1,3.670963E1,3.178456E1,3.764054E1,6.0936153E1,2.3373419E1,4.339902E1,1.6782396E1],"tree_param":{"num_deleted":"0","num_feature":"43","num_nodes":"15","size_leaf_vector":"1"}},{"base_weights":[6.1170035E-4,-5.64083E-1,6.5179247E-1,-1.1075166E0,-2.7459916E-1,2.1754499E-1,1.0844417E0,-1.4808434E-2,-9.582682E-3,-8.2383817E-4,-6.928675E-3,-1.0223908E-6,6.912272E-3,9.203767E-3,1.4336426E-2],"categories":[],"categories_nodes":[],"categories_segments":[],"categories_sizes":[],"default_left":[0,0,0,0,0,0,0,0,0,0,0,0,0,0,0],"id":36,"left_children":[1,3,5,7,9,11,13,-1,-1,-1,-1,-1,-1,-1,-1],"loss_changes":[9.6879585E1,2.1893272E1,2.2752731E1,1.2950401E0,7.4513073E0,6.4248095E0,2.1776962E0,0E0,0E0,0E0,0E0,0E0,0E0,0E0,0E0],"parents":[2147483647,0,0,1,1,2,2,3,3,4,4,5,5,6,6],"right_children":[2,4,6,8,10,12,14,-1,-1,-1,-1,-1,-1,-1,-1],"split_conditions":[5.258538E-1,2.0990507E-1,7.502659E-1,1.63125E1,1.176E2,1.176E2,9.444227E-1,-1.4808434E-2,-9.582682E-3,-8.2383817E-4,-6.928675E-3,-1.0223908E-6,6.912272E-3,9.203767E-3,1.4336426E-2],"split_indices":[0,0,0,9,6,5,0,0,0,0,0,0,0,0,0],"split_type":[0,0,0,0,0,0,0,0,0,0,0,0,0,0,0],"sum_hessian":[2.6146155E2,1.4010138E2,1.2136017E2,4.7710667E1,9.239072E1,6.1318245E1,6.0041927E1,1.1078109E1,3.6632557E1,6.41209E1,2.8269815E1,4.2698807E1,1.8619438E1,4.332311E1,1.6718819E1],"tree_param":{"num_deleted":"0","num_feature":"43","num_nodes":"15","size_leaf_vector":"1"}},{"base_weights":[6.002643E-4,-3.7663007E-1,9.5975226E-1,-1.0077773E0,-7.5707644E-2,6.066163E-1,1.1807772E0,-1.3823277E-2,-8.572634E-3,1.4125786E-4,-6.246759E-3,8.463058E-3,2.201077E-3,1.2691607E-2,6.8233297E-3],"categories":[],"categories_nodes":[],"categories_segments":[],"categories_sizes":[],"default_left":[0,0,0,0,0,0,0,0,0,0,0,0,0,0,0],"id":37,"left_children":[1,3,5,7,9,11,13,-1,-1,-1,-1,-1,-1,-1,-1],"loss_changes":[9.522159E1,3.5798214E1,5.0820007E0,2.2483063E0,6.369805E0,2.6535492E0,1.1003227E0,0E0,0E0,0E0,0E0,0E0,0E0,0E0,0E0],"parents":[2147483647,0,0,1,1,2,2,3,3,4,4,5,5,6,6],"right_children":[2,4,6,8,10,12,14,-1,-1,-1,-1,-1,-1,-1,-1],"split_conditions":[6.905533E-1,2.617779E-1,8.222396E-1,5.997209E-2,7.594142E1,7.343896E1,1E0,-1.3823277E-2,-8.572634E-3,1.4125786E-4,-6.246759E-3,8.463058E-3,2.201077E-3,1.2691607E-2,6.8233297E-3],"split_indices":[0,0,0,0,8,2,13,0,0,0,0,0,0,0,0],"split_type":[0,0,0,0,0,0,0,0,0,0,0,0,0,0,0],"sum_hessian":[2.6117398E2,1.878864E2,7.328758E1,5.99015E1,1.27984886E2,2.9653753E1,4.3633827E1,1.4825223E1,4.507628E1,1.1082388E2,1.7161003E1,1.7568935E1,1.2084817E1,3.5748665E1,7.88516E0],"tree_param":{"num_deleted":"0","num_feature":"43","num_nodes":"15","size_leaf_vector":"1"}},{"base_weights":[6.018253E-4,-6.62019E-1,5.3901833E-1,-1.0921768E0,-3.5628492E-1,1.5506019E-1,1.0690361E0,-1.4659914E-2,-9.432209E-3,-1.3976832E-3,-7.621551E-3,-3.0706584E-4,6.2113446E-3,9.055352E-3,1.41855925E-2],"categories":[],"categories_nodes":[],"categories_segments":[],"categories_sizes":[],"default_left":[0,0,0,0,0,0,0,0,0,0,0,0,0,0,0],"id":38,"left_children":[1,3,5,7,9,11,13,-1,-1,-1,-1,-1,-1,-1,-1],"loss_changes":[9.37917E1,1.511031E1,2.9350536E1,1.3166809E0,6.077816E0,7.402609E0,2.18779E0,0E0,0E0,0E0,0E0,0E0,0E0,0E0,0E0],"parents":[2147483647,0,0,1,1,2,2,3,3,4,4,5,5,6,6],"right_children":[2,4,6,8,10,12,14,-1,-1,-1,-1,-1,-1,-1,-1],"split_conditions":[4.7147927E-1,2.0990507E-1,7.502659E-1,1.63125E1,1.175E2,1.176E2,9.444227E-1,-1.4659914E-2,-9.432209E-3,-1.3976832E-3,-7.621551E-3,-3.0706584E-4,6.2113446E-3,9.055352E-3,1.41855925E-2],"split_indices":[0,0,0,9,6,5,0,0,0,0,0,0,0,0,0],"split_type":[0,0,0,0,0,0,0,0,0,0,0,0,0,0,0],"sum_hessian":[2.6089395E2,1.1685399E2,1.4403996E2,4.747954E1,6.937445E1,8.427883E1,5.9761135E1,1.1009265E1,3.6470276E1,4.6117077E1,2.3257372E1,6.092829E1,2.3350536E1,4.316163E1,1.6599503E1],"tree_param":{"num_deleted":"0","num_feature":"43","num_nodes":"15","size_leaf_vector":"1"}},{"base_weights":[5.8176083E-4,-6.5646887E-1,5.344031E-1,-1.0844612E0,-3.5295168E-1,1.5359554E-1,1.0612764E0,-1.4575471E-2,-9.360375E-3,-6.6738296E-3,-7.7303604E-4,-3.0404446E-4,6.1540827E-3,8.98297E-3,1.4105161E-2],"categories":[],"categories_nodes":[],"categories_segments":[],"categories_sizes":[],"default_left":[0,0,0,0,0,0,0,0,0,0,0,0,0,0,0],"id":39,"left_children":[1,3,5,7,9,11,13,-1,-1,-1,-1,-1,-1,-1,-1],"loss_changes":[9.210613E1,1.4908577E1,2.8906494E1,1.3135567E0,6.046191E0,7.2643843E0,2.1831284E0,0E0,0E0,0E0,0E0,0E0,0E0,0E0,0E0],"parents":[2147483647,0,0,1,1,2,2,3,3,4,4,5,5,6,6],"right_children":[2,4,6,8,10,12,14,-1,-1,-1,-1,-1,-1,-1,-1],"split_conditions":[4.7147927E-1,2.0990507E-1,7.502659E-1,1.63125E1,1.6967741E1,1.176E2,9.444227E-1,-1.4575471E-2,-9.360375E-3,-6.6738296E-3,-7.7303604E-4,-3.0404446E-4,6.1540827E-3,8.98297E-3,1.4105161E-2],"split_indices":[0,0,0,9,10,5,0,0,0,0,0,0,0,0,0],"split_type":[0,0,0,0,0,0,0,0,0,0,0,0,0,0,0],"sum_hessian":[2.605992E2,1.16713455E2,1.4388577E2,4.735905E1,6.93544E1,8.426975E1,5.9616016E1,1.0968315E1,3.6390736E1,3.173416E1,3.7620243E1,6.0928276E1,2.334148E1,4.3082767E1,1.653325E1],"tree_param":{"num_deleted":"0","num_feature":"43","num_nodes":"15","size_leaf_vector":"1"}},{"base_weights":[5.6766457E-4,-5.460593E-1,6.3162374E-1,-1.0768405E0,-2.6583746E-1,2.1175888E-1,1.0536113E0,-1.22824665E-2,-7.6511656E-3,-7.719691E-4,-6.770519E-3,1.1316071E-6,6.7308596E-3,1.4096003E-2,8.936629E-3],"categories":[],"categories_nodes":[],"categories_segments":[],"categories_sizes":[],"default_left":[0,0,0,0,0,0,0,0,0,0,0,0,0,0,0],"id":40,"left_children":[1,3,5,7,9,11,13,-1,-1,-1,-1,-1,-1,-1,-1],"loss_changes":[9.048173E1,2.061924E1,2.134798E1,1.336895E0,7.186482E0,6.0807347E0,2.1833954E0,0E0,0E0,0E0,0E0,0E0,0E0,0E0,0E0],"parents":[2147483647,0,0,1,1,2,2,3,3,4,4,5,5,6,6],"right_children":[2,4,6,8,10,12,14,-1,-1,-1,-1,-1,-1,-1,-1],"split_conditions":[5.258538E-1,2.0990507E-1,7.502659E-1,7.421093E1,1.176E2,1.176E2,1.6764706E1,-1.22824665E-2,-7.6511656E-3,-7.719691E-4,-6.770519E-3,1.1316071E-6,6.7308596E-3,1.4096003E-2,8.936629E-3],"split_indices":[0,0,0,2,6,5,10,0,0,0,0,0,0,0,0],"split_type":[0,0,0,0,0,0,0,0,0,0,0,0,0,0,0],"sum_hessian":[2.603023E2,1.3955399E2,1.2074833E2,4.7237125E1,9.231686E1,6.127919E1,5.946914E1,2.9815424E1,1.7421701E1,6.4099556E1,2.8217302E1,4.2692944E1,1.8586246E1,1.6014225E1,4.3454914E1],"tree_param":{"num_deleted":"0","num_feature":"43","num_nodes":"15","size_leaf_vector":"1"}},{"base_weights":[5.717542E-4,-3.6389083E-1,9.318796E-1,-9.7925913E-1,-7.2823875E-2,5.854546E-1,1.1503384E0,-1.354109E-2,-8.295606E-3,1.5910262E-4,-6.1547696E-3,8.254663E-3,2.0050982E-3,1.2787206E-2,7.7276444E-3],"categories":[],"categories_nodes":[],"categories_segments":[],"categories_sizes":[],"default_left":[0,0,0,0,0,0,0,0,0,0,0,0,0,0,0],"id":41,"left_children":[1,3,5,7,9,11,13,-1,-1,-1,-1,-1,-1,-1,-1],"loss_changes":[8.893101E1,3.365764E1,4.9036446E0,2.2653503E0,6.2176366E0,2.6557636E0,1.1523361E0,0E0,0E0,0E0,0E0,0E0,0E0,0E0,0E0],"parents":[2147483647,0,0,1,1,2,2,3,3,4,4,5,5,6,6],"right_children":[2,4,6,8,10,12,14,-1,-1,-1,-1,-1,-1,-1,-1],"split_conditions":[6.905533E-1,2.617779E-1,8.222396E-1,5.997209E-2,7.594142E1,7.343896E1,2.0428572E1,-1.354109E-2,-8.295606E-3,1.5910262E-4,-6.1547696E-3,8.254663E-3,2.0050982E-3,1.2787206E-2,7.7276444E-3],"split_indices":[0,0,0,0,8,2,10,0,0,0,0,0,0,0,0],"split_type":[0,0,0,0,0,0,0,0,0,0,0,0,0,0,0],"sum_hessian":[2.6000443E2,1.8731062E2,7.2693794E1,5.93884E1,1.27922226E2,2.9536188E1,4.3157604E1,1.4652499E1,4.47359E1,1.107785E2,1.7143719E1,1.7488064E1,1.2048125E1,3.0425642E1,1.2731961E1],"tree_param":{"num_deleted":"0","num_feature":"43","num_nodes":"15","size_leaf_vector":"1"}},{"base_weights":[5.7847955E-4,-6.4146644E-1,5.2204406E-1,-1.0621461E0,-3.4513742E-1,1.510284E-1,1.0388614E0,-1.4378677E-2,-9.134557E-3,-6.559453E-3,-7.299255E-4,-2.9766146E-4,6.0519665E-3,8.759712E-3,1.3902772E-2],"categories":[],"categories_nodes":[],"categories_segments":[],"categories_sizes":[],"default_left":[0,0,0,0,0,0,0,0,0,0,0,0,0,0,0],"id":42,"left_children":[1,3,5,7,9,11,13,-1,-1,-1,-1,-1,-1,-1,-1],"loss_changes":[8.762241E1,1.4255405E1,2.7534618E1,1.3678741E0,5.8984556E0,7.0168943E0,2.2269974E0,0E0,0E0,0E0,0E0,0E0,0E0,0E0,0E0],"parents":[2147483647,0,0,1,1,2,2,3,3,4,4,5,5,6,6],"right_children":[2,4,6,8,10,12,14,-1,-1,-1,-1,-1,-1,-1,-1],"split_conditions":[4.7147927E-1,2.0990507E-1,7.502659E-1,1.63125E1,1.6967741E1,1.176E2,9.444227E-1,-1.4378677E-2,-9.134557E-3,-6.559453E-3,-7.299255E-4,-2.9766146E-4,6.0519665E-3,8.759712E-3,1.3902772E-2],"split_indices":[0,0,0,9,10,5,0,0,0,0,0,0,0,0,0],"split_type":[0,0,0,0,0,0,0,0,0,0,0,0,0,0,0],"sum_hessian":[2.597121E2,1.16295395E2,1.434167E2,4.6995094E1,6.93003E1,8.4236664E1,5.918004E1,1.0866526E1,3.6128567E1,3.1693686E1,3.7606617E1,6.0920135E1,2.3316526E1,4.2823116E1,1.6356924E1],"tree_param":{"num_deleted":"0","num_feature":"43","num_nodes":"15","size_leaf_vector":"1"}},{"base_weights":[5.646784E-4,-6.3610846E-1,5.176055E-1,-1.0547891E0,-3.4188613E-1,1.4960365E-1,1.0314602E0,-1.2066634E-2,-7.4343686E-3,-1.3014991E-3,-7.398813E-3,-2.947324E-4,5.9964196E-3,8.690516E-3,1.38271665E-2],"categories":[],"categories_nodes":[],"categories_segments":[],"categories_sizes":[],"default_left":[0,0,0,0,0,0,0,0,0,0,0,0,0,0,0],"id":43,"left_children":[1,3,5,7,9,11,13,-1,-1,-1,-1,-1,-1,-1,-1],"loss_changes":[8.605103E1,1.4070549E1,2.7124264E1,1.366497E0,5.8262568E0,6.8862114E0,2.222805E0,0E0,0E0,0E0,0E0,0E0,0E0,0E0,0E0],"parents":[2147483647,0,0,1,1,2,2,3,3,4,4,5,5,6,6],"right_children":[2,4,6,8,10,12,14,-1,-1,-1,-1,-1,-1,-1,-1],"split_conditions":[4.7147927E-1,2.0990507E-1,7.502659E-1,7.421093E1,1.175E2,1.176E2,9.444227E-1,-1.2066634E-2,-7.4343686E-3,-1.3014991E-3,-7.398813E-3,-2.947324E-4,5.9964196E-3,8.690516E-3,1.38271665E-2],"split_indices":[0,0,0,2,6,5,0,0,0,0,0,0,0,0,0],"split_type":[0,0,0,0,0,0,0,0,0,0,0,0,0,0,0],"sum_hessian":[2.594053E2,1.1615017E2,1.4325514E2,4.6869495E1,6.928067E1,8.4226616E1,5.902853E1,2.9569998E1,1.7299498E1,4.6088356E1,2.3192316E1,6.0920113E1,2.3306503E1,4.2740814E1,1.6287714E1],"tree_param":{"num_deleted":"0","num_feature":"43","num_nodes":"15","size_leaf_vector":"1"}},{"base_weights":[5.602009E-4,-5.2868253E-1,6.122477E-1,-1.0474412E0,-2.5738195E-1,2.0614296E-1,1.0241446E0,-1.4245438E-2,-8.987356E-3,-7.22302E-4,-6.617531E-3,3.2396588E-6,6.5552047E-3,1.3820145E-2,8.641311E-3],"categories":[],"categories_nodes":[],"categories_segments":[],"categories_sizes":[],"default_left":[0,0,0,0,0,0,0,0,0,0,0,0,0,0,0],"id":44,"left_children":[1,3,5,7,9,11,13,-1,-1,-1,-1,-1,-1,-1,-1],"loss_changes":[8.452398E1,1.943121E1,2.0047798E1,1.3969841E0,6.932936E0,5.7561297E0,2.2344742E0,0E0,0E0,0E0,0E0,0E0,0E0,0E0,0E0],"parents":[2147483647,0,0,1,1,2,2,3,3,4,4,5,5,6,6],"right_children":[2,4,6,8,10,12,14,-1,-1,-1,-1,-1,-1,-1,-1],"split_conditions":[5.258538E-1,2.0990507E-1,7.502659E-1,1.63125E1,1.176E2,1.176E2,1.6764706E1,-1.4245438E-2,-8.987356E-3,-7.22302E-4,-6.617531E-3,3.2396588E-6,6.5552047E-3,1.3820145E-2,8.641311E-3],"split_indices":[0,0,0,9,6,5,10,0,0,0,0,0,0,0,0],"split_type":[0,0,0,0,0,0,0,0,0,0,0,0,0,0,0],"sum_hessian":[2.5909326E2,1.3898056E2,1.2011272E2,4.6742523E1,9.223804E1,6.1237164E1,5.8875553E1,1.0792986E1,3.5949535E1,6.407725E1,2.8160791E1,4.2686897E1,1.8550266E1,1.583153E1,4.304402E1],"tree_param":{"num_deleted":"0","num_feature":"43","num_nodes":"15","size_leaf_vector":"1"}},{"base_weights":[5.4959604E-4,-6.259163E-1,5.091692E-1,-1.0402532E0,-3.36132E-1,1.4732824E-1,1.0168303E0,-1.4168474E-2,-8.920196E-3,-6.4354995E-3,-6.733719E-4,-2.8807594E-4,5.9038145E-3,8.543798E-3,1.369848E-2],"categories":[],"categories_nodes":[],"categories_segments":[],"categories_sizes":[],"default_left":[0,0,0,0,0,0,0,0,0,0,0,0,0,0,0],"id":45,"left_children":[1,3,5,7,9,11,13,-1,-1,-1,-1,-1,-1,-1,-1],"loss_changes":[8.309418E1,1.36808815E1,2.6288807E1,1.3941803E0,5.760759E0,6.666004E0,2.254799E0,0E0,0E0,0E0,0E0,0E0,0E0,0E0,0E0],"parents":[2147483647,0,0,1,1,2,2,3,3,4,4,5,5,6,6],"right_children":[2,4,6,8,10,12,14,-1,-1,-1,-1,-1,-1,-1,-1],"split_conditions":[4.7147927E-1,2.0990507E-1,7.502659E-1,1.63125E1,1.6967741E1,1.176E2,9.444227E-1,-1.4168474E-2,-8.920196E-3,-6.4354995E-3,-6.733719E-4,-2.8807594E-4,5.9038145E-3,8.543798E-3,1.369848E-2],"split_indices":[0,0,0,9,10,5,0,0,0,0,0,0,0,0,0],"split_type":[0,0,0,0,0,0,0,0,0,0,0,0,0,0,0],"sum_hessian":[2.5878323E2,1.1585465E2,1.4292859E2,4.6614693E1,6.923996E1,8.420253E1,5.872606E1,1.0748752E1,3.586594E1,3.164905E1,3.759091E1,6.091911E1,2.3283419E1,4.2560787E1,1.6165268E1],"tree_param":{"num_deleted":"0","num_feature":"43","num_nodes":"15","size_leaf_vector":"1"}},{"base_weights":[5.3620245E-4,-3.487117E-1,8.988596E-1,-9.4542104E-1,-6.94183E-2,5.603574E-1,1.1144407E0,-1.32153975E-2,-7.964128E-3,1.8135633E-4,-6.053288E-3,8.013268E-3,1.7643572E-3,1.20494235E-2,6.1506033E-3],"categories":[],"categories_nodes":[],"categories_segments":[],"categories_sizes":[],"default_left":[0,0,0,0,0,0,0,0,0,0,0,0,0,0,0],"id":46,"left_children":[1,3,5,7,9,11,13,-1,-1,-1,-1,-1,-1,-1,-1],"loss_changes":[8.1718056E1,3.1191204E1,4.6964836E0,2.2943573E0,6.0560317E0,2.6692667E0,1.2264099E0,0E0,0E0,0E0,0E0,0E0,0E0,0E0,0E0],"parents":[2147483647,0,0,1,1,2,2,3,3,4,4,5,5,6,6],"right_children":[2,4,6,8,10,12,14,-1,-1,-1,-1,-1,-1,-1,-1],"split_conditions":[6.905533E-1,2.617779E-1,8.222396E-1,5.997209E-2,7.594142E1,7.343896E1,1E0,-1.32153975E-2,-7.964128E-3,1.8135633E-4,-6.053288E-3,8.013268E-3,1.7643572E-3,1.20494235E-2,6.1506033E-3],"split_indices":[0,0,0,0,8,2,13,0,0,0,0,0,0,0,0],"split_type":[0,0,0,0,0,0,0,0,0,0,0,0,0,0,0],"sum_hessian":[2.5846722E2,1.8655188E2,7.1915344E1,5.871737E1,1.278345E2,2.9381006E1,4.253434E1,1.4428593E1,4.4288776E1,1.1071301E2,1.7121489E1,1.7383188E1,1.1997818E1,3.4812473E1,7.721869E0],"tree_param":{"num_deleted":"0","num_feature":"43","num_nodes":"15","size_leaf_vector":"1"}},{"base_weights":[5.356278E-4,-6.1654997E-1,5.014376E-1,-1.026444E0,-3.3122706E-1,1.4571927E-1,1.0029492E0,-1.17951855E-2,-7.1447007E-3,-6.3548326E-3,-6.543206E-4,2.8652719E-3,-3.8933598E-3,1.3623996E-2,8.428249E-3],"categories":[],"categories_nodes":[],"categories_segments":[],"categories_sizes":[],"default_left":[0,0,0,0,0,0,0,0,0,0,0,0,0,0,0],"id":47,"left_children":[1,3,5,7,9,11,13,-1,-1,-1,-1,-1,-1,-1,-1],"loss_changes":[8.041585E1,1.3292309E1,2.5471394E1,1.4190521E0,5.6355586E0,6.529059E0,2.2716484E0,0E0,0E0,0E0,0E0,0E0,0E0,0E0,0E0],"parents":[2147483647,0,0,1,1,2,2,3,3,4,4,5,5,6,6],"right_children":[2,4,6,8,10,12,14,-1,-1,-1,-1,-1,-1,-1,-1],"split_conditions":[4.7147927E-1,2.0990507E-1,7.502659E-1,7.421093E1,1.6967741E1,7.5073746E1,1.6764706E1,-1.17951855E-2,-7.1447007E-3,-6.3548326E-3,-6.543206E-4,2.8652719E-3,-3.8933598E-3,1.3623996E-2,8.428249E-3],"split_indices":[0,0,0,2,10,8,10,0,0,0,0,0,0,0,0],"split_type":[0,0,0,0,0,0,0,0,0,0,0,0,0,0,0],"sum_hessian":[2.581616E2,1.15562996E2,1.4259859E2,4.6362007E1,6.920099E1,8.4180534E1,5.8418045E1,2.9236078E1,1.7125929E1,3.161749E1,3.7583504E1,6.7010254E1,1.7170277E1,1.5689523E1,4.2728523E1],"tree_param":{"num_deleted":"0","num_feature":"43","num_nodes":"15","size_leaf_vector":"1"}},{"base_weights":[5.120655E-4,-5.12056E-1,5.935996E-1,-1.0194124E0,-2.4932426E-1,2.0075268E-1,9.9587005E-1,-1.3990354E-2,-8.707848E-3,-6.6675467E-4,-6.4892666E-3,-1.0798477E-5,6.420974E-3,8.332895E-3,1.3516244E-2],"categories":[],"categories_nodes":[],"categories_segments":[],"categories_sizes":[],"default_left":[0,0,0,0,0,0,0,0,0,0,0,0,0,0,0],"id":48,"left_children":[1,3,5,7,9,11,13,-1,-1,-1,-1,-1,-1,-1,-1],"loss_changes":[7.899367E1,1.8325943E1,1.8836864E1,1.4466362E0,6.755901E0,5.5411143E0,2.3015099E0,0E0,0E0,0E0,0E0,0E0,0E0,0E0,0E0],"parents":[2147483647,0,0,1,1,2,2,3,3,4,4,5,5,6,6],"right_children":[2,4,6,8,10,12,14,-1,-1,-1,-1,-1,-1,-1,-1],"split_conditions":[5.258538E-1,2.0990507E-1,7.502659E-1,1.63125E1,1.176E2,1.176E2,9.444227E-1,-1.3990354E-2,-8.707848E-3,-6.6675467E-4,-6.4892666E-3,-1.0798477E-5,6.420974E-3,8.332895E-3,1.3516244E-2],"split_indices":[0,0,0,9,6,5,0,0,0,0,0,0,0,0,0],"split_type":[0,0,0,0,0,0,0,0,0,0,0,0,0,0,0],"sum_hessian":[2.5784964E2,1.3838707E2,1.1946258E2,4.6231068E1,9.2156006E1,6.1197617E1,5.826496E1,1.0640411E1,3.5590656E1,6.404803E1,2.8107979E1,4.2677986E1,1.851963E1,4.2283585E1,1.5981377E1],"tree_param":{"num_deleted":"0","num_feature":"43","num_nodes":"15","size_leaf_vector":"1"}},{"base_weights":[5.0195237E-4,-3.3991545E-1,8.7972254E-1,-9.2580223E-1,-6.7493156E-2,5.4563326E-1,1.0938267E0,-1.3024575E-2,-7.7734445E-3,3.8323586E-3,-1.6744543E-3,7.860652E-3,1.6403486E-3,1.1846757E-2,5.959149E-3],"categories":[],"categories_nodes":[],"categories_segments":[],"categories_sizes":[],"default_left":[0,0,0,0,0,0,0,0,0,0,0,0,0,0,0],"id":49,"left_children":[1,3,5,7,9,11,13,-1,-1,-1,-1,-1,-1,-1,-1],"loss_changes":[7.767602E1,2.9798431E1,4.584545E0,2.3035622E0,5.8661704E0,2.6497831E0,1.2459221E0,0E0,0E0,0E0,0E0,0E0,0E0,0E0,0E0],"parents":[2147483647,0,0,1,1,2,2,3,3,4,4,5,5,6,6],"right_children":[2,4,6,8,10,12,14,-1,-1,-1,-1,-1,-1,-1,-1],"split_conditions":[6.905533E-1,2.617779E-1,8.222396E-1,5.997209E-2,1.5323529E1,7.343896E1,1E0,-1.3024575E-2,-7.7734445E-3,3.8323586E-3,-1.6744543E-3,7.860652E-3,1.6403486E-3,1.1846757E-2,5.959149E-3],"split_indices":[0,0,0,0,9,2,13,0,0,0,0,0,0,0,0],"split_type":[0,0,0,0,0,0,0,0,0,0,0,0,0,0,0],"sum_hessian":[2.575248E2,1.8608835E2,7.143646E1,5.8302116E1,1.2778624E2,2.928634E1,4.2150124E1,1.428531E1,4.4016804E1,2.2679619E1,1.0510662E2,1.7316122E1,1.1970221E1,3.4479668E1,7.670454E0],"tree_param":{"num_deleted":"0","num_feature":"43","num_nodes":"15","size_leaf_vector":"1"}},{"base_weights":[5.3169334E-4,-6.0255045E-1,4.898809E-1,-1.0060445E0,-3.2374623E-1,1.4313637E-1,9.8242915E-1,-1.38680255E-2,-8.575159E-3,-6.2477128E-3,-6.1124563E-4,-2.9704644E-4,5.784699E-3,8.2020415E-3,1.3391284E-2],"categories":[],"categories_nodes":[],"categories_segments":[],"categories_sizes":[],"default_left":[0,0,0,0,0,0,0,0,0,0,0,0,0,0,0],"id":50,"left_children":[1,3,5,7,9,11,13,-1,-1,-1,-1,-1,-1,-1,-1],"loss_changes":[7.649959E1,1.2736801E1,2.4299458E1,1.467289E0,5.506955E0,6.4242616E0,2.312828E0,0E0,0E0,0E0,0E0,0E0,0E0,0E0,0E0],"parents":[2147483647,0,0,1,1,2,2,3,3,4,4,5,5,6,6],"right_children":[2,4,6,8,10,12,14,-1,-1,-1,-1,-1,-1,-1,-1],"split_conditions":[4.7147927E-1,2.0990507E-1,7.502659E-1,1.63125E1,1.6967741E1,1.176E2,9.444227E-1,-1.38680255E-2,-8.575159E-3,-6.2477128E-3,-6.1124563E-4,-2.9704644E-4,5.784699E-3,8.2020415E-3,1.3391284E-2],"split_indices":[0,0,0,9,10,5,0,0,0,0,0,0,0,0,0],"split_type":[0,0,0,0,0,0,0,0,0,0,0,0,0,0,0],"sum_hessian":[2.5721698E2,1.1511544E2,1.4210153E2,4.5973198E1,6.914224E1,8.415126E1,5.7950268E1,1.0561494E1,3.5411705E1,3.1573145E1,3.75691E1,6.0902737E1,2.324852E1,4.2101955E1,1.5848313E1],"tree_param":{"num_deleted":"0","num_feature":"43","num_nodes":"15","size_leaf_vector":"1"}},{"base_weights":[5.1893614E-4,-5.9758216E-1,4.8576322E-1,-9.9931014E-1,-3.207077E-1,1.4178897E-1,9.756507E-1,-1.1536826E-2,-6.865267E-3,-1.1594093E-3,-7.073599E-3,2.8101865E-3,-3.8709512E-3,1.3381017E-2,8.149859E-3],"categories":[],"categories_nodes":[],"categories_segments":[],"categories_sizes":[],"default_left":[0,0,0,0,0,0,0,0,0,0,0,0,0,0,0],"id":51,"left_children":[1,3,5,7,9,11,13,-1,-1,-1,-1,-1,-1,-1,-1],"loss_changes":[7.513624E1,1.2577564E1,2.3946442E1,1.4696503E0,5.469661E0,6.378161E0,2.332943E0,0E0,0E0,0E0,0E0,0E0,0E0,0E0,0E0],"parents":[2147483647,0,0,1,1,2,2,3,3,4,4,5,5,6,6],"right_children":[2,4,6,8,10,12,14,-1,-1,-1,-1,-1,-1,-1,-1],"split_conditions":[4.7147927E-1,2.0990507E-1,7.502659E-1,7.421093E1,1.175E2,7.5073746E1,1.6764706E1,-1.1536826E-2,-6.865267E-3,-1.1594093E-3,-7.073599E-3,2.8101865E-3,-3.8709512E-3,1.3381017E-2,8.149859E-3],"split_indices":[0,0,0,2,6,8,10,0,0,0,0,0,0,0,0],"split_type":[0,0,0,0,0,0,0,0,0,0,0,0,0,0,0],"sum_hessian":[2.5688928E2,1.1496031E2,1.4192899E2,4.5840004E1,6.9120316E1,8.413974E1,5.778924E1,2.8892046E1,1.6947956E1,4.6038624E1,2.308169E1,6.697667E1,1.7163069E1,1.5498024E1,4.2291218E1],"tree_param":{"num_deleted":"0","num_feature":"43","num_nodes":"15","size_leaf_vector":"1"}},{"base_weights":[4.905874E-4,-3.313559E-1,8.612183E-1,-9.066617E-1,-6.567449E-2,5.314618E-1,1.0739039E0,-1.2841556E-2,-7.586582E-3,1.9810109E-4,-5.895757E-3,7.713673E-3,1.5214294E-3,1.2051817E-2,6.960184E-3],"categories":[],"categories_nodes":[],"categories_segments":[],"categories_sizes":[],"default_left":[0,0,0,0,0,0,0,0,0,0,0,0,0,0,0],"id":52,"left_children":[1,3,5,7,9,11,13,-1,-1,-1,-1,-1,-1,-1,-1],"loss_changes":[7.385413E1,2.846473E1,4.475342E0,2.3152847E0,5.7773986E0,2.6299572E0,1.2823448E0,0E0,0E0,0E0,0E0,0E0,0E0,0E0,0E0],"parents":[2147483647,0,0,1,1,2,2,3,3,4,4,5,5,6,6],"right_children":[2,4,6,8,10,12,14,-1,-1,-1,-1,-1,-1,-1,-1],"split_conditions":[6.905533E-1,2.617779E-1,8.222396E-1,5.997209E-2,7.594142E1,7.343896E1,2.0428572E1,-1.2841556E-2,-7.586582E-3,1.9810109E-4,-5.895757E-3,7.713673E-3,1.5214294E-3,1.2051817E-2,6.960184E-3],"split_indices":[0,0,0,0,8,2,10,0,0,0,0,0,0,0,0],"split_type":[0,0,0,0,0,0,0,0,0,0,0,0,0,0,0],"sum_hessian":[2.5656717E2,1.856185E2,7.094866E1,5.7877697E1,1.277408E2,2.919004E1,4.1758617E1,1.4138886E1,4.373881E1,1.10648544E2,1.709226E1,1.724784E1,1.19422E1,2.9367157E1,1.2391461E1],"tree_param":{"num_deleted":"0","num_feature":"43","num_nodes":"15","size_leaf_vector":"1"}},{"base_weights":[4.951068E-4,-4.924674E-1,5.717736E-1,-9.8627526E-1,-2.3999192E-1,1.9488905E-1,9.6255785E-1,-1.3703247E-2,-8.372701E-3,-6.107322E-4,-6.323593E-3,-2.9949271E-5,6.2833945E-3,8.002106E-3,1.3220728E-2],"categories":[],"categories_nodes":[],"categories_segments":[],"categories_sizes":[],"default_left":[0,0,0,0,0,0,0,0,0,0,0,0,0,0,0],"id":53,"left_children":[1,3,5,7,9,11,13,-1,-1,-1,-1,-1,-1,-1,-1],"loss_changes":[7.2728E1,1.7046604E1,1.743045E1,1.5180817E0,6.49366E0,5.3324976E0,2.354992E0,0E0,0E0,0E0,0E0,0E0,0E0,0E0,0E0],"parents":[2147483647,0,0,1,1,2,2,3,3,4,4,5,5,6,6],"right_children":[2,4,6,8,10,12,14,-1,-1,-1,-1,-1,-1,-1,-1],"split_conditions":[5.258538E-1,2.0990507E-1,7.502659E-1,1.63125E1,1.176E2,1.176E2,9.444227E-1,-1.3703247E-2,-8.372701E-3,-6.107322E-4,-6.323593E-3,-2.9949271E-5,6.2833945E-3,8.002106E-3,1.3220728E-2],"split_indices":[0,0,0,9,6,5,0,0,0,0,0,0,0,0,0],"split_type":[0,0,0,0,0,0,0,0,0,0,0,0,0,0,0],"sum_hessian":[2.5624988E2,1.3762752E2,1.1862235E2,4.557756E1,9.204996E1,6.1148018E1,5.7474335E1,1.0449153E1,3.5128407E1,6.401493E1,2.8035023E1,4.2663746E1,1.8484274E1,4.1816803E1,1.5657529E1],"tree_param":{"num_deleted":"0","num_feature":"43","num_nodes":"15","size_leaf_vector":"1"}},{"base_weights":[4.8535358E-4,-5.842314E-1,4.7468278E-1,-9.797451E-1,-3.1369466E-1,1.3933879E-1,9.5598394E-1,-1.3635508E-2,-8.311477E-3,-6.110715E-3,-5.474592E-4,-3.0387126E-4,5.673761E-3,1.3198114E-2,7.953537E-3],"categories":[],"categories_nodes":[],"categories_segments":[],"categories_sizes":[],"default_left":[0,0,0,0,0,0,0,0,0,0,0,0,0,0,0],"id":54,"left_children":[1,3,5,7,9,11,13,-1,-1,-1,-1,-1,-1,-1,-1],"loss_changes":[7.151253E1,1.205114E1,2.2853031E1,1.5154114E0,5.3612638E0,6.200095E0,2.3580666E0,0E0,0E0,0E0,0E0,0E0,0E0,0E0,0E0],"parents":[2147483647,0,0,1,1,2,2,3,3,4,4,5,5,6,6],"right_children":[2,4,6,8,10,12,14,-1,-1,-1,-1,-1,-1,-1,-1],"split_conditions":[4.7147927E-1,2.0990507E-1,7.502659E-1,1.63125E1,1.6967741E1,1.176E2,1.6764706E1,-1.3635508E-2,-8.311477E-3,-6.110715E-3,-5.474592E-4,-3.0387126E-4,5.673761E-3,1.3198114E-2,7.953537E-3],"split_indices":[0,0,0,9,10,5,10,0,0,0,0,0,0,0,0],"split_type":[0,0,0,0,0,0,0,0,0,0,0,0,0,0,0],"sum_hessian":[2.5591531E2,1.1449875E2,1.4141656E2,4.5442364E1,6.905638E1,8.4105804E1,5.7310757E1,1.040126E1,3.5041103E1,3.1510218E1,3.7546165E1,6.0890453E1,2.3215351E1,1.5342819E1,4.1967937E1],"tree_param":{"num_deleted":"0","num_feature":"43","num_nodes":"15","size_leaf_vector":"1"}},{"base_weights":[4.732768E-4,-5.7943916E-1,4.706947E-1,-9.73282E-1,-3.107548E-1,1.3802844E-1,9.493958E-1,-1.1290411E-2,-6.595246E-3,-6.055532E-3,-5.421437E-4,2.7500968E-3,-3.8225825E-3,7.869135E-3,1.3109837E-2],"categories":[],"categories_nodes":[],"categories_segments":[],"categories_sizes":[],"default_left":[0,0,0,0,0,0,0,0,0,0,0,0,0,0,0],"id":55,"left_children":[1,3,5,7,9,11,13,-1,-1,-1,-1,-1,-1,-1,-1],"loss_changes":[7.024025E1,1.1902771E1,2.2521158E1,1.5184021E0,5.2636514E0,6.169715E0,2.3848572E0,0E0,0E0,0E0,0E0,0E0,0E0,0E0,0E0],"parents":[2147483647,0,0,1,1,2,2,3,3,4,4,5,5,6,6],"right_children":[2,4,6,8,10,12,14,-1,-1,-1,-1,-1,-1,-1,-1],"split_conditions":[4.7147927E-1,2.0990507E-1,7.502659E-1,7.421093E1,1.6967741E1,7.5073746E1,9.444227E-1,-1.1290411E-2,-6.595246E-3,-6.055532E-3,-5.421437E-4,2.7500968E-3,-3.8225825E-3,7.869135E-3,1.3109837E-2],"split_indices":[0,0,0,2,10,8,0,0,0,0,0,0,0,0,0],"split_type":[0,0,0,0,0,0,0,0,0,0,0,0,0,0,0],"sum_hessian":[2.555852E2,1.1434011E2,1.412451E2,4.5306522E1,6.9033585E1,8.4093735E1,5.7151363E1,2.8539932E1,1.676659E1,3.148861E1,3.7544975E1,6.694093E1,1.7152802E1,4.1623703E1,1.5527659E1],"tree_param":{"num_deleted":"0","num_feature":"43","num_nodes":"15","size_leaf_vector":"1"}},{"base_weights":[4.516393E-4,-3.2037398E-1,8.3743674E-1,-8.822415E-1,-6.328332E-2,5.131862E-1,1.048412E0,-1.2613915E-2,-7.346261E-3,3.8089375E-3,-1.6183743E-3,7.5321603E-3,1.3559923E-3,1.1410667E-2,5.4893927E-3],"categories":[],"categories_nodes":[],"categories_segments":[],"categories_sizes":[],"default_left":[0,0,0,0,0,0,0,0,0,0,0,0,0,0,0],"id":56,"left_children":[1,3,5,7,9,11,13,-1,-1,-1,-1,-1,-1,-1,-1],"loss_changes":[6.9078865E1,2.6807577E1,4.3383904E0,2.3364677E0,5.69407E0,2.622025E0,1.3277855E0,0E0,0E0,0E0,0E0,0E0,0E0,0E0,0E0],"parents":[2147483647,0,0,1,1,2,2,3,3,4,4,5,5,6,6],"right_children":[2,4,6,8,10,12,14,-1,-1,-1,-1,-1,-1,-1,-1],"split_conditions":[6.905533E-1,2.617779E-1,8.222396E-1,5.997209E-2,1.5323529E1,7.343896E1,1E0,-1.2613915E-2,-7.346261E-3,3.8089375E-3,-1.6183743E-3,7.5321603E-3,1.3559923E-3,1.1410667E-2,5.4893927E-3],"split_indices":[0,0,0,0,9,2,13,0,0,0,0,0,0,0,0],"split_type":[0,0,0,0,0,0,0,0,0,0,0,0,0,0,0],"sum_hessian":[2.5525266E2,1.8496916E2,7.028349E1,5.7302925E1,1.2766624E2,2.905734E1,4.1226154E1,1.3943616E1,4.335931E1,2.2662588E1,1.0500365E2,1.7156342E1,1.1900998E1,3.3691643E1,7.5345087E0],"tree_param":{"num_deleted":"0","num_feature":"43","num_nodes":"15","size_leaf_vector":"1"}},{"base_weights":[4.796566E-4,-4.7703594E-1,5.545551E-1,-9.6075374E-1,-2.323434E-1,1.8966962E-1,9.368711E-1,-1.3480609E-2,-8.116195E-3,-5.572253E-4,-6.2039904E-3,-4.492589E-5,6.1568962E-3,7.7466913E-3,1.2996655E-2],"categories":[],"categories_nodes":[],"categories_segments":[],"categories_sizes":[],"default_left":[0,0,0,0,0,0,0,0,0,0,0,0,0,0,0],"id":57,"left_children":[1,3,5,7,9,11,13,-1,-1,-1,-1,-1,-1,-1,-1],"loss_changes":[6.797937E1,1.6110922E1,1.6413525E1,1.5651588E0,6.3369303E0,5.1400785E0,2.3959503E0,0E0,0E0,0E0,0E0,0E0,0E0,0E0,0E0],"parents":[2147483647,0,0,1,1,2,2,3,3,4,4,5,5,6,6],"right_children":[2,4,6,8,10,12,14,-1,-1,-1,-1,-1,-1,-1,-1],"split_conditions":[5.258538E-1,2.0990507E-1,7.502659E-1,1.63125E1,1.176E2,1.176E2,9.444227E-1,-1.3480609E-2,-8.116195E-3,-5.572253E-4,-6.2039904E-3,-4.492589E-5,6.1568962E-3,7.7466913E-3,1.2996655E-2],"split_indices":[0,0,0,9,6,5,0,0,0,0,0,0,0,0,0],"split_type":[0,0,0,0,0,0,0,0,0,0,0,0,0,0,0],"sum_hessian":[2.549336E2,1.3700146E2,1.1793213E2,4.5039413E1,9.196205E1,6.1107113E1,5.6825016E1,1.0286289E1,3.4753124E1,6.398384E1,2.7978214E1,4.265582E1,1.8451296E1,4.1435078E1,1.5389939E1],"tree_param":{"num_deleted":"0","num_feature":"43","num_nodes":"15","size_leaf_vector":"1"}},{"base_weights":[4.7016022E-4,-5.664268E-1,4.5996806E-1,-9.544776E-1,-3.0376166E-1,1.3557819E-1,9.305517E-1,-1.3416466E-2,-8.057279E-3,-4.2023524E-3,3.122728E-3,2.7111587E-3,-3.7914612E-3,1.2978121E-2,7.6922774E-3],"categories":[],"categories_nodes":[],"categories_segments":[],"categories_sizes":[],"default_left":[0,0,0,0,0,0,0,0,0,0,0,0,0,0,0],"id":58,"left_children":[1,3,5,7,9,11,13,-1,-1,-1,-1,-1,-1,-1,-1],"loss_changes":[6.683945E1,1.1418713E1,2.1507856E1,1.562561E0,5.1517186E0,6.037098E0,2.4178429E0,0E0,0E0,0E0,0E0,0E0,0E0,0E0,0E0],"parents":[2147483647,0,0,1,1,2,2,3,3,4,4,5,5,6,6],"right_children":[2,4,6,8,10,12,14,-1,-1,-1,-1,-1,-1,-1,-1],"split_conditions":[4.7147927E-1,2.0990507E-1,7.502659E-1,1.63125E1,2.034375E1,7.5073746E1,1.6764706E1,-1.3416466E-2,-8.057279E-3,-4.2023524E-3,3.122728E-3,2.7111587E-3,-3.7914612E-3,1.2978121E-2,7.6922774E-3],"split_indices":[0,0,0,9,10,8,10,0,0,0,0,0,0,0,0],"split_type":[0,0,0,0,0,0,0,0,0,0,0,0,0,0,0],"sum_hessian":[2.5459303E2,1.1387238E2,1.4072064E2,4.4902073E1,6.8970314E1,8.406191E1,5.665873E1,1.023714E1,3.4664932E1,5.827088E1,1.069943E1,6.691506E1,1.7146856E1,1.5142185E1,4.1516544E1],"tree_param":{"num_deleted":"0","num_feature":"43","num_nodes":"15","size_leaf_vector":"1"}},{"base_weights":[4.5466534E-4,-3.1230238E-1,8.2007027E-1,-8.6455214E-1,-6.140888E-2,4.997183E-1,1.0299234E0,-1.2446461E-2,-7.1739163E-3,3.7782085E-3,-1.5888887E-3,7.3928516E-3,1.2429868E-3,1.1630967E-2,6.518656E-3],"categories":[],"categories_nodes":[],"categories_segments":[],"categories_sizes":[],"default_left":[0,0,0,0,0,0,0,0,0,0,0,0,0,0,0],"id":59,"left_children":[1,3,5,7,9,11,13,-1,-1,-1,-1,-1,-1,-1,-1],"loss_changes":[6.569061E1,2.564697E1,4.243557E0,2.343895E0,5.566956E0,2.6023326E0,1.3474541E0,0E0,0E0,0E0,0E0,0E0,0E0,0E0,0E0],"parents":[2147483647,0,0,1,1,2,2,3,3,4,4,5,5,6,6],"right_children":[2,4,6,8,10,12,14,-1,-1,-1,-1,-1,-1,-1,-1],"split_conditions":[6.905533E-1,2.617779E-1,8.222396E-1,5.997209E-2,1.5323529E1,7.343896E1,2.0428572E1,-1.2446461E-2,-7.1739163E-3,3.7782085E-3,-1.5888887E-3,7.3928516E-3,1.2429868E-3,1.1630967E-2,6.518656E-3],"split_indices":[0,0,0,0,9,2,10,0,0,0,0,0,0,0,0],"split_type":[0,0,0,0,0,0,0,0,0,0,0,0,0,0,0],"sum_hessian":[2.5426392E2,1.844852E2,6.9778725E1,5.6867165E1,1.27618034E2,2.8956444E1,4.082228E1,1.3790523E1,4.307664E1,2.2656315E1,1.04961716E2,1.708485E1,1.1871594E1,2.8652683E1,1.21696E1],"tree_param":{"num_deleted":"0","num_feature":"43","num_nodes":"15","size_leaf_vector":"1"}},{"base_weights":[4.8804356E-4,-5.579476E-1,4.5299664E-1,-9.423848E-1,-2.9910678E-1,1.3396531E-1,9.183195E-1,-1.1001738E-2,-6.2681315E-3,-1.0122992E-3,-6.7472146E-3,-3.2541255E-4,5.5458657E-3,7.559087E-3,1.28423795E-2],"categories":[],"categories_nodes":[],"categories_segments":[],"categories_sizes":[],"default_left":[0,0,0,0,0,0,0,0,0,0,0,0,0,0,0],"id":60,"left_children":[1,3,5,7,9,11,13,-1,-1,-1,-1,-1,-1,-1,-1],"loss_changes":[6.4675735E1,1.1118011E1,2.0865086E1,1.5826111E0,5.1292834E0,5.974267E0,2.4365616E0,0E0,0E0,0E0,0E0,0E0,0E0,0E0,0E0],"parents":[2147483647,0,0,1,1,2,2,3,3,4,4,5,5,6,6],"right_children":[2,4,6,8,10,12,14,-1,-1,-1,-1,-1,-1,-1,-1],"split_conditions":[4.7147927E-1,2.0990507E-1,7.502659E-1,7.421093E1,1.175E2,1.176E2,9.444227E-1,-1.1001738E-2,-6.2681315E-3,-1.0122992E-3,-6.7472146E-3,-3.2541255E-4,5.5458657E-3,7.559087E-3,1.28423795E-2],"split_indices":[0,0,0,2,6,5,0,0,0,0,0,0,0,0,0],"split_type":[0,0,0,0,0,0,0,0,0,0,0,0,0,0,0],"sum_hessian":[2.5394173E2,1.1356252E2,1.4037921E2,4.4632446E1,6.893008E1,8.404487E1,5.6334335E1,2.809724E1,1.6535206E1,4.5978E1,2.2952076E1,6.087114E1,2.317373E1,4.1140255E1,1.5194082E1],"tree_param":{"num_deleted":"0","num_feature":"43","num_nodes":"15","size_leaf_vector":"1"}},{"base_weights":[4.865801E-4,-4.6211648E-1,5.3795314E-1,-9.362001E-1,-2.249089E-1,1.8459605E-1,9.121764E-1,-1.3270614E-2,-7.868617E-3,-5.166824E-4,-6.0637733E-3,-5.920042E-5,6.0334844E-3,1.2811516E-2,7.507804E-3],"categories":[],"categories_nodes":[],"categories_segments":[],"categories_sizes":[],"default_left":[0,0,0,0,0,0,0,0,0,0,0,0,0,0,0],"id":61,"left_children":[1,3,5,7,9,11,13,-1,-1,-1,-1,-1,-1,-1,-1],"loss_changes":[6.3549988E1,1.5237078E1,1.5465858E1,1.6112862E0,6.1061983E0,4.9550366E0,2.4424706E0,0E0,0E0,0E0,0E0,0E0,0E0,0E0,0E0],"parents":[2147483647,0,0,1,1,2,2,3,3,4,4,5,5,6,6],"right_children":[2,4,6,8,10,12,14,-1,-1,-1,-1,-1,-1,-1,-1],"split_conditions":[5.258538E-1,2.0990507E-1,7.502659E-1,1.63125E1,1.176E2,1.176E2,1.6764706E1,-1.3270614E-2,-7.868617E-3,-5.166824E-4,-6.0637733E-3,-5.920042E-5,6.0334844E-3,1.2811516E-2,7.507804E-3],"split_indices":[0,0,0,9,6,5,10,0,0,0,0,0,0,0,0],"split_type":[0,0,0,0,0,0,0,0,0,0,0,0,0,0,0],"sum_hessian":[2.5359703E2,1.3636578E2,1.1723125E2,4.4493736E1,9.187204E1,6.1064705E1,5.6166546E1,1.012015E1,3.4373585E1,6.396041E1,2.791163E1,4.2647575E1,1.8417128E1,1.4980636E1,4.118591E1],"tree_param":{"num_deleted":"0","num_feature":"43","num_nodes":"15","size_leaf_vector":"1"}},{"base_weights":[4.7708757E-4,-5.492055E-1,4.4575998E-1,-9.301571E-1,-2.941019E-1,1.319197E-1,9.060104E-1,-1.320976E-2,-7.8118383E-3,-5.842108E-3,-4.2474875E-4,2.6594852E-3,-3.7690073E-3,7.43423E-3,1.2741764E-2],"categories":[],"categories_nodes":[],"categories_segments":[],"categories_sizes":[],"default_left":[0,0,0,0,0,0,0,0,0,0,0,0,0,0,0],"id":62,"left_children":[1,3,5,7,9,11,13,-1,-1,-1,-1,-1,-1,-1,-1],"loss_changes":[6.2477802E1,1.0828239E1,2.0250086E1,1.6087074E0,5.0765367E0,5.8980656E0,2.4649239E0,0E0,0E0,0E0,0E0,0E0,0E0,0E0,0E0],"parents":[2147483647,0,0,1,1,2,2,3,3,4,4,5,5,6,6],"right_children":[2,4,6,8,10,12,14,-1,-1,-1,-1,-1,-1,-1,-1],"split_conditions":[4.7147927E-1,2.0990507E-1,7.502659E-1,1.63125E1,1.6967741E1,7.5073746E1,9.444227E-1,-1.320976E-2,-7.8118383E-3,-5.842108E-3,-4.2474875E-4,2.6594852E-3,-3.7690073E-3,7.43423E-3,1.2741764E-2],"split_indices":[0,0,0,9,10,8,0,0,0,0,0,0,0,0,0],"split_type":[0,0,0,0,0,0,0,0,0,0,0,0,0,0,0],"sum_hessian":[2.5325685E2,1.13237114E2,1.4001973E2,4.4354862E1,6.8882256E1,8.401639E1,5.600334E1,1.0069961E1,3.42849E1,3.1380701E1,3.7501553E1,6.6877464E1,1.7138927E1,4.094202E1,1.5061321E1],"tree_param":{"num_deleted":"0","num_feature":"43","num_nodes":"15","size_leaf_vector":"1"}},{"base_weights":[4.409012E-4,-3.0197018E-1,7.9778427E-1,-8.416991E-1,-5.9115887E-2,6.468239E-1,1.2683988E-2,-1.2238622E-2,-6.948105E-3,-1.1600469E-3,6.9143376E-3,7.619694E-3,1.265711E-3],"categories":[],"categories_nodes":[],"categories_segments":[],"categories_sizes":[],"default_left":[0,0,0,0,0,0,0,0,0,0,0,0,0],"id":63,"left_children":[1,3,5,7,9,11,-1,-1,-1,-1,-1,-1,-1],"loss_changes":[6.146658E1,2.4175571E1,4.159527E0,2.3649902E0,5.5686455E0,3.2050896E0,0E0,0E0,0E0,0E0,0E0,0E0,0E0],"parents":[2147483647,0,0,1,1,2,2,3,3,4,4,5,5],"right_children":[2,4,6,8,10,12,-1,-1,-1,-1,-1,-1,-1],"split_conditions":[6.905533E-1,2.617779E-1,9.444227E-1,5.997209E-2,7.81155E1,2.0121212E1,1.2683988E-2,-1.2238622E-2,-6.948105E-3,-1.1600469E-3,6.9143376E-3,7.619694E-3,1.265711E-3],"split_indices":[0,0,0,0,2,9,0,0,0,0,0,0,0],"split_type":[0,0,0,0,0,0,0,0,0,0,0,0,0],"sum_hessian":[2.5291623E2,1.8381963E2,6.909661E1,5.627841E1,1.27541214E2,5.4113037E1,1.4983573E1,1.3589763E1,4.2688652E1,1.1934106E2,8.200156E0,4.392637E1,1.0186669E1],"tree_param":{"num_deleted":"0","num_feature":"43","num_nodes":"13","size_leaf_vector":"1"}},{"base_weights":[4.696892E-4,-5.411895E-1,4.3911853E-1,-9.1850185E-1,-2.898836E-1,1.3031137E-1,8.944851E-1,-1.3110068E-2,-7.694886E-3,-5.7755196E-3,-4.062403E-4,2.6315707E-3,-3.7398664E-3,1.2653113E-2,7.329492E-3],"categories":[],"categories_nodes":[],"categories_segments":[],"categories_sizes":[],"default_left":[0,0,0,0,0,0,0,0,0,0,0,0,0,0,0],"id":64,"left_children":[1,3,5,7,9,11,13,-1,-1,-1,-1,-1,-1,-1,-1],"loss_changes":[6.0492374E1,1.053606E1,1.9665329E1,1.6280098E0,4.9844155E0,5.7927823E0,2.4676628E0,0E0,0E0,0E0,0E0,0E0,0E0,0E0,0E0],"parents":[2147483647,0,0,1,1,2,2,3,3,4,4,5,5,6,6],"right_children":[2,4,6,8,10,12,14,-1,-1,-1,-1,-1,-1,-1,-1],"split_conditions":[4.7147927E-1,2.0990507E-1,7.502659E-1,1.63125E1,1.6967741E1,7.5073746E1,1.6764706E1,-1.3110068E-2,-7.694886E-3,-5.7755196E-3,-4.062403E-4,2.6315707E-3,-3.7398664E-3,1.2653113E-2,7.329492E-3],"split_indices":[0,0,0,9,10,8,10,0,0,0,0,0,0,0,0],"split_type":[0,0,0,0,0,0,0,0,0,0,0,0,0,0,0],"sum_hessian":[2.5259929E2,1.1292354E2,1.3967575E2,4.408264E1,6.88409E1,8.399837E1,5.5677387E1,9.984711E0,3.409793E1,3.1346775E1,3.7494118E1,6.686302E1,1.713535E1,1.4820966E1,4.0856422E1],"tree_param":{"num_deleted":"0","num_feature":"43","num_nodes":"15","size_leaf_vector":"1"}},{"base_weights":[4.3372402E-4,-4.479338E-1,5.2197844E-1,-9.1262126E-1,-2.1801022E-1,1.7963345E-1,8.884806E-1,-1.07268775E-2,-5.9476346E-3,-4.7243023E-4,-5.947584E-3,-8.787169E-5,5.9440425E-3,7.2629577E-3,1.25874365E-2],"categories":[],"categories_nodes":[],"categories_segments":[],"categories_sizes":[],"default_left":[0,0,0,0,0,0,0,0,0,0,0,0,0,0,0],"id":65,"left_children":[1,3,5,7,9,11,13,-1,-1,-1,-1,-1,-1,-1,-1],"loss_changes":[5.9457542E1,1.4408892E1,1.458802E1,1.648632E0,5.941029E0,4.852615E0,2.4794579E0,0E0,0E0,0E0,0E0,0E0,0E0,0E0,0E0],"parents":[2147483647,0,0,1,1,2,2,3,3,4,4,5,5,6,6],"right_children":[2,4,6,8,10,12,14,-1,-1,-1,-1,-1,-1,-1,-1],"split_conditions":[5.258538E-1,2.0990507E-1,7.502659E-1,7.421093E1,1.176E2,1.176E2,9.444227E-1,-1.07268775E-2,-5.9476346E-3,-4.7243023E-4,-5.947584E-3,-8.787169E-5,5.9440425E-3,7.2629577E-3,1.25874365E-2],"split_indices":[0,0,0,2,6,5,0,0,0,0,0,0,0,0,0],"split_type":[0,0,0,0,0,0,0,0,0,0,0,0,0,0,0],"sum_hessian":[2.5226201E2,1.3572313E2,1.1653887E2,4.394294E1,9.17802E1,6.102568E1,5.5513187E1,2.7646168E1,1.6296772E1,6.392882E1,2.7851372E1,4.2635975E1,1.8389708E1,4.0663208E1,1.48499775E1],"tree_param":{"num_deleted":"0","num_feature":"43","num_nodes":"15","size_leaf_vector":"1"}},{"base_weights":[4.4083182E-4,-2.9438034E-1,7.8136647E-1,-8.2496536E-1,-5.740447E-2,6.313631E-1,1.2531775E-2,-1.2085532E-2,-6.7837527E-3,-1.1395756E-3,6.883299E-3,7.460937E-3,1.1497281E-3],"categories":[],"categories_nodes":[],"categories_segments":[],"categories_sizes":[],"default_left":[0,0,0,0,0,0,0,0,0,0,0,0,0],"id":66,"left_children":[1,3,5,7,9,11,-1,-1,-1,-1,-1,-1,-1],"loss_changes":[5.845918E1,2.3129026E1,4.1337357E0,2.3759232E0,5.4974165E0,3.1618328E0,0E0,0E0,0E0,0E0,0E0,0E0,0E0],"parents":[2147483647,0,0,1,1,2,2,3,3,4,4,5,5],"right_children":[2,4,6,8,10,12,-1,-1,-1,-1,-1,-1,-1],"split_conditions":[6.905533E-1,2.617779E-1,9.444227E-1,5.997209E-2,7.81155E1,2.0121212E1,1.2531775E-2,-1.2085532E-2,-6.7837527E-3,-1.1395756E-3,6.883299E-3,7.460937E-3,1.1497281E-3],"split_indices":[0,0,0,0,2,9,0,0,0,0,0,0,0],"split_type":[0,0,0,0,0,0,0,0,0,0,0,0,0],"sum_hessian":[2.519136E2,1.8332597E2,6.858762E1,5.5833805E1,1.2749217E2,5.3816017E1,1.4771608E1,1.3434576E1,4.239923E1,1.1929274E2,8.1994295E0,4.366892E1,1.01471E1],"tree_param":{"num_deleted":"0","num_feature":"43","num_nodes":"13","size_leaf_vector":"1"}},{"base_weights":[4.6922165E-4,-5.2926433E-1,4.292657E-1,-9.011836E-1,-2.835837E-1,1.2796004E-1,8.7726E-1,-1.29763745E-2,-7.5151827E-3,-3.979105E-3,3.1838703E-3,2.5957434E-3,-3.7157633E-3,1.2500589E-2,7.1554943E-3],"categories":[],"categories_nodes":[],"categories_segments":[],"categories_sizes":[],"default_left":[0,0,0,0,0,0,0,0,0,0,0,0,0,0,0],"id":67,"left_children":[1,3,5,7,9,11,13,-1,-1,-1,-1,-1,-1,-1,-1],"loss_changes":[5.760356E1,1.0110348E1,1.8805538E1,1.6752777E0,4.928785E0,5.6824865E0,2.4926872E0,0E0,0E0,0E0,0E0,0E0,0E0,0E0,0E0],"parents":[2147483647,0,0,1,1,2,2,3,3,4,4,5,5,6,6],"right_children":[2,4,6,8,10,12,14,-1,-1,-1,-1,-1,-1,-1,-1],"split_conditions":[4.7147927E-1,2.0990507E-1,7.502659E-1,1.63125E1,2.034375E1,7.5073746E1,1.6764706E1,-1.29763745E-2,-7.5151827E-3,-3.979105E-3,3.1838703E-3,2.5957434E-3,-3.7157633E-3,1.2500589E-2,7.1554943E-3],"split_indices":[0,0,0,9,10,8,10,0,0,0,0,0,0,0,0],"split_type":[0,0,0,0,0,0,0,0,0,0,0,0,0,0,0],"sum_hessian":[2.5159479E2,1.124456E2,1.3914919E2,4.3669376E1,6.877622E1,8.39637E1,5.518548E1,9.865647E0,3.380373E1,5.8083874E1,1.0692351E1,6.6834885E1,1.7128815E1,1.4659663E1,4.0525818E1],"tree_param":{"num_deleted":"0","num_feature":"43","num_nodes":"15","size_leaf_vector":"1"}},{"base_weights":[4.5448545E-4,-4.3757814E-1,5.104674E-1,-8.954551E-1,-2.1294822E-1,1.7606911E-1,8.7140787E-1,-1.2919954E-2,-7.4613187E-3,-4.43013E-4,-5.855821E-3,-1.03835446E-4,5.8701476E-3,7.0959628E-3,1.2439021E-2],"categories":[],"categories_nodes":[],"categories_segments":[],"categories_sizes":[],"default_left":[0,0,0,0,0,0,0,0,0,0,0,0,0,0,0],"id":68,"left_children":[1,3,5,7,9,11,13,-1,-1,-1,-1,-1,-1,-1,-1],"loss_changes":[5.6578415E1,1.382239E1,1.3969948E1,1.6726952E0,5.8005767E0,4.756169E0,2.4939156E0,0E0,0E0,0E0,0E0,0E0,0E0,0E0,0E0],"parents":[2147483647,0,0,1,1,2,2,3,3,4,4,5,5,6,6],"right_children":[2,4,6,8,10,12,14,-1,-1,-1,-1,-1,-1,-1,-1],"split_conditions":[5.258538E-1,2.0990507E-1,7.502659E-1,1.63125E1,1.176E2,1.176E2,9.444227E-1,-1.2919954E-2,-7.4613187E-3,-4.43013E-4,-5.855821E-3,-1.03835446E-4,5.8701476E-3,7.0959628E-3,1.2439021E-2],"split_indices":[0,0,0,9,6,5,0,0,0,0,0,0,0,0,0],"split_type":[0,0,0,0,0,0,0,0,0,0,0,0,0,0,0],"sum_hessian":[2.5125815E2,1.3524385E2,1.1601429E2,4.3529217E1,9.171463E1,6.0993668E1,5.5020622E1,9.814268E0,3.371495E1,6.3909374E1,2.780526E1,4.2627583E1,1.8366085E1,4.0383156E1,1.4637465E1],"tree_param":{"num_deleted":"0","num_feature":"43","num_nodes":"15","size_leaf_vector":"1"}},{"base_weights":[4.4560112E-4,-5.2097666E-1,4.2238674E-1,-8.8977665E-1,-2.7873576E-1,1.259257E-1,8.656854E-1,-1.0514652E-2,-5.7053524E-3,-5.6262547E-3,-3.335974E-4,-3.502731E-4,5.338587E-3,1.23941535E-2,7.0408625E-3],"categories":[],"categories_nodes":[],"categories_segments":[],"categories_sizes":[],"default_left":[0,0,0,0,0,0,0,0,0,0,0,0,0,0,0],"id":69,"left_children":[1,3,5,7,9,11,13,-1,-1,-1,-1,-1,-1,-1,-1],"loss_changes":[5.564226E1,9.85791E0,1.8262129E1,1.6913567E0,4.838648E0,5.595574E0,2.5004044E0,0E0,0E0,0E0,0E0,0E0,0E0,0E0,0E0],"parents":[2147483647,0,0,1,1,2,2,3,3,4,4,5,5,6,6],"right_children":[2,4,6,8,10,12,14,-1,-1,-1,-1,-1,-1,-1,-1],"split_conditions":[4.7147927E-1,2.0990507E-1,7.502659E-1,7.421093E1,1.6967741E1,1.176E2,1.6764706E1,-1.0514652E-2,-5.7053524E-3,-5.6262547E-3,-3.335974E-4,-3.502731E-4,5.338587E-3,1.23941535E-2,7.0408625E-3],"split_indices":[0,0,0,2,10,5,10,0,0,0,0,0,0,0,0],"split_type":[0,0,0,0,0,0,0,0,0,0,0,0,0,0,0],"sum_hessian":[2.5090825E2,1.12119545E2,1.387887E2,4.3388916E1,6.873063E1,8.393816E1,5.4850533E1,2.7279053E1,1.6109861E1,3.1265202E1,3.746543E1,6.084532E1,2.3092842E1,1.4544294E1,4.030624E1],"tree_param":{"num_deleted":"0","num_feature":"43","num_nodes":"15","size_leaf_vector":"1"}},{"base_weights":[4.509524E-4,-2.8460702E-1,7.602125E-1,-8.034498E-1,-5.5170663E-2,6.109804E-1,1.2348584E-2,-1.1894641E-2,-6.570402E-3,-1.1151495E-3,6.8737054E-3,7.2540245E-3,9.861696E-4],"categories":[],"categories_nodes":[],"categories_segments":[],"categories_sizes":[],"default_left":[0,0,0,0,0,0,0,0,0,0,0,0,0],"id":70,"left_children":[1,3,5,7,9,11,-1,-1,-1,-1,-1,-1,-1],"loss_changes":[5.469909E1,2.1818504E1,4.126335E0,2.3968925E0,5.449412E0,3.1179008E0,0E0,0E0,0E0,0E0,0E0,0E0,0E0],"parents":[2147483647,0,0,1,1,2,2,3,3,4,4,5,5],"right_children":[2,4,6,8,10,12,-1,-1,-1,-1,-1,-1,-1],"split_conditions":[6.905533E-1,2.617779E-1,9.444227E-1,5.997209E-2,7.81155E1,2.0121212E1,1.2348584E-2,-1.1894641E-2,-6.570402E-3,-1.1151495E-3,6.8737054E-3,7.2540245E-3,9.861696E-4],"split_indices":[0,0,0,0,2,9,0,0,0,0,0,0,0],"split_type":[0,0,0,0,0,0,0,0,0,0,0,0,0],"sum_hessian":[2.5056392E2,1.8265736E2,6.790655E1,5.5239044E1,1.2741832E2,5.340338E1,1.4503169E1,1.3230941E1,4.2008106E1,1.19221565E2,8.196754E0,4.3314503E1,1.008888E1],"tree_param":{"num_deleted":"0","num_feature":"43","num_nodes":"13","size_leaf_vector":"1"}},{"base_weights":[4.7890085E-4,-5.133919E-1,4.1617623E-1,-8.7871677E-1,-2.747636E-1,1.2447858E-1,8.547643E-1,-1.27935335E-2,-7.287086E-3,-3.876483E-3,3.1837346E-3,2.8568304E-3,-2.7743732E-3,6.9330432E-3,1.2296077E-2],"categories":[],"categories_nodes":[],"categories_segments":[],"categories_sizes":[],"default_left":[0,0,0,0,0,0,0,0,0,0,0,0,0,0,0],"id":71,"left_children":[1,3,5,7,9,11,13,-1,-1,-1,-1,-1,-1,-1,-1],"loss_changes":[5.388303E1,9.5923195E0,1.7733042E1,1.7189484E0,4.789449E0,5.580944E0,2.5080948E0,0E0,0E0,0E0,0E0,0E0,0E0,0E0,0E0],"parents":[2147483647,0,0,1,1,2,2,3,3,4,4,5,5,6,6],"right_children":[2,4,6,8,10,12,14,-1,-1,-1,-1,-1,-1,-1,-1],"split_conditions":[4.7147927E-1,2.0990507E-1,7.502659E-1,1.63125E1,2.034375E1,7.4299835E1,9.444227E-1,-1.27935335E-2,-7.287086E-3,-3.876483E-3,3.1837346E-3,2.8568304E-3,-2.7743732E-3,6.9330432E-3,1.2296077E-2],"split_indices":[0,0,0,9,10,8,0,0,0,0,0,0,0,0,0],"split_type":[0,0,0,0,0,0,0,0,0,0,0,0,0,0,0],"sum_hessian":[2.5024377E2,1.1180242E2,1.3844135E2,4.3114487E1,6.8687935E1,8.391481E1,5.4526535E1,9.694419E0,3.342007E1,5.7996582E1,1.0691354E1,6.0098927E1,2.3815882E1,4.0102417E1,1.4424116E1],"tree_param":{"num_deleted":"0","num_feature":"43","num_nodes":"15","size_leaf_vector":"1"}},{"base_weights":[4.6936472E-4,-4.2405927E-1,4.9541384E-1,-8.73179E-1,-2.0625512E-1,1.7129488E-1,8.491826E-1,-1.2739762E-2,-7.235021E-3,-3.9824803E-4,-5.7472647E-3,-1.1681085E-4,5.7535204E-3,1.2250786E-2,6.873576E-3],"categories":[],"categories_nodes":[],"categories_segments":[],"categories_sizes":[],"default_left":[0,0,0,0,0,0,0,0,0,0,0,0,0,0,0],"id":72,"left_children":[1,3,5,7,9,11,13,-1,-1,-1,-1,-1,-1,-1,-1],"loss_changes":[5.2929104E1,1.3084028E1,1.3190409E1,1.7162857E0,5.657201E0,4.5867476E0,2.5252151E0,0E0,0E0,0E0,0E0,0E0,0E0,0E0,0E0],"parents":[2147483647,0,0,1,1,2,2,3,3,4,4,5,5,6,6],"right_children":[2,4,6,8,10,12,14,-1,-1,-1,-1,-1,-1,-1,-1],"split_conditions":[5.258538E-1,2.0990507E-1,7.502659E-1,1.63125E1,1.176E2,1.176E2,1.6764706E1,-1.2739762E-2,-7.235021E-3,-3.9824803E-4,-5.7472647E-3,-1.1681085E-4,5.7535204E-3,1.2250786E-2,6.873576E-3],"split_indices":[0,0,0,9,6,5,10,0,0,0,0,0,0,0,0],"split_type":[0,0,0,0,0,0,0,0,0,0,0,0,0,0,0],"sum_hessian":[2.4990184E2,1.345971E2,1.1530473E2,4.297407E1,9.162303E1,6.0948555E1,5.435618E1,9.642465E0,3.3331604E1,6.3878582E1,2.7744453E1,4.261953E1,1.8329025E1,1.4380942E1,3.9975235E1],"tree_param":{"num_deleted":"0","num_feature":"43","num_nodes":"15","size_leaf_vector":"1"}},{"base_weights":[4.6021503E-4,-5.053724E-1,4.0952533E-1,-8.676877E-1,-2.700677E-1,1.2250923E-1,8.43569E-1,-1.0310537E-2,-5.469789E-3,-5.5052275E-3,-2.815978E-4,2.5177049E-3,-3.678265E-3,6.818887E-3,1.2209045E-2],"categories":[],"categories_nodes":[],"categories_segments":[],"categories_sizes":[],"default_left":[0,0,0,0,0,0,0,0,0,0,0,0,0,0,0],"id":73,"left_children":[1,3,5,7,9,11,13,-1,-1,-1,-1,-1,-1,-1,-1],"loss_changes":[5.2051594E1,9.35467E0,1.722299E1,1.7326088E0,4.709272E0,5.4730506E0,2.5345497E0,0E0,0E0,0E0,0E0,0E0,0E0,0E0,0E0],"parents":[2147483647,0,0,1,1,2,2,3,3,4,4,5,5,6,6],"right_children":[2,4,6,8,10,12,14,-1,-1,-1,-1,-1,-1,-1,-1],"split_conditions":[4.7147927E-1,2.0990507E-1,7.502659E-1,7.421093E1,1.6967741E1,7.5073746E1,9.444227E-1,-1.0310537E-2,-5.469789E-3,-5.5052275E-3,-2.815978E-4,2.5177049E-3,-3.678265E-3,6.818887E-3,1.2209045E-2],"split_indices":[0,0,0,2,10,8,0,0,0,0,0,0,0,0,0],"split_type":[0,0,0,0,0,0,0,0,0,0,0,0,0,0,0],"sum_hessian":[2.4955585E2,1.1147507E2,1.3808078E2,4.2833614E1,6.864145E1,8.388991E1,5.419087E1,2.691065E1,1.5922963E1,3.1197266E1,3.7444187E1,6.6773705E1,1.7116207E1,3.9901173E1,1.4289695E1],"tree_param":{"num_deleted":"0","num_feature":"43","num_nodes":"15","size_leaf_vector":"1"}},{"base_weights":[4.4178558E-4,-2.7519995E-1,7.39795E-1,-7.8262585E-1,-5.306652E-2,5.920357E-1,1.215831E-2,-1.17123425E-2,-6.363558E-3,-1.0919041E-3,6.8616895E-3,7.063053E-3,8.2915265E-4],"categories":[],"categories_nodes":[],"categories_segments":[],"categories_sizes":[],"default_left":[0,0,0,0,0,0,0,0,0,0,0,0,0],"id":74,"left_children":[1,3,5,7,9,11,-1,-1,-1,-1,-1,-1,-1],"loss_changes":[5.1195484E1,2.0584332E1,4.0787315E0,2.41753E0,5.3998466E0,3.08358E0,0E0,0E0,0E0,0E0,0E0,0E0,0E0],"parents":[2147483647,0,0,1,1,2,2,3,3,4,4,5,5],"right_children":[2,4,6,8,10,12,-1,-1,-1,-1,-1,-1,-1],"split_conditions":[6.905533E-1,2.617779E-1,9.444227E-1,5.997209E-2,7.81155E1,2.0121212E1,1.215831E-2,-1.17123425E-2,-6.363558E-3,-1.0919041E-3,6.8616895E-3,7.063053E-3,8.2915265E-4],"split_indices":[0,0,0,0,2,9,0,0,0,0,0,0,0],"split_type":[0,0,0,0,0,0,0,0,0,0,0,0,0],"sum_hessian":[2.4920972E2,1.8198924E2,6.7220474E1,5.4643127E1,1.2734612E2,5.3010075E1,1.42104E1,1.3026674E1,4.161645E1,1.191522E2,8.193925E0,4.297683E1,1.0033247E1],"tree_param":{"num_deleted":"0","num_feature":"43","num_nodes":"13","size_leaf_vector":"1"}},{"base_weights":[4.69505E-4,-4.9803615E-1,4.0348172E-1,-8.569771E-1,-2.6623127E-1,1.2102917E-1,8.330788E-1,-1.2620034E-2,-7.065886E-3,-3.7769836E-3,3.1822114E-3,-3.6963317E-4,5.2222684E-3,1.2523346E-2,6.8472573E-3],"categories":[],"categories_nodes":[],"categories_segments":[],"categories_sizes":[],"default_left":[0,0,0,0,0,0,0,0,0,0,0,0,0,0,0],"id":75,"left_children":[1,3,5,7,9,11,13,-1,-1,-1,-1,-1,-1,-1,-1],"loss_changes":[5.040466E1,9.103817E0,1.673301E1,1.7615299E0,4.654321E0,5.398911E0,2.55476E0,0E0,0E0,0E0,0E0,0E0,0E0,0E0,0E0],"parents":[2147483647,0,0,1,1,2,2,3,3,4,4,5,5,6,6],"right_children":[2,4,6,8,10,12,14,-1,-1,-1,-1,-1,-1,-1,-1],"split_conditions":[4.7147927E-1,2.0990507E-1,7.502659E-1,1.63125E1,2.034375E1,1.176E2,1.632353E1,-1.2620034E-2,-7.065886E-3,-3.7769836E-3,3.1822114E-3,-3.6963317E-4,5.2222684E-3,1.2523346E-2,6.8472573E-3],"split_indices":[0,0,0,9,10,5,10,0,0,0,0,0,0,0,0],"split_type":[0,0,0,0,0,0,0,0,0,0,0,0,0,0,0],"sum_hessian":[2.488892E2,1.1115738E2,1.3773183E2,4.2559166E1,6.859822E1,8.38703E1,5.3861523E1,9.52224E0,3.3036926E1,5.7907772E1,1.0690444E1,6.0825108E1,2.3045187E1,1.2132544E1,4.172898E1],"tree_param":{"num_deleted":"0","num_feature":"43","num_nodes":"15","size_leaf_vector":"1"}},{"base_weights":[4.8154913E-4,-4.1099718E-1,4.808354E-1,-8.516163E-1,-1.9979814E-1,2.3974389E-1,9.382136E-1,-1.2568699E-2,-7.0155114E-3,-3.5521694E-4,-5.6423405E-3,7.0609944E-3,8.2112424E-4,1.0374365E-2,4.2650304E-3],"categories":[],"categories_nodes":[],"categories_segments":[],"categories_sizes":[],"default_left":[0,0,0,0,0,0,0,0,0,0,0,0,0,0,0],"id":76,"left_children":[1,3,5,7,9,11,13,-1,-1,-1,-1,-1,-1,-1,-1],"loss_changes":[4.9521896E1,1.2387947E1,1.2522076E1,1.7587395E0,5.51955E0,5.6054277E0,1.566021E0,0E0,0E0,0E0,0E0,0E0,0E0,0E0,0E0],"parents":[2147483647,0,0,1,1,2,2,3,3,4,4,5,5,6,6],"right_children":[2,4,6,8,10,12,14,-1,-1,-1,-1,-1,-1,-1,-1],"split_conditions":[5.258538E-1,2.0990507E-1,8.222396E-1,1.63125E1,1.176E2,1.5424242E1,1E0,-1.2568699E-2,-7.0155114E-3,-3.5521694E-4,-5.6423405E-3,7.0609944E-3,8.2112424E-4,1.0374365E-2,4.2650304E-3],"split_indices":[0,0,0,9,6,9,13,0,0,0,0,0,0,0,0],"split_type":[0,0,0,0,0,0,0,0,0,0,0,0,0,0,0],"sum_hessian":[2.485468E2,1.3394865E2,1.1459815E2,4.2418903E1,9.152975E1,7.604025E1,3.8557896E1,9.469869E0,3.2949036E1,6.3846977E1,2.768277E1,1.83303E1,5.7709957E1,3.14351E1,7.1227956E0],"tree_param":{"num_deleted":"0","num_feature":"43","num_nodes":"15","size_leaf_vector":"1"}},{"base_weights":[4.6541498E-4,-2.6839274E-1,7.2501165E-1,-7.6744074E-1,-5.159814E-2,5.777178E-1,1.2036073E-2,-1.157684E-2,-6.2145423E-3,-1.0738445E-3,6.828147E-3,6.8654623E-3,4.7584224E-4],"categories":[],"categories_nodes":[],"categories_segments":[],"categories_sizes":[],"default_left":[0,0,0,0,0,0,0,0,0,0,0,0,0],"id":77,"left_children":[1,3,5,7,9,11,-1,-1,-1,-1,-1,-1,-1],"loss_changes":[4.874148E1,1.970477E1,4.078396E0,2.425148E0,5.3297358E0,3.065752E0,0E0,0E0,0E0,0E0,0E0,0E0,0E0],"parents":[2147483647,0,0,1,1,2,2,3,3,4,4,5,5],"right_children":[2,4,6,8,10,12,-1,-1,-1,-1,-1,-1,-1],"split_conditions":[6.905533E-1,2.617779E-1,9.444227E-1,5.997209E-2,7.81155E1,7.6056335E1,1.2036073E-2,-1.157684E-2,-6.2145423E-3,-1.0738445E-3,6.828147E-3,6.8654623E-3,4.7584224E-4],"split_indices":[0,0,0,0,2,2,0,0,0,0,0,0,0],"split_type":[0,0,0,0,0,0,0,0,0,0,0,0,0],"sum_hessian":[2.482138E2,1.814956E2,6.67182E1,5.4197144E1,1.2729846E2,5.2704758E1,1.4013444E1,1.2868282E1,4.132886E1,1.1910498E2,8.193483E0,4.3483253E1,9.221503E0],"tree_param":{"num_deleted":"0","num_feature":"43","num_nodes":"13","size_leaf_vector":"1"}},{"base_weights":[4.913945E-4,-4.8713195E-1,3.9448744E-1,-8.412451E-1,-2.6040086E-1,1.184625E-1,8.1783557E-1,-1.0069566E-2,-5.1819882E-3,-5.3756856E-3,-2.1901305E-4,2.7681412E-3,-2.7609833E-3,1.2404046E-2,6.689249E-3],"categories":[],"categories_nodes":[],"categories_segments":[],"categories_sizes":[],"default_left":[0,0,0,0,0,0,0,0,0,0,0,0,0,0,0],"id":78,"left_children":[1,3,5,7,9,11,13,-1,-1,-1,-1,-1,-1,-1,-1],"loss_changes":[4.80101E1,8.747414E0,1.6054266E1,1.787859E0,4.5846796E0,5.376855E0,2.5921822E0,0E0,0E0,0E0,0E0,0E0,0E0,0E0,0E0],"parents":[2147483647,0,0,1,1,2,2,3,3,4,4,5,5,6,6],"right_children":[2,4,6,8,10,12,14,-1,-1,